<GAP_2020_5_23_60_1_23_12_19>
<Potential label="GAP_2020_5_23_60_1_23_12_19" init_args="Sum init_args_pot1={IP Glue} init_args_pot2={IP GAP label=GAP_2020_5_23_60_1_23_12_19}"/>
<quip>
  <Glue_params n_types="1">
  <per_type_data atomic_num="15" type="1">
    <density num_points="2" density_y1="-0.4144" density_yn="0.0">
      <point a="0.821917808219178" rho="0.00001"/>
      <point a="1.027397260273973" rho="0.00002"/>
    </density>
    <potential_density num_points="2">
      <point rho="0.00001" E="0.0"/>
      <point rho="0.00002" E="0.0"/>
    </potential_density>
  </per_type_data>
  <per_pair_data type1="1" type2="1">
<potential_pair num_points="38" y1="0.0" yn="0.0">
<point r="3.0"  E="0.0"/>
<point r="4.0"  E="-0.018820428606275908"/>
<point r="4.1"  E="-0.016228796603225144"/>
<point r="4.2"  E="-0.0140440935973035"/>
<point r="4.3"  E="-0.012194913497888888"/>
<point r="4.4"  E="-0.010623641300681096"/>
<point r="4.5"  E="-0.009283556286706502"/>
<point r="5.0"  E="-0.004933662436563589"/>
<point r="5.5"  E="-0.0027849238251257463"/>
<point r="6.0"  E="-0.0016522735676291597"/>
<point r="6.5"  E="-0.0010221374901230999"/>
<point r="7.0"  E="-0.0006552412308757928"/>
<point r="7.5"  E="-0.00043313360211257886"/>
<point r="8.0"  E="-0.00029406919697306106"/>
<point r="8.5"  E="-0.00020439765233042277"/>
<point r="9.0"  E="-0.0001450555669797891"/>
<point r="9.5"  E="-0.00010486916881338854"/>
<point r="10.0"  E="-7.708847557130608e-5"/>
<point r="10.5"  E="-5.752460737455519e-5"/>
<point r="11.0"  E="-4.3514434767589786e-5"/>
<point r="11.5"  E="-3.3327475316229485e-5"/>
<point r="12.0"  E="-2.581677449420562e-5"/>
<point r="12.5"  E="-2.0208281340164477e-5"/>
<point r="13.0"  E="-1.5970898283173436e-5"/>
<point r="13.5"  E="-1.2734645112080251e-5"/>
<point r="14.0"  E="-1.0238144232434262e-5"/>
<point r="14.5"  E="-8.29433255621057e-6"/>
<point r="15.0"  E="-6.767712533009045e-6"/>
<point r="15.5"  E="-5.559033209873066e-6"/>
<point r="16.0"  E="-4.594831202704079e-6"/>
<point r="16.5"  E="-3.82019729098182e-6"/>
<point r="17.0"  E="-3.1937133176628557e-6"/>
<point r="17.5"  E="-2.683868081667246e-6"/>
<point r="18.0"  E="-2.2664932340592047e-6"/>
<point r="18.5"  E="-1.9229105719368186e-6"/>
<point r="19.0"  E="-1.6385807627091959e-6"/>
<point r="19.5"  E="-1.4021090399493833e-6"/>
<point r="20.0"  E="-1.2045074308016575e-6"/>
</potential_pair>
 </per_pair_data>
</Glue_params>
</quip>
<GAP_params label="GAP_2020_5_23_60_1_23_12_19" gap_version="1575905725">
  <GAP_data do_core="T">
    <e0 Z="1" value=".00000000000000000E+000"/>
    <e0 Z="2" value=".00000000000000000E+000"/>
    <e0 Z="3" value=".00000000000000000E+000"/>
    <e0 Z="4" value=".00000000000000000E+000"/>
    <e0 Z="5" value=".00000000000000000E+000"/>
    <e0 Z="6" value=".00000000000000000E+000"/>
    <e0 Z="7" value=".00000000000000000E+000"/>
    <e0 Z="8" value=".00000000000000000E+000"/>
    <e0 Z="9" value=".00000000000000000E+000"/>
    <e0 Z="10" value=".00000000000000000E+000"/>
    <e0 Z="11" value=".00000000000000000E+000"/>
    <e0 Z="12" value=".00000000000000000E+000"/>
    <e0 Z="13" value=".00000000000000000E+000"/>
    <e0 Z="14" value=".00000000000000000E+000"/>
    <e0 Z="15" value="-.97533040000000001E-001"/>
    <e0 Z="16" value=".00000000000000000E+000"/>
    <e0 Z="17" value=".00000000000000000E+000"/>
    <e0 Z="18" value=".00000000000000000E+000"/>
    <e0 Z="19" value=".00000000000000000E+000"/>
    <e0 Z="20" value=".00000000000000000E+000"/>
    <e0 Z="21" value=".00000000000000000E+000"/>
    <e0 Z="22" value=".00000000000000000E+000"/>
    <e0 Z="23" value=".00000000000000000E+000"/>
    <e0 Z="24" value=".00000000000000000E+000"/>
    <e0 Z="25" value=".00000000000000000E+000"/>
    <e0 Z="26" value=".00000000000000000E+000"/>
    <e0 Z="27" value=".00000000000000000E+000"/>
    <e0 Z="28" value=".00000000000000000E+000"/>
    <e0 Z="29" value=".00000000000000000E+000"/>
    <e0 Z="30" value=".00000000000000000E+000"/>
    <e0 Z="31" value=".00000000000000000E+000"/>
    <e0 Z="32" value=".00000000000000000E+000"/>
    <e0 Z="33" value=".00000000000000000E+000"/>
    <e0 Z="34" value=".00000000000000000E+000"/>
    <e0 Z="35" value=".00000000000000000E+000"/>
    <e0 Z="36" value=".00000000000000000E+000"/>
    <e0 Z="37" value=".00000000000000000E+000"/>
    <e0 Z="38" value=".00000000000000000E+000"/>
    <e0 Z="39" value=".00000000000000000E+000"/>
    <e0 Z="40" value=".00000000000000000E+000"/>
    <e0 Z="41" value=".00000000000000000E+000"/>
    <e0 Z="42" value=".00000000000000000E+000"/>
    <e0 Z="43" value=".00000000000000000E+000"/>
    <e0 Z="44" value=".00000000000000000E+000"/>
    <e0 Z="45" value=".00000000000000000E+000"/>
    <e0 Z="46" value=".00000000000000000E+000"/>
    <e0 Z="47" value=".00000000000000000E+000"/>
    <e0 Z="48" value=".00000000000000000E+000"/>
    <e0 Z="49" value=".00000000000000000E+000"/>
    <e0 Z="50" value=".00000000000000000E+000"/>
    <e0 Z="51" value=".00000000000000000E+000"/>
    <e0 Z="52" value=".00000000000000000E+000"/>
    <e0 Z="53" value=".00000000000000000E+000"/>
    <e0 Z="54" value=".00000000000000000E+000"/>
    <e0 Z="55" value=".00000000000000000E+000"/>
    <e0 Z="56" value=".00000000000000000E+000"/>
    <e0 Z="57" value=".00000000000000000E+000"/>
    <e0 Z="58" value=".00000000000000000E+000"/>
    <e0 Z="59" value=".00000000000000000E+000"/>
    <e0 Z="60" value=".00000000000000000E+000"/>
    <e0 Z="61" value=".00000000000000000E+000"/>
    <e0 Z="62" value=".00000000000000000E+000"/>
    <e0 Z="63" value=".00000000000000000E+000"/>
    <e0 Z="64" value=".00000000000000000E+000"/>
    <e0 Z="65" value=".00000000000000000E+000"/>
    <e0 Z="66" value=".00000000000000000E+000"/>
    <e0 Z="67" value=".00000000000000000E+000"/>
    <e0 Z="68" value=".00000000000000000E+000"/>
    <e0 Z="69" value=".00000000000000000E+000"/>
    <e0 Z="70" value=".00000000000000000E+000"/>
    <e0 Z="71" value=".00000000000000000E+000"/>
    <e0 Z="72" value=".00000000000000000E+000"/>
    <e0 Z="73" value=".00000000000000000E+000"/>
    <e0 Z="74" value=".00000000000000000E+000"/>
    <e0 Z="75" value=".00000000000000000E+000"/>
    <e0 Z="76" value=".00000000000000000E+000"/>
    <e0 Z="77" value=".00000000000000000E+000"/>
    <e0 Z="78" value=".00000000000000000E+000"/>
    <e0 Z="79" value=".00000000000000000E+000"/>
    <e0 Z="80" value=".00000000000000000E+000"/>
    <e0 Z="81" value=".00000000000000000E+000"/>
    <e0 Z="82" value=".00000000000000000E+000"/>
    <e0 Z="83" value=".00000000000000000E+000"/>
    <e0 Z="84" value=".00000000000000000E+000"/>
    <e0 Z="85" value=".00000000000000000E+000"/>
    <e0 Z="86" value=".00000000000000000E+000"/>
    <e0 Z="87" value=".00000000000000000E+000"/>
    <e0 Z="88" value=".00000000000000000E+000"/>
    <e0 Z="89" value=".00000000000000000E+000"/>
    <e0 Z="90" value=".00000000000000000E+000"/>
    <e0 Z="91" value=".00000000000000000E+000"/>
    <e0 Z="92" value=".00000000000000000E+000"/>
    <e0 Z="93" value=".00000000000000000E+000"/>
    <e0 Z="94" value=".00000000000000000E+000"/>
    <e0 Z="95" value=".00000000000000000E+000"/>
    <e0 Z="96" value=".00000000000000000E+000"/>
    <e0 Z="97" value=".00000000000000000E+000"/>
    <e0 Z="98" value=".00000000000000000E+000"/>
    <e0 Z="99" value=".00000000000000000E+000"/>
    <e0 Z="100" value=".00000000000000000E+000"/>
    <e0 Z="101" value=".00000000000000000E+000"/>
    <e0 Z="102" value=".00000000000000000E+000"/>
    <e0 Z="103" value=".00000000000000000E+000"/>
    <e0 Z="104" value=".00000000000000000E+000"/>
    <e0 Z="105" value=".00000000000000000E+000"/>
    <e0 Z="106" value=".00000000000000000E+000"/>
    <e0 Z="107" value=".00000000000000000E+000"/>
    <e0 Z="108" value=".00000000000000000E+000"/>
    <e0 Z="109" value=".00000000000000000E+000"/>
    <e0 Z="110" value=".00000000000000000E+000"/>
    <e0 Z="111" value=".00000000000000000E+000"/>
    <e0 Z="112" value=".00000000000000000E+000"/>
    <e0 Z="113" value=".00000000000000000E+000"/>
    <e0 Z="114" value=".00000000000000000E+000"/>
    <e0 Z="115" value=".00000000000000000E+000"/>
    <e0 Z="116" value=".00000000000000000E+000"/>
    <e0 Z="117" value=".00000000000000000E+000"/>
    <e0 Z="118" value=".00000000000000000E+000"/>
  </GAP_data>
  <gpSparse label="GAP_2020_5_23_60_1_23_12_19" n_coordinate="2">
    <gpCoordinates label="GAP_2020_5_23_60_1_23_12_191" dimensions="1" signal_variance="2.0000000000000000" signal_mean=".00000000000000000E+000" sparsified="T" n_permutations="2" covariance_type="1" n_sparseX="15" sparseX_filename="P_GAP_20.xml.sparseX.GAP_2020_5_23_60_1_23_12_191" sparseX_md5sum="e0c8c6cb23c7ae5e0b0f97f18471beff">
      <theta>  0.25000000000000000E+001 </theta>
      <descriptor> distance_Nb order=2 cutoff=5.0 n_sparse=15 covariance_type=ard_se delta=2.0 theta_uniform=2.5 sparse_method=uniform compact_clusters=T</descriptor>
      <permutation i="1">1  </permutation>
      <permutation i="2">1  </permutation>
      <sparseX i="1" alpha="47195.657103067657" sparseCutoff="1.0000000000000000"/>
      <sparseX i="2" alpha="-50603.729170534585" sparseCutoff="1.0000000000000000"/>
      <sparseX i="3" alpha="67108.063692250231" sparseCutoff="1.0000000000000000"/>
      <sparseX i="4" alpha="84276.664006069870" sparseCutoff="1.0000000000000000"/>
      <sparseX i="5" alpha="9620.6093833550731" sparseCutoff="1.0000000000000000"/>
      <sparseX i="6" alpha="-53323.104910287911" sparseCutoff="1.0000000000000000"/>
      <sparseX i="7" alpha="-84733.928440317221" sparseCutoff="1.0000000000000000"/>
      <sparseX i="8" alpha="-71794.762566666148" sparseCutoff="1.0000000000000000"/>
      <sparseX i="9" alpha="-18940.889241761841" sparseCutoff="1.0000000000000000"/>
      <sparseX i="10" alpha="93003.759393361281" sparseCutoff="1.0000000000000000"/>
      <sparseX i="11" alpha="79465.849972369600" sparseCutoff=".81180019384042856"/>
      <sparseX i="12" alpha="34840.468945871668" sparseCutoff=".15305833510568634E-001"/>
      <sparseX i="13" alpha="-60384.324995471150" sparseCutoff="1.0000000000000000"/>
      <sparseX i="14" alpha="63934.075489386923" sparseCutoff="1.0000000000000000"/>
      <sparseX i="15" alpha="-90366.069453362012" sparseCutoff="1.0000000000000000"/>
    </gpCoordinates>
    <gpCoordinates label="GAP_2020_5_23_60_1_23_12_192" dimensions="547" signal_variance=".20000000000000001" signal_mean=".00000000000000000E+000" sparsified="T" n_permutations="1" covariance_type="2" zeta="4.0000000000000000" n_sparseX="8000" sparseX_filename="P_GAP_20.xml.sparseX.GAP_2020_5_23_60_1_23_12_192" sparseX_md5sum="63f33a53a1d2d49e32b452108495e874">
      <descriptor> soap l_max=6 n_max=12 atom_sigma=0.5 cutoff=5.0 radial_scaling=-0.5 cutoff_transition_width=1.0 central_weight=1.0 n_sparse=8000 delta=0.2 f0=0.0 covariance_type=dot_product zeta=4 sparse_method=cur_points</descriptor>
      <permutation i="1">1  </permutation>
      <sparseX i="1" alpha="3666.4176383914273" sparseCutoff="1.0000000000000000"/>
      <sparseX i="2" alpha="-4616.4383141038907" sparseCutoff="1.0000000000000000"/>
      <sparseX i="3" alpha="-10297.181699885161" sparseCutoff="1.0000000000000000"/>
      <sparseX i="4" alpha="10700.351928758579" sparseCutoff="1.0000000000000000"/>
      <sparseX i="5" alpha="9569.3489761624642" sparseCutoff="1.0000000000000000"/>
      <sparseX i="6" alpha="-20082.935258948328" sparseCutoff="1.0000000000000000"/>
      <sparseX i="7" alpha="12968.085469215712" sparseCutoff="1.0000000000000000"/>
      <sparseX i="8" alpha="8858.2971981357514" sparseCutoff="1.0000000000000000"/>
      <sparseX i="9" alpha="-10604.162913482567" sparseCutoff="1.0000000000000000"/>
      <sparseX i="10" alpha="-13114.029527947459" sparseCutoff="1.0000000000000000"/>
      <sparseX i="11" alpha="13842.770976937374" sparseCutoff="1.0000000000000000"/>
      <sparseX i="12" alpha="-2300.9794137349782" sparseCutoff="1.0000000000000000"/>
      <sparseX i="13" alpha="-5774.0453996751185" sparseCutoff="1.0000000000000000"/>
      <sparseX i="14" alpha="-647.94768390720083" sparseCutoff="1.0000000000000000"/>
      <sparseX i="15" alpha="511.49571535233349" sparseCutoff="1.0000000000000000"/>
      <sparseX i="16" alpha="-484.71062178021492" sparseCutoff="1.0000000000000000"/>
      <sparseX i="17" alpha="-31.220233010774948" sparseCutoff="1.0000000000000000"/>
      <sparseX i="18" alpha="958.50948568705212" sparseCutoff="1.0000000000000000"/>
      <sparseX i="19" alpha="3042.9673816349609" sparseCutoff="1.0000000000000000"/>
      <sparseX i="20" alpha="2445.7344955806539" sparseCutoff="1.0000000000000000"/>
      <sparseX i="21" alpha="4812.4173433808292" sparseCutoff="1.0000000000000000"/>
      <sparseX i="22" alpha="-13422.708608701509" sparseCutoff="1.0000000000000000"/>
      <sparseX i="23" alpha="-281.39611686055974" sparseCutoff="1.0000000000000000"/>
      <sparseX i="24" alpha="-4977.2820646986156" sparseCutoff="1.0000000000000000"/>
      <sparseX i="25" alpha="2738.8610586786854" sparseCutoff="1.0000000000000000"/>
      <sparseX i="26" alpha="79.384680194616266" sparseCutoff="1.0000000000000000"/>
      <sparseX i="27" alpha="4710.2311554996704" sparseCutoff="1.0000000000000000"/>
      <sparseX i="28" alpha="-8870.3309204817488" sparseCutoff="1.0000000000000000"/>
      <sparseX i="29" alpha="10725.821552210311" sparseCutoff="1.0000000000000000"/>
      <sparseX i="30" alpha="1876.8363424273921" sparseCutoff="1.0000000000000000"/>
      <sparseX i="31" alpha="1051.5679971896527" sparseCutoff="1.0000000000000000"/>
      <sparseX i="32" alpha="3437.5436226692796" sparseCutoff="1.0000000000000000"/>
      <sparseX i="33" alpha="8589.0858078767433" sparseCutoff="1.0000000000000000"/>
      <sparseX i="34" alpha="379.05873376485789" sparseCutoff="1.0000000000000000"/>
      <sparseX i="35" alpha="-47.223858287219386" sparseCutoff="1.0000000000000000"/>
      <sparseX i="36" alpha="2111.7801897281170" sparseCutoff="1.0000000000000000"/>
      <sparseX i="37" alpha="-3804.6046179145487" sparseCutoff="1.0000000000000000"/>
      <sparseX i="38" alpha="-3575.0547850138269" sparseCutoff="1.0000000000000000"/>
      <sparseX i="39" alpha="261.54980460026360" sparseCutoff="1.0000000000000000"/>
      <sparseX i="40" alpha="-5182.1583844954039" sparseCutoff="1.0000000000000000"/>
      <sparseX i="41" alpha="4163.4971100090561" sparseCutoff="1.0000000000000000"/>
      <sparseX i="42" alpha="3812.8151454751724" sparseCutoff="1.0000000000000000"/>
      <sparseX i="43" alpha="-6388.6640916837869" sparseCutoff="1.0000000000000000"/>
      <sparseX i="44" alpha="-1906.0933771057844" sparseCutoff="1.0000000000000000"/>
      <sparseX i="45" alpha="-3865.2126846012707" sparseCutoff="1.0000000000000000"/>
      <sparseX i="46" alpha="1380.1324821008664" sparseCutoff="1.0000000000000000"/>
      <sparseX i="47" alpha="-2329.9833555160362" sparseCutoff="1.0000000000000000"/>
      <sparseX i="48" alpha="-3427.0834533148877" sparseCutoff="1.0000000000000000"/>
      <sparseX i="49" alpha="1163.9812289997417" sparseCutoff="1.0000000000000000"/>
      <sparseX i="50" alpha="-4573.9856222409362" sparseCutoff="1.0000000000000000"/>
      <sparseX i="51" alpha="566.00508702008926" sparseCutoff="1.0000000000000000"/>
      <sparseX i="52" alpha="3359.7560454598288" sparseCutoff="1.0000000000000000"/>
      <sparseX i="53" alpha="2563.3091554528060" sparseCutoff="1.0000000000000000"/>
      <sparseX i="54" alpha="11349.388038246498" sparseCutoff="1.0000000000000000"/>
      <sparseX i="55" alpha="994.19666968667957" sparseCutoff="1.0000000000000000"/>
      <sparseX i="56" alpha="-2346.9626657908716" sparseCutoff="1.0000000000000000"/>
      <sparseX i="57" alpha="865.12051306954584" sparseCutoff="1.0000000000000000"/>
      <sparseX i="58" alpha="908.71240699923476" sparseCutoff="1.0000000000000000"/>
      <sparseX i="59" alpha="-5973.2440457814046" sparseCutoff="1.0000000000000000"/>
      <sparseX i="60" alpha="-3615.1291707006390" sparseCutoff="1.0000000000000000"/>
      <sparseX i="61" alpha="-4964.3505758299734" sparseCutoff="1.0000000000000000"/>
      <sparseX i="62" alpha="-5292.0414321053986" sparseCutoff="1.0000000000000000"/>
      <sparseX i="63" alpha="-60.893471446865703" sparseCutoff="1.0000000000000000"/>
      <sparseX i="64" alpha="-940.59785760348154" sparseCutoff="1.0000000000000000"/>
      <sparseX i="65" alpha="-383.11364274841145" sparseCutoff="1.0000000000000000"/>
      <sparseX i="66" alpha="322.97564578863751" sparseCutoff="1.0000000000000000"/>
      <sparseX i="67" alpha="899.05428785530523" sparseCutoff="1.0000000000000000"/>
      <sparseX i="68" alpha="-228.19463652992903" sparseCutoff="1.0000000000000000"/>
      <sparseX i="69" alpha="6682.9191426102989" sparseCutoff="1.0000000000000000"/>
      <sparseX i="70" alpha="2970.3764891273586" sparseCutoff="1.0000000000000000"/>
      <sparseX i="71" alpha="-8496.2144245060808" sparseCutoff="1.0000000000000000"/>
      <sparseX i="72" alpha="384.16204444354162" sparseCutoff="1.0000000000000000"/>
      <sparseX i="73" alpha="-5055.5394360154050" sparseCutoff="1.0000000000000000"/>
      <sparseX i="74" alpha="-265.24472908031095" sparseCutoff="1.0000000000000000"/>
      <sparseX i="75" alpha="6819.5007720828871" sparseCutoff="1.0000000000000000"/>
      <sparseX i="76" alpha="1999.4069317361561" sparseCutoff="1.0000000000000000"/>
      <sparseX i="77" alpha="-3741.1680358722356" sparseCutoff="1.0000000000000000"/>
      <sparseX i="78" alpha="-2553.6906133686753" sparseCutoff="1.0000000000000000"/>
      <sparseX i="79" alpha="3449.6101496711376" sparseCutoff="1.0000000000000000"/>
      <sparseX i="80" alpha="5901.3556343646715" sparseCutoff="1.0000000000000000"/>
      <sparseX i="81" alpha="981.97284816590138" sparseCutoff="1.0000000000000000"/>
      <sparseX i="82" alpha="-17981.386146462977" sparseCutoff="1.0000000000000000"/>
      <sparseX i="83" alpha="6514.1681720908709" sparseCutoff="1.0000000000000000"/>
      <sparseX i="84" alpha="-1916.7048004743313" sparseCutoff="1.0000000000000000"/>
      <sparseX i="85" alpha="490.30472970822262" sparseCutoff="1.0000000000000000"/>
      <sparseX i="86" alpha="-1728.4349918527400" sparseCutoff="1.0000000000000000"/>
      <sparseX i="87" alpha="-5573.7097397770403" sparseCutoff="1.0000000000000000"/>
      <sparseX i="88" alpha="9885.4504019570049" sparseCutoff="1.0000000000000000"/>
      <sparseX i="89" alpha="1578.6353836141095" sparseCutoff="1.0000000000000000"/>
      <sparseX i="90" alpha="-1498.6028881409629" sparseCutoff="1.0000000000000000"/>
      <sparseX i="91" alpha="1986.7898621458512" sparseCutoff="1.0000000000000000"/>
      <sparseX i="92" alpha="1105.3633096297986" sparseCutoff="1.0000000000000000"/>
      <sparseX i="93" alpha="8201.6480410456461" sparseCutoff="1.0000000000000000"/>
      <sparseX i="94" alpha="4692.6802211874683" sparseCutoff="1.0000000000000000"/>
      <sparseX i="95" alpha="5421.6297737321829" sparseCutoff="1.0000000000000000"/>
      <sparseX i="96" alpha="3803.0503956236535" sparseCutoff="1.0000000000000000"/>
      <sparseX i="97" alpha="1011.1562428224557" sparseCutoff="1.0000000000000000"/>
      <sparseX i="98" alpha="-1015.2991542551589" sparseCutoff="1.0000000000000000"/>
      <sparseX i="99" alpha="1535.2563506686322" sparseCutoff="1.0000000000000000"/>
      <sparseX i="100" alpha="2125.3839420420309" sparseCutoff="1.0000000000000000"/>
      <sparseX i="101" alpha="3334.1281908144520" sparseCutoff="1.0000000000000000"/>
      <sparseX i="102" alpha="2474.6635715167727" sparseCutoff="1.0000000000000000"/>
      <sparseX i="103" alpha="6693.2969600907772" sparseCutoff="1.0000000000000000"/>
      <sparseX i="104" alpha="5819.3983917481073" sparseCutoff="1.0000000000000000"/>
      <sparseX i="105" alpha="2326.0916060160671" sparseCutoff="1.0000000000000000"/>
      <sparseX i="106" alpha="-319.57656208775154" sparseCutoff="1.0000000000000000"/>
      <sparseX i="107" alpha="-1985.6016032563155" sparseCutoff="1.0000000000000000"/>
      <sparseX i="108" alpha="438.83845047207166" sparseCutoff="1.0000000000000000"/>
      <sparseX i="109" alpha="-674.71556320305945" sparseCutoff="1.0000000000000000"/>
      <sparseX i="110" alpha="5813.8837783642057" sparseCutoff="1.0000000000000000"/>
      <sparseX i="111" alpha="-762.69250036366975" sparseCutoff="1.0000000000000000"/>
      <sparseX i="112" alpha="-4247.3976146809237" sparseCutoff="1.0000000000000000"/>
      <sparseX i="113" alpha="-3361.5963447919598" sparseCutoff="1.0000000000000000"/>
      <sparseX i="114" alpha="13740.501726279914" sparseCutoff="1.0000000000000000"/>
      <sparseX i="115" alpha="2202.1225967322648" sparseCutoff="1.0000000000000000"/>
      <sparseX i="116" alpha="-498.79667974308569" sparseCutoff="1.0000000000000000"/>
      <sparseX i="117" alpha="-2350.1036228569874" sparseCutoff="1.0000000000000000"/>
      <sparseX i="118" alpha="5475.1755419592382" sparseCutoff="1.0000000000000000"/>
      <sparseX i="119" alpha="9192.6516405560524" sparseCutoff="1.0000000000000000"/>
      <sparseX i="120" alpha="-3309.0311644416552" sparseCutoff="1.0000000000000000"/>
      <sparseX i="121" alpha="-461.44262229162871" sparseCutoff="1.0000000000000000"/>
      <sparseX i="122" alpha="3769.9368601812639" sparseCutoff="1.0000000000000000"/>
      <sparseX i="123" alpha="2460.8712207217577" sparseCutoff="1.0000000000000000"/>
      <sparseX i="124" alpha="-1564.1283772652475" sparseCutoff="1.0000000000000000"/>
      <sparseX i="125" alpha="190.81186650639407" sparseCutoff="1.0000000000000000"/>
      <sparseX i="126" alpha="-4763.2973989070633" sparseCutoff="1.0000000000000000"/>
      <sparseX i="127" alpha="560.65366717831671" sparseCutoff="1.0000000000000000"/>
      <sparseX i="128" alpha="-19.514252199923344" sparseCutoff="1.0000000000000000"/>
      <sparseX i="129" alpha="1470.8454764755477" sparseCutoff="1.0000000000000000"/>
      <sparseX i="130" alpha="4186.1750078445302" sparseCutoff="1.0000000000000000"/>
      <sparseX i="131" alpha="2266.5737493918409" sparseCutoff="1.0000000000000000"/>
      <sparseX i="132" alpha="2116.3236618357964" sparseCutoff="1.0000000000000000"/>
      <sparseX i="133" alpha="-1571.6657697599403" sparseCutoff="1.0000000000000000"/>
      <sparseX i="134" alpha="587.51109150099421" sparseCutoff="1.0000000000000000"/>
      <sparseX i="135" alpha="1295.9020840123205" sparseCutoff="1.0000000000000000"/>
      <sparseX i="136" alpha="-2270.8143375748123" sparseCutoff="1.0000000000000000"/>
      <sparseX i="137" alpha="292.93397917767487" sparseCutoff="1.0000000000000000"/>
      <sparseX i="138" alpha="-2891.3158531767153" sparseCutoff="1.0000000000000000"/>
      <sparseX i="139" alpha="-704.57792950205317" sparseCutoff="1.0000000000000000"/>
      <sparseX i="140" alpha="-8477.2039350079322" sparseCutoff="1.0000000000000000"/>
      <sparseX i="141" alpha="-71.533635293979714" sparseCutoff="1.0000000000000000"/>
      <sparseX i="142" alpha="-363.54660755091146" sparseCutoff="1.0000000000000000"/>
      <sparseX i="143" alpha="2265.6610211911184" sparseCutoff="1.0000000000000000"/>
      <sparseX i="144" alpha="-468.29563538497240" sparseCutoff="1.0000000000000000"/>
      <sparseX i="145" alpha="2348.5596557504082" sparseCutoff="1.0000000000000000"/>
      <sparseX i="146" alpha="4458.8260007158342" sparseCutoff="1.0000000000000000"/>
      <sparseX i="147" alpha="1099.7881581343424" sparseCutoff="1.0000000000000000"/>
      <sparseX i="148" alpha="2342.0278031673720" sparseCutoff="1.0000000000000000"/>
      <sparseX i="149" alpha="-5009.8592899793457" sparseCutoff="1.0000000000000000"/>
      <sparseX i="150" alpha="1471.1331057586383" sparseCutoff="1.0000000000000000"/>
      <sparseX i="151" alpha="-8525.5960421244290" sparseCutoff="1.0000000000000000"/>
      <sparseX i="152" alpha="3716.5845219237440" sparseCutoff="1.0000000000000000"/>
      <sparseX i="153" alpha="399.12645609292605" sparseCutoff="1.0000000000000000"/>
      <sparseX i="154" alpha="3075.2334648985975" sparseCutoff="1.0000000000000000"/>
      <sparseX i="155" alpha="-3570.4950792434374" sparseCutoff="1.0000000000000000"/>
      <sparseX i="156" alpha="4819.7585925308695" sparseCutoff="1.0000000000000000"/>
      <sparseX i="157" alpha="3821.0033421885410" sparseCutoff="1.0000000000000000"/>
      <sparseX i="158" alpha="-428.68967877685839" sparseCutoff="1.0000000000000000"/>
      <sparseX i="159" alpha="2934.4189969402291" sparseCutoff="1.0000000000000000"/>
      <sparseX i="160" alpha="-3751.4847673058962" sparseCutoff="1.0000000000000000"/>
      <sparseX i="161" alpha="4807.9286090781889" sparseCutoff="1.0000000000000000"/>
      <sparseX i="162" alpha="1001.9432477770520" sparseCutoff="1.0000000000000000"/>
      <sparseX i="163" alpha="3629.0755705458100" sparseCutoff="1.0000000000000000"/>
      <sparseX i="164" alpha="3818.9407230255306" sparseCutoff="1.0000000000000000"/>
      <sparseX i="165" alpha="-4497.8999906551880" sparseCutoff="1.0000000000000000"/>
      <sparseX i="166" alpha="1382.8993211354846" sparseCutoff="1.0000000000000000"/>
      <sparseX i="167" alpha="-1512.2941790143964" sparseCutoff="1.0000000000000000"/>
      <sparseX i="168" alpha="7449.7420724134863" sparseCutoff="1.0000000000000000"/>
      <sparseX i="169" alpha="3326.1393003390049" sparseCutoff="1.0000000000000000"/>
      <sparseX i="170" alpha="-1221.9026186482938" sparseCutoff="1.0000000000000000"/>
      <sparseX i="171" alpha="1066.1580208862331" sparseCutoff="1.0000000000000000"/>
      <sparseX i="172" alpha="-1769.7075866941511" sparseCutoff="1.0000000000000000"/>
      <sparseX i="173" alpha="-910.71170243805773" sparseCutoff="1.0000000000000000"/>
      <sparseX i="174" alpha="-13721.259043921296" sparseCutoff="1.0000000000000000"/>
      <sparseX i="175" alpha="-807.51230823241087" sparseCutoff="1.0000000000000000"/>
      <sparseX i="176" alpha="-4741.0670278559228" sparseCutoff="1.0000000000000000"/>
      <sparseX i="177" alpha="2111.2982278540376" sparseCutoff="1.0000000000000000"/>
      <sparseX i="178" alpha="-291.95185091771617" sparseCutoff="1.0000000000000000"/>
      <sparseX i="179" alpha="4371.3918380833620" sparseCutoff="1.0000000000000000"/>
      <sparseX i="180" alpha="-3411.5317837068583" sparseCutoff="1.0000000000000000"/>
      <sparseX i="181" alpha="-5986.4614778702626" sparseCutoff="1.0000000000000000"/>
      <sparseX i="182" alpha="10731.024295544330" sparseCutoff="1.0000000000000000"/>
      <sparseX i="183" alpha="-1767.3528564303897" sparseCutoff="1.0000000000000000"/>
      <sparseX i="184" alpha="4677.6047898018096" sparseCutoff="1.0000000000000000"/>
      <sparseX i="185" alpha="-1463.0187523208792" sparseCutoff="1.0000000000000000"/>
      <sparseX i="186" alpha="-139.84176971443395" sparseCutoff="1.0000000000000000"/>
      <sparseX i="187" alpha="-3174.0433679145171" sparseCutoff="1.0000000000000000"/>
      <sparseX i="188" alpha="1492.9842650137655" sparseCutoff="1.0000000000000000"/>
      <sparseX i="189" alpha="2673.3160600773476" sparseCutoff="1.0000000000000000"/>
      <sparseX i="190" alpha="-2750.5396927730408" sparseCutoff="1.0000000000000000"/>
      <sparseX i="191" alpha="-615.40881621206950" sparseCutoff="1.0000000000000000"/>
      <sparseX i="192" alpha="-1273.9994577380676" sparseCutoff="1.0000000000000000"/>
      <sparseX i="193" alpha="-2995.1950418065958" sparseCutoff="1.0000000000000000"/>
      <sparseX i="194" alpha="1190.3264126338643" sparseCutoff="1.0000000000000000"/>
      <sparseX i="195" alpha="2363.3218817882403" sparseCutoff="1.0000000000000000"/>
      <sparseX i="196" alpha="2459.8103086378555" sparseCutoff="1.0000000000000000"/>
      <sparseX i="197" alpha="4495.8378463958807" sparseCutoff="1.0000000000000000"/>
      <sparseX i="198" alpha="205.65342409237147" sparseCutoff="1.0000000000000000"/>
      <sparseX i="199" alpha="-13791.180879357044" sparseCutoff="1.0000000000000000"/>
      <sparseX i="200" alpha="657.83626749323639" sparseCutoff="1.0000000000000000"/>
      <sparseX i="201" alpha="-1308.5937292412032" sparseCutoff="1.0000000000000000"/>
      <sparseX i="202" alpha="-6298.1002274495713" sparseCutoff="1.0000000000000000"/>
      <sparseX i="203" alpha="3344.9933544652304" sparseCutoff="1.0000000000000000"/>
      <sparseX i="204" alpha="1603.5802619913718" sparseCutoff="1.0000000000000000"/>
      <sparseX i="205" alpha="4372.9257013392389" sparseCutoff="1.0000000000000000"/>
      <sparseX i="206" alpha="2887.1293140811845" sparseCutoff="1.0000000000000000"/>
      <sparseX i="207" alpha="-1318.6499924482196" sparseCutoff="1.0000000000000000"/>
      <sparseX i="208" alpha="4228.5639463917987" sparseCutoff="1.0000000000000000"/>
      <sparseX i="209" alpha="10154.066856111114" sparseCutoff="1.0000000000000000"/>
      <sparseX i="210" alpha="-2885.0103097727715" sparseCutoff="1.0000000000000000"/>
      <sparseX i="211" alpha="5108.1994766639509" sparseCutoff="1.0000000000000000"/>
      <sparseX i="212" alpha="-2179.7766163536890" sparseCutoff="1.0000000000000000"/>
      <sparseX i="213" alpha="1261.7983365772841" sparseCutoff="1.0000000000000000"/>
      <sparseX i="214" alpha="-2423.5638399994555" sparseCutoff="1.0000000000000000"/>
      <sparseX i="215" alpha="-2250.2423296049756" sparseCutoff="1.0000000000000000"/>
      <sparseX i="216" alpha="-4946.2063034646499" sparseCutoff="1.0000000000000000"/>
      <sparseX i="217" alpha="562.61387784426324" sparseCutoff="1.0000000000000000"/>
      <sparseX i="218" alpha="-5221.9121659709208" sparseCutoff="1.0000000000000000"/>
      <sparseX i="219" alpha="-2429.2730345463287" sparseCutoff="1.0000000000000000"/>
      <sparseX i="220" alpha="-556.94424693133658" sparseCutoff="1.0000000000000000"/>
      <sparseX i="221" alpha="-5226.3203984657621" sparseCutoff="1.0000000000000000"/>
      <sparseX i="222" alpha="2832.2500245906599" sparseCutoff="1.0000000000000000"/>
      <sparseX i="223" alpha="-2851.3596993294846" sparseCutoff="1.0000000000000000"/>
      <sparseX i="224" alpha="-422.10501607720647" sparseCutoff="1.0000000000000000"/>
      <sparseX i="225" alpha="-2166.3780792646940" sparseCutoff="1.0000000000000000"/>
      <sparseX i="226" alpha="988.95608972939738" sparseCutoff="1.0000000000000000"/>
      <sparseX i="227" alpha="-1431.7296171036396" sparseCutoff="1.0000000000000000"/>
      <sparseX i="228" alpha="-1303.1435359960124" sparseCutoff="1.0000000000000000"/>
      <sparseX i="229" alpha="-1420.3372465851849" sparseCutoff="1.0000000000000000"/>
      <sparseX i="230" alpha="-2354.9107242629998" sparseCutoff="1.0000000000000000"/>
      <sparseX i="231" alpha="-2405.0805187588599" sparseCutoff="1.0000000000000000"/>
      <sparseX i="232" alpha="9655.7389928554330" sparseCutoff="1.0000000000000000"/>
      <sparseX i="233" alpha="-4346.3810527650821" sparseCutoff="1.0000000000000000"/>
      <sparseX i="234" alpha="9064.0473872405946" sparseCutoff="1.0000000000000000"/>
      <sparseX i="235" alpha="2146.2035824605159" sparseCutoff="1.0000000000000000"/>
      <sparseX i="236" alpha="2581.6169300961251" sparseCutoff="1.0000000000000000"/>
      <sparseX i="237" alpha="-8993.9858021576219" sparseCutoff="1.0000000000000000"/>
      <sparseX i="238" alpha="2367.1927806470094" sparseCutoff="1.0000000000000000"/>
      <sparseX i="239" alpha="-7245.8466990574925" sparseCutoff="1.0000000000000000"/>
      <sparseX i="240" alpha="-6022.5962336304328" sparseCutoff="1.0000000000000000"/>
      <sparseX i="241" alpha="3716.7334849995245" sparseCutoff="1.0000000000000000"/>
      <sparseX i="242" alpha="-2491.7936351854919" sparseCutoff="1.0000000000000000"/>
      <sparseX i="243" alpha="2595.6138975006961" sparseCutoff="1.0000000000000000"/>
      <sparseX i="244" alpha="-9117.1380704010971" sparseCutoff="1.0000000000000000"/>
      <sparseX i="245" alpha="852.90739303616613" sparseCutoff="1.0000000000000000"/>
      <sparseX i="246" alpha="-1131.8483783322392" sparseCutoff="1.0000000000000000"/>
      <sparseX i="247" alpha="4308.2207749541340" sparseCutoff="1.0000000000000000"/>
      <sparseX i="248" alpha="-885.83043126865607" sparseCutoff="1.0000000000000000"/>
      <sparseX i="249" alpha="-1814.8308947466169" sparseCutoff="1.0000000000000000"/>
      <sparseX i="250" alpha="1212.4946694610894" sparseCutoff="1.0000000000000000"/>
      <sparseX i="251" alpha="2313.6228933197185" sparseCutoff="1.0000000000000000"/>
      <sparseX i="252" alpha="-5480.6900056620634" sparseCutoff="1.0000000000000000"/>
      <sparseX i="253" alpha="-4402.7928691398629" sparseCutoff="1.0000000000000000"/>
      <sparseX i="254" alpha="3754.7753794096484" sparseCutoff="1.0000000000000000"/>
      <sparseX i="255" alpha="-894.71877001927680" sparseCutoff="1.0000000000000000"/>
      <sparseX i="256" alpha="356.67020755469997" sparseCutoff="1.0000000000000000"/>
      <sparseX i="257" alpha="-1423.0166790898272" sparseCutoff="1.0000000000000000"/>
      <sparseX i="258" alpha="1366.3059521213884" sparseCutoff="1.0000000000000000"/>
      <sparseX i="259" alpha="665.36333788899105" sparseCutoff="1.0000000000000000"/>
      <sparseX i="260" alpha="266.49486542008498" sparseCutoff="1.0000000000000000"/>
      <sparseX i="261" alpha="-1507.4651924848645" sparseCutoff="1.0000000000000000"/>
      <sparseX i="262" alpha="-2650.7886291691466" sparseCutoff="1.0000000000000000"/>
      <sparseX i="263" alpha="1903.1875056870085" sparseCutoff="1.0000000000000000"/>
      <sparseX i="264" alpha="-2155.4518053840397" sparseCutoff="1.0000000000000000"/>
      <sparseX i="265" alpha="656.56783381824630" sparseCutoff="1.0000000000000000"/>
      <sparseX i="266" alpha="-3763.8444995964855" sparseCutoff="1.0000000000000000"/>
      <sparseX i="267" alpha="-1403.5521020513343" sparseCutoff="1.0000000000000000"/>
      <sparseX i="268" alpha="1957.3260530408159" sparseCutoff="1.0000000000000000"/>
      <sparseX i="269" alpha="1102.9127590662799" sparseCutoff="1.0000000000000000"/>
      <sparseX i="270" alpha="586.03735265215880" sparseCutoff="1.0000000000000000"/>
      <sparseX i="271" alpha="3805.2250988568035" sparseCutoff="1.0000000000000000"/>
      <sparseX i="272" alpha="2053.3083292136739" sparseCutoff="1.0000000000000000"/>
      <sparseX i="273" alpha="-3473.0662871030218" sparseCutoff="1.0000000000000000"/>
      <sparseX i="274" alpha="-3961.6014013042800" sparseCutoff="1.0000000000000000"/>
      <sparseX i="275" alpha="3371.7927614018008" sparseCutoff="1.0000000000000000"/>
      <sparseX i="276" alpha="3997.5857030100824" sparseCutoff="1.0000000000000000"/>
      <sparseX i="277" alpha="-2.1024170362061114" sparseCutoff="1.0000000000000000"/>
      <sparseX i="278" alpha="3212.1284058727028" sparseCutoff="1.0000000000000000"/>
      <sparseX i="279" alpha="-2134.8997936959995" sparseCutoff="1.0000000000000000"/>
      <sparseX i="280" alpha="-1966.4599109166047" sparseCutoff="1.0000000000000000"/>
      <sparseX i="281" alpha="1064.9618849801766" sparseCutoff="1.0000000000000000"/>
      <sparseX i="282" alpha="-5102.3751085833310" sparseCutoff="1.0000000000000000"/>
      <sparseX i="283" alpha="3602.9668631656668" sparseCutoff="1.0000000000000000"/>
      <sparseX i="284" alpha="-3057.6787025107728" sparseCutoff="1.0000000000000000"/>
      <sparseX i="285" alpha="-2728.7280223169591" sparseCutoff="1.0000000000000000"/>
      <sparseX i="286" alpha="3515.8138085466626" sparseCutoff="1.0000000000000000"/>
      <sparseX i="287" alpha="-7228.6822420098606" sparseCutoff="1.0000000000000000"/>
      <sparseX i="288" alpha="498.18991357250059" sparseCutoff="1.0000000000000000"/>
      <sparseX i="289" alpha="4559.0396459883295" sparseCutoff="1.0000000000000000"/>
      <sparseX i="290" alpha="319.64954839134185" sparseCutoff="1.0000000000000000"/>
      <sparseX i="291" alpha="-2927.8714958668847" sparseCutoff="1.0000000000000000"/>
      <sparseX i="292" alpha="4234.0320040170282" sparseCutoff="1.0000000000000000"/>
      <sparseX i="293" alpha="3096.6942936901069" sparseCutoff="1.0000000000000000"/>
      <sparseX i="294" alpha="-1419.1257654350659" sparseCutoff="1.0000000000000000"/>
      <sparseX i="295" alpha="-149.13702169960374" sparseCutoff="1.0000000000000000"/>
      <sparseX i="296" alpha="186.71151550581342" sparseCutoff="1.0000000000000000"/>
      <sparseX i="297" alpha="486.71689534268359" sparseCutoff="1.0000000000000000"/>
      <sparseX i="298" alpha="-2851.9986820768677" sparseCutoff="1.0000000000000000"/>
      <sparseX i="299" alpha="-19.386817475734258" sparseCutoff="1.0000000000000000"/>
      <sparseX i="300" alpha="336.51032477726960" sparseCutoff="1.0000000000000000"/>
      <sparseX i="301" alpha="1516.2675885746255" sparseCutoff="1.0000000000000000"/>
      <sparseX i="302" alpha="-2278.9341849070538" sparseCutoff="1.0000000000000000"/>
      <sparseX i="303" alpha="2407.3433476364817" sparseCutoff="1.0000000000000000"/>
      <sparseX i="304" alpha="1636.6624122823762" sparseCutoff="1.0000000000000000"/>
      <sparseX i="305" alpha="4938.9448808961261" sparseCutoff="1.0000000000000000"/>
      <sparseX i="306" alpha="89.390783152266906" sparseCutoff="1.0000000000000000"/>
      <sparseX i="307" alpha="1410.4477483140190" sparseCutoff="1.0000000000000000"/>
      <sparseX i="308" alpha="-7109.1516573750896" sparseCutoff="1.0000000000000000"/>
      <sparseX i="309" alpha="7456.2571771844841" sparseCutoff="1.0000000000000000"/>
      <sparseX i="310" alpha="31.612309057869830" sparseCutoff="1.0000000000000000"/>
      <sparseX i="311" alpha="-369.74603469973738" sparseCutoff="1.0000000000000000"/>
      <sparseX i="312" alpha="3582.6266502423405" sparseCutoff="1.0000000000000000"/>
      <sparseX i="313" alpha="1834.7212916983890" sparseCutoff="1.0000000000000000"/>
      <sparseX i="314" alpha="718.77877705676906" sparseCutoff="1.0000000000000000"/>
      <sparseX i="315" alpha="2497.3983082426730" sparseCutoff="1.0000000000000000"/>
      <sparseX i="316" alpha="-1698.3530032264623" sparseCutoff="1.0000000000000000"/>
      <sparseX i="317" alpha="1455.2106442187974" sparseCutoff="1.0000000000000000"/>
      <sparseX i="318" alpha="1596.9494107105836" sparseCutoff="1.0000000000000000"/>
      <sparseX i="319" alpha="2698.3112212805968" sparseCutoff="1.0000000000000000"/>
      <sparseX i="320" alpha="-2239.7761392831940" sparseCutoff="1.0000000000000000"/>
      <sparseX i="321" alpha="122.16635952145177" sparseCutoff="1.0000000000000000"/>
      <sparseX i="322" alpha="-306.92328312553053" sparseCutoff="1.0000000000000000"/>
      <sparseX i="323" alpha="-417.95340959743544" sparseCutoff="1.0000000000000000"/>
      <sparseX i="324" alpha="5828.8500863884829" sparseCutoff="1.0000000000000000"/>
      <sparseX i="325" alpha="2330.1461010970006" sparseCutoff="1.0000000000000000"/>
      <sparseX i="326" alpha="1563.0102045840883" sparseCutoff="1.0000000000000000"/>
      <sparseX i="327" alpha="-807.27877075137167" sparseCutoff="1.0000000000000000"/>
      <sparseX i="328" alpha="-6269.9195744078243" sparseCutoff="1.0000000000000000"/>
      <sparseX i="329" alpha="5994.0005145582563" sparseCutoff="1.0000000000000000"/>
      <sparseX i="330" alpha="-5458.4601553663933" sparseCutoff="1.0000000000000000"/>
      <sparseX i="331" alpha="819.47957140667415" sparseCutoff="1.0000000000000000"/>
      <sparseX i="332" alpha="5917.9231102534086" sparseCutoff="1.0000000000000000"/>
      <sparseX i="333" alpha="5414.5932131156505" sparseCutoff="1.0000000000000000"/>
      <sparseX i="334" alpha="-324.57839264728955" sparseCutoff="1.0000000000000000"/>
      <sparseX i="335" alpha="4980.3319768869769" sparseCutoff="1.0000000000000000"/>
      <sparseX i="336" alpha="-298.73336148730345" sparseCutoff="1.0000000000000000"/>
      <sparseX i="337" alpha="6611.7355270866819" sparseCutoff="1.0000000000000000"/>
      <sparseX i="338" alpha="5596.1289570664239" sparseCutoff="1.0000000000000000"/>
      <sparseX i="339" alpha="3302.7623611849203" sparseCutoff="1.0000000000000000"/>
      <sparseX i="340" alpha="3535.1886245772812" sparseCutoff="1.0000000000000000"/>
      <sparseX i="341" alpha="2633.5893686178078" sparseCutoff="1.0000000000000000"/>
      <sparseX i="342" alpha="-893.06670670318294" sparseCutoff="1.0000000000000000"/>
      <sparseX i="343" alpha="-1307.4273419606961" sparseCutoff="1.0000000000000000"/>
      <sparseX i="344" alpha="1797.1715387870122" sparseCutoff="1.0000000000000000"/>
      <sparseX i="345" alpha="2356.9310394853819" sparseCutoff="1.0000000000000000"/>
      <sparseX i="346" alpha="2407.4562675133429" sparseCutoff="1.0000000000000000"/>
      <sparseX i="347" alpha="-5996.6553304126137" sparseCutoff="1.0000000000000000"/>
      <sparseX i="348" alpha="-2792.5897542537782" sparseCutoff="1.0000000000000000"/>
      <sparseX i="349" alpha="-568.13282506039479" sparseCutoff="1.0000000000000000"/>
      <sparseX i="350" alpha="2085.9357453793659" sparseCutoff="1.0000000000000000"/>
      <sparseX i="351" alpha="3233.4303881639221" sparseCutoff="1.0000000000000000"/>
      <sparseX i="352" alpha="-4071.8973211087664" sparseCutoff="1.0000000000000000"/>
      <sparseX i="353" alpha="-962.02778517958234" sparseCutoff="1.0000000000000000"/>
      <sparseX i="354" alpha="1874.0908833645542" sparseCutoff="1.0000000000000000"/>
      <sparseX i="355" alpha="-3991.5197229331311" sparseCutoff="1.0000000000000000"/>
      <sparseX i="356" alpha="-668.65739991617443" sparseCutoff="1.0000000000000000"/>
      <sparseX i="357" alpha="4605.4823928727528" sparseCutoff="1.0000000000000000"/>
      <sparseX i="358" alpha="490.13473041592152" sparseCutoff="1.0000000000000000"/>
      <sparseX i="359" alpha="131.61993696691209" sparseCutoff="1.0000000000000000"/>
      <sparseX i="360" alpha="640.83012553683295" sparseCutoff="1.0000000000000000"/>
      <sparseX i="361" alpha="-4100.1428743703891" sparseCutoff="1.0000000000000000"/>
      <sparseX i="362" alpha="4089.4820162126612" sparseCutoff="1.0000000000000000"/>
      <sparseX i="363" alpha="2039.7039727810729" sparseCutoff="1.0000000000000000"/>
      <sparseX i="364" alpha="-2619.5425750173595" sparseCutoff="1.0000000000000000"/>
      <sparseX i="365" alpha="-4180.6267931811471" sparseCutoff="1.0000000000000000"/>
      <sparseX i="366" alpha="-2478.6605156204232" sparseCutoff="1.0000000000000000"/>
      <sparseX i="367" alpha="1377.6086935180776" sparseCutoff="1.0000000000000000"/>
      <sparseX i="368" alpha="-810.33600399641534" sparseCutoff="1.0000000000000000"/>
      <sparseX i="369" alpha="-722.77833877821934" sparseCutoff="1.0000000000000000"/>
      <sparseX i="370" alpha="4654.8261597386299" sparseCutoff="1.0000000000000000"/>
      <sparseX i="371" alpha="-7045.2488516471813" sparseCutoff="1.0000000000000000"/>
      <sparseX i="372" alpha="-103.04632071436168" sparseCutoff="1.0000000000000000"/>
      <sparseX i="373" alpha="-2484.5290621081181" sparseCutoff="1.0000000000000000"/>
      <sparseX i="374" alpha="-2327.1323242476324" sparseCutoff="1.0000000000000000"/>
      <sparseX i="375" alpha="439.91472842120214" sparseCutoff="1.0000000000000000"/>
      <sparseX i="376" alpha="-934.73862203345425" sparseCutoff="1.0000000000000000"/>
      <sparseX i="377" alpha="-2079.4019237284838" sparseCutoff="1.0000000000000000"/>
      <sparseX i="378" alpha="3802.8469450297921" sparseCutoff="1.0000000000000000"/>
      <sparseX i="379" alpha="3206.8746590388669" sparseCutoff="1.0000000000000000"/>
      <sparseX i="380" alpha="10023.764375056746" sparseCutoff="1.0000000000000000"/>
      <sparseX i="381" alpha="3542.1028985683374" sparseCutoff="1.0000000000000000"/>
      <sparseX i="382" alpha="-2898.7343568071583" sparseCutoff="1.0000000000000000"/>
      <sparseX i="383" alpha="1918.2267281222596" sparseCutoff="1.0000000000000000"/>
      <sparseX i="384" alpha="3942.9013397139388" sparseCutoff="1.0000000000000000"/>
      <sparseX i="385" alpha="319.29559187165370" sparseCutoff="1.0000000000000000"/>
      <sparseX i="386" alpha="536.18406455014099" sparseCutoff="1.0000000000000000"/>
      <sparseX i="387" alpha="-4046.3787756068245" sparseCutoff="1.0000000000000000"/>
      <sparseX i="388" alpha="164.80984106589949" sparseCutoff="1.0000000000000000"/>
      <sparseX i="389" alpha="5182.1127044720897" sparseCutoff="1.0000000000000000"/>
      <sparseX i="390" alpha="-6486.4621457134526" sparseCutoff="1.0000000000000000"/>
      <sparseX i="391" alpha="3479.0528369618160" sparseCutoff="1.0000000000000000"/>
      <sparseX i="392" alpha="969.68356369965682" sparseCutoff="1.0000000000000000"/>
      <sparseX i="393" alpha="1400.9561127604104" sparseCutoff="1.0000000000000000"/>
      <sparseX i="394" alpha="-4046.9419288053218" sparseCutoff="1.0000000000000000"/>
      <sparseX i="395" alpha="-3664.8060632990032" sparseCutoff="1.0000000000000000"/>
      <sparseX i="396" alpha="-1732.8782482168153" sparseCutoff="1.0000000000000000"/>
      <sparseX i="397" alpha="354.97801102621429" sparseCutoff="1.0000000000000000"/>
      <sparseX i="398" alpha="-3962.3334876120925" sparseCutoff="1.0000000000000000"/>
      <sparseX i="399" alpha="-7292.7482555470042" sparseCutoff="1.0000000000000000"/>
      <sparseX i="400" alpha="-2568.8672612073328" sparseCutoff="1.0000000000000000"/>
      <sparseX i="401" alpha="-2316.4349701926999" sparseCutoff="1.0000000000000000"/>
      <sparseX i="402" alpha="539.38596018170836" sparseCutoff="1.0000000000000000"/>
      <sparseX i="403" alpha="-4698.9983763548762" sparseCutoff="1.0000000000000000"/>
      <sparseX i="404" alpha="-1570.9068260157392" sparseCutoff="1.0000000000000000"/>
      <sparseX i="405" alpha="2948.9628808947641" sparseCutoff="1.0000000000000000"/>
      <sparseX i="406" alpha="96.039506603964071" sparseCutoff="1.0000000000000000"/>
      <sparseX i="407" alpha="-9593.5877428891145" sparseCutoff="1.0000000000000000"/>
      <sparseX i="408" alpha="4157.6825728135200" sparseCutoff="1.0000000000000000"/>
      <sparseX i="409" alpha="-3051.1491210400250" sparseCutoff="1.0000000000000000"/>
      <sparseX i="410" alpha="-811.92138454686483" sparseCutoff="1.0000000000000000"/>
      <sparseX i="411" alpha="1474.0850518173461" sparseCutoff="1.0000000000000000"/>
      <sparseX i="412" alpha="2869.1418048747901" sparseCutoff="1.0000000000000000"/>
      <sparseX i="413" alpha="5950.3727778441953" sparseCutoff="1.0000000000000000"/>
      <sparseX i="414" alpha="3227.0192671113182" sparseCutoff="1.0000000000000000"/>
      <sparseX i="415" alpha="11585.460383100326" sparseCutoff="1.0000000000000000"/>
      <sparseX i="416" alpha="-538.56715444908832" sparseCutoff="1.0000000000000000"/>
      <sparseX i="417" alpha="676.87851158535807" sparseCutoff="1.0000000000000000"/>
      <sparseX i="418" alpha="-5831.3756588359074" sparseCutoff="1.0000000000000000"/>
      <sparseX i="419" alpha="-5976.7666217688629" sparseCutoff="1.0000000000000000"/>
      <sparseX i="420" alpha="8138.1255651996953" sparseCutoff="1.0000000000000000"/>
      <sparseX i="421" alpha="183.07269586103959" sparseCutoff="1.0000000000000000"/>
      <sparseX i="422" alpha="764.39823739484564" sparseCutoff="1.0000000000000000"/>
      <sparseX i="423" alpha="-5365.4270844993061" sparseCutoff="1.0000000000000000"/>
      <sparseX i="424" alpha="1410.8927366165374" sparseCutoff="1.0000000000000000"/>
      <sparseX i="425" alpha="102.95470664595915" sparseCutoff="1.0000000000000000"/>
      <sparseX i="426" alpha="-151.89772443281905" sparseCutoff="1.0000000000000000"/>
      <sparseX i="427" alpha="-4839.5642467189418" sparseCutoff="1.0000000000000000"/>
      <sparseX i="428" alpha="-2408.0925168074386" sparseCutoff="1.0000000000000000"/>
      <sparseX i="429" alpha="-10719.731981561848" sparseCutoff="1.0000000000000000"/>
      <sparseX i="430" alpha="3513.5504434551522" sparseCutoff="1.0000000000000000"/>
      <sparseX i="431" alpha="8252.9305417593441" sparseCutoff="1.0000000000000000"/>
      <sparseX i="432" alpha="3087.5600318702982" sparseCutoff="1.0000000000000000"/>
      <sparseX i="433" alpha="-15008.374093641089" sparseCutoff="1.0000000000000000"/>
      <sparseX i="434" alpha="4373.6214014490306" sparseCutoff="1.0000000000000000"/>
      <sparseX i="435" alpha="-11147.661876959746" sparseCutoff="1.0000000000000000"/>
      <sparseX i="436" alpha="4905.5551076081683" sparseCutoff="1.0000000000000000"/>
      <sparseX i="437" alpha="-2097.9792431505234" sparseCutoff="1.0000000000000000"/>
      <sparseX i="438" alpha="1388.6534601074077" sparseCutoff="1.0000000000000000"/>
      <sparseX i="439" alpha="-2546.3045756287661" sparseCutoff="1.0000000000000000"/>
      <sparseX i="440" alpha="-775.78004843849487" sparseCutoff="1.0000000000000000"/>
      <sparseX i="441" alpha="-676.21002391033016" sparseCutoff="1.0000000000000000"/>
      <sparseX i="442" alpha="3586.5426766775054" sparseCutoff="1.0000000000000000"/>
      <sparseX i="443" alpha="-1746.3197390330427" sparseCutoff="1.0000000000000000"/>
      <sparseX i="444" alpha="-3158.0200106934058" sparseCutoff="1.0000000000000000"/>
      <sparseX i="445" alpha="-1118.3302920812907" sparseCutoff="1.0000000000000000"/>
      <sparseX i="446" alpha="-1031.5801883762695" sparseCutoff="1.0000000000000000"/>
      <sparseX i="447" alpha="-3221.7116860064448" sparseCutoff="1.0000000000000000"/>
      <sparseX i="448" alpha="-311.63660157209057" sparseCutoff="1.0000000000000000"/>
      <sparseX i="449" alpha="1370.1877070494372" sparseCutoff="1.0000000000000000"/>
      <sparseX i="450" alpha="-1817.5538326266744" sparseCutoff="1.0000000000000000"/>
      <sparseX i="451" alpha="-1713.3189482328387" sparseCutoff="1.0000000000000000"/>
      <sparseX i="452" alpha="-2231.1046459394724" sparseCutoff="1.0000000000000000"/>
      <sparseX i="453" alpha="-783.58264099012524" sparseCutoff="1.0000000000000000"/>
      <sparseX i="454" alpha="2095.2230837878542" sparseCutoff="1.0000000000000000"/>
      <sparseX i="455" alpha="-949.52215786672514" sparseCutoff="1.0000000000000000"/>
      <sparseX i="456" alpha="2392.7752032102253" sparseCutoff="1.0000000000000000"/>
      <sparseX i="457" alpha="-1875.7015802957164" sparseCutoff="1.0000000000000000"/>
      <sparseX i="458" alpha="-4246.0302102854494" sparseCutoff="1.0000000000000000"/>
      <sparseX i="459" alpha="-1309.2153105357957" sparseCutoff="1.0000000000000000"/>
      <sparseX i="460" alpha="-5789.0200054846810" sparseCutoff="1.0000000000000000"/>
      <sparseX i="461" alpha="1750.8713761624831" sparseCutoff="1.0000000000000000"/>
      <sparseX i="462" alpha="-2097.1770839559717" sparseCutoff="1.0000000000000000"/>
      <sparseX i="463" alpha="-1590.7256974250015" sparseCutoff="1.0000000000000000"/>
      <sparseX i="464" alpha="2987.2936271614080" sparseCutoff="1.0000000000000000"/>
      <sparseX i="465" alpha="-1917.8528229304709" sparseCutoff="1.0000000000000000"/>
      <sparseX i="466" alpha="-4013.6379674756113" sparseCutoff="1.0000000000000000"/>
      <sparseX i="467" alpha="368.50199628503367" sparseCutoff="1.0000000000000000"/>
      <sparseX i="468" alpha="2204.9835402569756" sparseCutoff="1.0000000000000000"/>
      <sparseX i="469" alpha="-3866.6016721577689" sparseCutoff="1.0000000000000000"/>
      <sparseX i="470" alpha="-297.17642598133824" sparseCutoff="1.0000000000000000"/>
      <sparseX i="471" alpha="-844.06161284524740" sparseCutoff="1.0000000000000000"/>
      <sparseX i="472" alpha="7081.5932552208906" sparseCutoff="1.0000000000000000"/>
      <sparseX i="473" alpha="2201.4880326708417" sparseCutoff="1.0000000000000000"/>
      <sparseX i="474" alpha="-15102.342669483176" sparseCutoff="1.0000000000000000"/>
      <sparseX i="475" alpha="704.65766707800026" sparseCutoff="1.0000000000000000"/>
      <sparseX i="476" alpha="-2977.6139731740946" sparseCutoff="1.0000000000000000"/>
      <sparseX i="477" alpha="-1084.1977306483157" sparseCutoff="1.0000000000000000"/>
      <sparseX i="478" alpha="-2359.9751976307384" sparseCutoff="1.0000000000000000"/>
      <sparseX i="479" alpha="5460.2535811917151" sparseCutoff="1.0000000000000000"/>
      <sparseX i="480" alpha="1117.6058773436564" sparseCutoff="1.0000000000000000"/>
      <sparseX i="481" alpha="4915.6711541414506" sparseCutoff="1.0000000000000000"/>
      <sparseX i="482" alpha="-461.21408621483567" sparseCutoff="1.0000000000000000"/>
      <sparseX i="483" alpha="556.24198395007670" sparseCutoff="1.0000000000000000"/>
      <sparseX i="484" alpha="-6885.5138046398315" sparseCutoff="1.0000000000000000"/>
      <sparseX i="485" alpha="1205.7431378268152" sparseCutoff="1.0000000000000000"/>
      <sparseX i="486" alpha="8123.5055963777886" sparseCutoff="1.0000000000000000"/>
      <sparseX i="487" alpha="2975.7070550140124" sparseCutoff="1.0000000000000000"/>
      <sparseX i="488" alpha="-2414.8732142354297" sparseCutoff="1.0000000000000000"/>
      <sparseX i="489" alpha="-7520.1020130396519" sparseCutoff="1.0000000000000000"/>
      <sparseX i="490" alpha="-2029.5921305076727" sparseCutoff="1.0000000000000000"/>
      <sparseX i="491" alpha="179.25327925815969" sparseCutoff="1.0000000000000000"/>
      <sparseX i="492" alpha="-1676.9361849011161" sparseCutoff="1.0000000000000000"/>
      <sparseX i="493" alpha="4652.4308550034057" sparseCutoff="1.0000000000000000"/>
      <sparseX i="494" alpha="-2786.7007316648678" sparseCutoff="1.0000000000000000"/>
      <sparseX i="495" alpha="8353.7695087544489" sparseCutoff="1.0000000000000000"/>
      <sparseX i="496" alpha="44.144932454041474" sparseCutoff="1.0000000000000000"/>
      <sparseX i="497" alpha="559.82342351804266" sparseCutoff="1.0000000000000000"/>
      <sparseX i="498" alpha="-1484.4708011770076" sparseCutoff="1.0000000000000000"/>
      <sparseX i="499" alpha="4315.0153356497749" sparseCutoff="1.0000000000000000"/>
      <sparseX i="500" alpha="-2425.1978909784189" sparseCutoff="1.0000000000000000"/>
      <sparseX i="501" alpha="8460.5179036332229" sparseCutoff="1.0000000000000000"/>
      <sparseX i="502" alpha="-2151.1141781088409" sparseCutoff="1.0000000000000000"/>
      <sparseX i="503" alpha="-5470.6843615975149" sparseCutoff="1.0000000000000000"/>
      <sparseX i="504" alpha="6743.8220033313228" sparseCutoff="1.0000000000000000"/>
      <sparseX i="505" alpha="-4685.4555118971357" sparseCutoff="1.0000000000000000"/>
      <sparseX i="506" alpha="335.36114739433577" sparseCutoff="1.0000000000000000"/>
      <sparseX i="507" alpha="3396.4727181100384" sparseCutoff="1.0000000000000000"/>
      <sparseX i="508" alpha="325.56643271512490" sparseCutoff="1.0000000000000000"/>
      <sparseX i="509" alpha="2352.9223846943150" sparseCutoff="1.0000000000000000"/>
      <sparseX i="510" alpha="-3591.8042394565882" sparseCutoff="1.0000000000000000"/>
      <sparseX i="511" alpha="-2541.4856521339002" sparseCutoff="1.0000000000000000"/>
      <sparseX i="512" alpha="259.93349760391771" sparseCutoff="1.0000000000000000"/>
      <sparseX i="513" alpha="5531.7907069836565" sparseCutoff="1.0000000000000000"/>
      <sparseX i="514" alpha="-9657.6524170993507" sparseCutoff="1.0000000000000000"/>
      <sparseX i="515" alpha="46.133084701872001" sparseCutoff="1.0000000000000000"/>
      <sparseX i="516" alpha="516.96395959304482" sparseCutoff="1.0000000000000000"/>
      <sparseX i="517" alpha="2092.7582903079956" sparseCutoff="1.0000000000000000"/>
      <sparseX i="518" alpha="1787.4728596129830" sparseCutoff="1.0000000000000000"/>
      <sparseX i="519" alpha="5756.2261794628330" sparseCutoff="1.0000000000000000"/>
      <sparseX i="520" alpha="1785.7719540458036" sparseCutoff="1.0000000000000000"/>
      <sparseX i="521" alpha="4263.7270721869936" sparseCutoff="1.0000000000000000"/>
      <sparseX i="522" alpha="-6170.5269884421450" sparseCutoff="1.0000000000000000"/>
      <sparseX i="523" alpha="-1884.1255196992222" sparseCutoff="1.0000000000000000"/>
      <sparseX i="524" alpha="2063.5213829743557" sparseCutoff="1.0000000000000000"/>
      <sparseX i="525" alpha="1914.6079063710142" sparseCutoff="1.0000000000000000"/>
      <sparseX i="526" alpha="605.63738152671567" sparseCutoff="1.0000000000000000"/>
      <sparseX i="527" alpha="-59.488665784649818" sparseCutoff="1.0000000000000000"/>
      <sparseX i="528" alpha="-1784.2455817001523" sparseCutoff="1.0000000000000000"/>
      <sparseX i="529" alpha="1025.1574303322975" sparseCutoff="1.0000000000000000"/>
      <sparseX i="530" alpha="-3570.0644620859357" sparseCutoff="1.0000000000000000"/>
      <sparseX i="531" alpha="4446.4434800914705" sparseCutoff="1.0000000000000000"/>
      <sparseX i="532" alpha="-2663.8694066694852" sparseCutoff="1.0000000000000000"/>
      <sparseX i="533" alpha="1240.2093561436166" sparseCutoff="1.0000000000000000"/>
      <sparseX i="534" alpha="-981.32724807567070" sparseCutoff="1.0000000000000000"/>
      <sparseX i="535" alpha="-2291.3439333707765" sparseCutoff="1.0000000000000000"/>
      <sparseX i="536" alpha="4660.7247687935951" sparseCutoff="1.0000000000000000"/>
      <sparseX i="537" alpha="4224.9493897366547" sparseCutoff="1.0000000000000000"/>
      <sparseX i="538" alpha="178.70056647493746" sparseCutoff="1.0000000000000000"/>
      <sparseX i="539" alpha="3890.8272223284230" sparseCutoff="1.0000000000000000"/>
      <sparseX i="540" alpha="-3008.7912180497415" sparseCutoff="1.0000000000000000"/>
      <sparseX i="541" alpha="-2734.8326750111419" sparseCutoff="1.0000000000000000"/>
      <sparseX i="542" alpha="-466.55020491005575" sparseCutoff="1.0000000000000000"/>
      <sparseX i="543" alpha="1359.0127146166421" sparseCutoff="1.0000000000000000"/>
      <sparseX i="544" alpha="-2855.3479748296700" sparseCutoff="1.0000000000000000"/>
      <sparseX i="545" alpha="-3933.9029818619670" sparseCutoff="1.0000000000000000"/>
      <sparseX i="546" alpha="-3935.9867321856746" sparseCutoff="1.0000000000000000"/>
      <sparseX i="547" alpha="-6933.5402477843991" sparseCutoff="1.0000000000000000"/>
      <sparseX i="548" alpha="-1324.7753214217914" sparseCutoff="1.0000000000000000"/>
      <sparseX i="549" alpha="-1263.0828029931565" sparseCutoff="1.0000000000000000"/>
      <sparseX i="550" alpha="3836.2216637230676" sparseCutoff="1.0000000000000000"/>
      <sparseX i="551" alpha="389.88835440460906" sparseCutoff="1.0000000000000000"/>
      <sparseX i="552" alpha="-4012.4515743875149" sparseCutoff="1.0000000000000000"/>
      <sparseX i="553" alpha="-2313.0903012763893" sparseCutoff="1.0000000000000000"/>
      <sparseX i="554" alpha="-7014.5360048957637" sparseCutoff="1.0000000000000000"/>
      <sparseX i="555" alpha="-1725.2350843986451" sparseCutoff="1.0000000000000000"/>
      <sparseX i="556" alpha="1704.8142105129043" sparseCutoff="1.0000000000000000"/>
      <sparseX i="557" alpha="-2130.1133360926351" sparseCutoff="1.0000000000000000"/>
      <sparseX i="558" alpha="-659.11725688215870" sparseCutoff="1.0000000000000000"/>
      <sparseX i="559" alpha="-6546.7564448063649" sparseCutoff="1.0000000000000000"/>
      <sparseX i="560" alpha="6932.5292968074127" sparseCutoff="1.0000000000000000"/>
      <sparseX i="561" alpha="4652.9873157349739" sparseCutoff="1.0000000000000000"/>
      <sparseX i="562" alpha="-8338.9305007705261" sparseCutoff="1.0000000000000000"/>
      <sparseX i="563" alpha="-3436.9063255995266" sparseCutoff="1.0000000000000000"/>
      <sparseX i="564" alpha="4317.6012658085328" sparseCutoff="1.0000000000000000"/>
      <sparseX i="565" alpha="2898.9141545358602" sparseCutoff="1.0000000000000000"/>
      <sparseX i="566" alpha="5629.2769975068004" sparseCutoff="1.0000000000000000"/>
      <sparseX i="567" alpha="-2767.8315614857565" sparseCutoff="1.0000000000000000"/>
      <sparseX i="568" alpha="3375.3928736528928" sparseCutoff="1.0000000000000000"/>
      <sparseX i="569" alpha="-440.78754616623598" sparseCutoff="1.0000000000000000"/>
      <sparseX i="570" alpha="-7090.3499081636292" sparseCutoff="1.0000000000000000"/>
      <sparseX i="571" alpha="1406.0139427509760" sparseCutoff="1.0000000000000000"/>
      <sparseX i="572" alpha="-9385.1947200394807" sparseCutoff="1.0000000000000000"/>
      <sparseX i="573" alpha="9225.3799819436008" sparseCutoff="1.0000000000000000"/>
      <sparseX i="574" alpha="5476.9955436959135" sparseCutoff="1.0000000000000000"/>
      <sparseX i="575" alpha="3717.4964290592538" sparseCutoff="1.0000000000000000"/>
      <sparseX i="576" alpha="2715.1678553350789" sparseCutoff="1.0000000000000000"/>
      <sparseX i="577" alpha="-7813.0580917801490" sparseCutoff="1.0000000000000000"/>
      <sparseX i="578" alpha="1092.8400223689102" sparseCutoff="1.0000000000000000"/>
      <sparseX i="579" alpha="8138.8104938169135" sparseCutoff="1.0000000000000000"/>
      <sparseX i="580" alpha="1887.3128991647807" sparseCutoff="1.0000000000000000"/>
      <sparseX i="581" alpha="1308.5877566705028" sparseCutoff="1.0000000000000000"/>
      <sparseX i="582" alpha="8477.8031334165262" sparseCutoff="1.0000000000000000"/>
      <sparseX i="583" alpha="3965.1840617983585" sparseCutoff="1.0000000000000000"/>
      <sparseX i="584" alpha="8082.5326591552894" sparseCutoff="1.0000000000000000"/>
      <sparseX i="585" alpha="-3664.5497929214707" sparseCutoff="1.0000000000000000"/>
      <sparseX i="586" alpha="-1081.5345751268142" sparseCutoff="1.0000000000000000"/>
      <sparseX i="587" alpha="-4697.0003048870421" sparseCutoff="1.0000000000000000"/>
      <sparseX i="588" alpha="1199.4106119203880" sparseCutoff="1.0000000000000000"/>
      <sparseX i="589" alpha="-3468.0407740074706" sparseCutoff="1.0000000000000000"/>
      <sparseX i="590" alpha="-3665.3590997899669" sparseCutoff="1.0000000000000000"/>
      <sparseX i="591" alpha="-1473.2678754363942" sparseCutoff="1.0000000000000000"/>
      <sparseX i="592" alpha="-2469.9842090713692" sparseCutoff="1.0000000000000000"/>
      <sparseX i="593" alpha="-135.27000987197869" sparseCutoff="1.0000000000000000"/>
      <sparseX i="594" alpha="1373.4978256704628" sparseCutoff="1.0000000000000000"/>
      <sparseX i="595" alpha="271.65678749767415" sparseCutoff="1.0000000000000000"/>
      <sparseX i="596" alpha="-1847.4982831164878" sparseCutoff="1.0000000000000000"/>
      <sparseX i="597" alpha="-2525.0961795565204" sparseCutoff="1.0000000000000000"/>
      <sparseX i="598" alpha="-5609.3157857548849" sparseCutoff="1.0000000000000000"/>
      <sparseX i="599" alpha="-2395.8110162947364" sparseCutoff="1.0000000000000000"/>
      <sparseX i="600" alpha="2645.8716235355059" sparseCutoff="1.0000000000000000"/>
      <sparseX i="601" alpha="-4194.2426928736231" sparseCutoff="1.0000000000000000"/>
      <sparseX i="602" alpha="-3168.9554008385699" sparseCutoff="1.0000000000000000"/>
      <sparseX i="603" alpha="-2807.9267971682648" sparseCutoff="1.0000000000000000"/>
      <sparseX i="604" alpha="-2439.3502153663408" sparseCutoff="1.0000000000000000"/>
      <sparseX i="605" alpha="412.57360596034306" sparseCutoff="1.0000000000000000"/>
      <sparseX i="606" alpha="189.67654385406183" sparseCutoff="1.0000000000000000"/>
      <sparseX i="607" alpha="-4747.8000822057420" sparseCutoff="1.0000000000000000"/>
      <sparseX i="608" alpha="8.7104813347658645" sparseCutoff="1.0000000000000000"/>
      <sparseX i="609" alpha="627.49736521221610" sparseCutoff="1.0000000000000000"/>
      <sparseX i="610" alpha="2133.3073899338069" sparseCutoff="1.0000000000000000"/>
      <sparseX i="611" alpha="-606.30740072881849" sparseCutoff="1.0000000000000000"/>
      <sparseX i="612" alpha="-47.771871601944163" sparseCutoff="1.0000000000000000"/>
      <sparseX i="613" alpha="5049.5620238758011" sparseCutoff="1.0000000000000000"/>
      <sparseX i="614" alpha="-1152.0458741711236" sparseCutoff="1.0000000000000000"/>
      <sparseX i="615" alpha="-2818.1025073773676" sparseCutoff="1.0000000000000000"/>
      <sparseX i="616" alpha="-565.32513477179759" sparseCutoff="1.0000000000000000"/>
      <sparseX i="617" alpha="773.51223404509608" sparseCutoff="1.0000000000000000"/>
      <sparseX i="618" alpha="4154.9711337049803" sparseCutoff="1.0000000000000000"/>
      <sparseX i="619" alpha="18.809885143683040" sparseCutoff="1.0000000000000000"/>
      <sparseX i="620" alpha="-1283.0174094023021" sparseCutoff="1.0000000000000000"/>
      <sparseX i="621" alpha="-1393.6765143861794" sparseCutoff="1.0000000000000000"/>
      <sparseX i="622" alpha="3073.3876354910958" sparseCutoff="1.0000000000000000"/>
      <sparseX i="623" alpha="-6910.7224483621994" sparseCutoff="1.0000000000000000"/>
      <sparseX i="624" alpha="2396.9866230993789" sparseCutoff="1.0000000000000000"/>
      <sparseX i="625" alpha="1965.9599294109269" sparseCutoff="1.0000000000000000"/>
      <sparseX i="626" alpha="-470.71172691388171" sparseCutoff="1.0000000000000000"/>
      <sparseX i="627" alpha="-1357.6400353055749" sparseCutoff="1.0000000000000000"/>
      <sparseX i="628" alpha="5535.1833787367805" sparseCutoff="1.0000000000000000"/>
      <sparseX i="629" alpha="-630.51759313431876" sparseCutoff="1.0000000000000000"/>
      <sparseX i="630" alpha="629.91298378136582" sparseCutoff="1.0000000000000000"/>
      <sparseX i="631" alpha="-3529.2837749062646" sparseCutoff="1.0000000000000000"/>
      <sparseX i="632" alpha="6743.8992156667591" sparseCutoff="1.0000000000000000"/>
      <sparseX i="633" alpha="1454.9092574661399" sparseCutoff="1.0000000000000000"/>
      <sparseX i="634" alpha="3600.1902680599756" sparseCutoff="1.0000000000000000"/>
      <sparseX i="635" alpha="5793.4284462212954" sparseCutoff="1.0000000000000000"/>
      <sparseX i="636" alpha="-7980.0733017944231" sparseCutoff="1.0000000000000000"/>
      <sparseX i="637" alpha="-3126.7042828729245" sparseCutoff="1.0000000000000000"/>
      <sparseX i="638" alpha="220.16978810540212" sparseCutoff="1.0000000000000000"/>
      <sparseX i="639" alpha="-903.97921934584895" sparseCutoff="1.0000000000000000"/>
      <sparseX i="640" alpha="459.76777228745834" sparseCutoff="1.0000000000000000"/>
      <sparseX i="641" alpha="3746.2479615036027" sparseCutoff="1.0000000000000000"/>
      <sparseX i="642" alpha="-1402.7370732664274" sparseCutoff="1.0000000000000000"/>
      <sparseX i="643" alpha="-93.864148781965582" sparseCutoff="1.0000000000000000"/>
      <sparseX i="644" alpha="929.45937175766630" sparseCutoff="1.0000000000000000"/>
      <sparseX i="645" alpha="-1799.2007797936478" sparseCutoff="1.0000000000000000"/>
      <sparseX i="646" alpha="3253.9343752174045" sparseCutoff="1.0000000000000000"/>
      <sparseX i="647" alpha="840.26516265426426" sparseCutoff="1.0000000000000000"/>
      <sparseX i="648" alpha="-5123.6220413691317" sparseCutoff="1.0000000000000000"/>
      <sparseX i="649" alpha="-502.81654676214390" sparseCutoff="1.0000000000000000"/>
      <sparseX i="650" alpha="6750.7647743503148" sparseCutoff="1.0000000000000000"/>
      <sparseX i="651" alpha="-1725.0731961778135" sparseCutoff="1.0000000000000000"/>
      <sparseX i="652" alpha="6305.4427095171850" sparseCutoff="1.0000000000000000"/>
      <sparseX i="653" alpha="1437.1676440165941" sparseCutoff="1.0000000000000000"/>
      <sparseX i="654" alpha="-2201.4383233420162" sparseCutoff="1.0000000000000000"/>
      <sparseX i="655" alpha="-4061.0541965206912" sparseCutoff="1.0000000000000000"/>
      <sparseX i="656" alpha="-2102.1281549424393" sparseCutoff="1.0000000000000000"/>
      <sparseX i="657" alpha="198.88166800429480" sparseCutoff="1.0000000000000000"/>
      <sparseX i="658" alpha="6459.6585235710918" sparseCutoff="1.0000000000000000"/>
      <sparseX i="659" alpha="3162.1984947799460" sparseCutoff="1.0000000000000000"/>
      <sparseX i="660" alpha="-553.55949134489038" sparseCutoff="1.0000000000000000"/>
      <sparseX i="661" alpha="7370.3168656386015" sparseCutoff="1.0000000000000000"/>
      <sparseX i="662" alpha="3498.8404053632262" sparseCutoff="1.0000000000000000"/>
      <sparseX i="663" alpha="-1703.7117385748006" sparseCutoff="1.0000000000000000"/>
      <sparseX i="664" alpha="2768.7815969656826" sparseCutoff="1.0000000000000000"/>
      <sparseX i="665" alpha="-5720.0608563421438" sparseCutoff="1.0000000000000000"/>
      <sparseX i="666" alpha="-1741.5007549681711" sparseCutoff="1.0000000000000000"/>
      <sparseX i="667" alpha="8227.1479860514100" sparseCutoff="1.0000000000000000"/>
      <sparseX i="668" alpha="3063.2047413667265" sparseCutoff="1.0000000000000000"/>
      <sparseX i="669" alpha="1395.6793644335994" sparseCutoff="1.0000000000000000"/>
      <sparseX i="670" alpha="-2553.9833200183248" sparseCutoff="1.0000000000000000"/>
      <sparseX i="671" alpha="3736.5482721735261" sparseCutoff="1.0000000000000000"/>
      <sparseX i="672" alpha="-4280.2039310816954" sparseCutoff="1.0000000000000000"/>
      <sparseX i="673" alpha="3069.4740758775579" sparseCutoff="1.0000000000000000"/>
      <sparseX i="674" alpha="44.156266253732952" sparseCutoff="1.0000000000000000"/>
      <sparseX i="675" alpha="4471.3952123701793" sparseCutoff="1.0000000000000000"/>
      <sparseX i="676" alpha="-2289.5401044178284" sparseCutoff="1.0000000000000000"/>
      <sparseX i="677" alpha="-1783.6711603526917" sparseCutoff="1.0000000000000000"/>
      <sparseX i="678" alpha="5335.8742891607690" sparseCutoff="1.0000000000000000"/>
      <sparseX i="679" alpha="1260.0061497445449" sparseCutoff="1.0000000000000000"/>
      <sparseX i="680" alpha="-5594.6206727564195" sparseCutoff="1.0000000000000000"/>
      <sparseX i="681" alpha="6186.7910058460593" sparseCutoff="1.0000000000000000"/>
      <sparseX i="682" alpha="2136.3574620038198" sparseCutoff="1.0000000000000000"/>
      <sparseX i="683" alpha="6520.1667301966045" sparseCutoff="1.0000000000000000"/>
      <sparseX i="684" alpha="-2855.8613763231160" sparseCutoff="1.0000000000000000"/>
      <sparseX i="685" alpha="-3292.4013652859530" sparseCutoff="1.0000000000000000"/>
      <sparseX i="686" alpha="2965.5724197090935" sparseCutoff="1.0000000000000000"/>
      <sparseX i="687" alpha="-2408.4954047258861" sparseCutoff="1.0000000000000000"/>
      <sparseX i="688" alpha="1162.5690859423371" sparseCutoff="1.0000000000000000"/>
      <sparseX i="689" alpha="-1011.7944566268827" sparseCutoff="1.0000000000000000"/>
      <sparseX i="690" alpha="3666.2020455868419" sparseCutoff="1.0000000000000000"/>
      <sparseX i="691" alpha="3028.0850149250732" sparseCutoff="1.0000000000000000"/>
      <sparseX i="692" alpha="932.28719233487561" sparseCutoff="1.0000000000000000"/>
      <sparseX i="693" alpha="-2229.7230901292291" sparseCutoff="1.0000000000000000"/>
      <sparseX i="694" alpha="-3140.6880199985699" sparseCutoff="1.0000000000000000"/>
      <sparseX i="695" alpha="1802.1353938799878" sparseCutoff="1.0000000000000000"/>
      <sparseX i="696" alpha="2765.5157311685111" sparseCutoff="1.0000000000000000"/>
      <sparseX i="697" alpha="5651.1896785389899" sparseCutoff="1.0000000000000000"/>
      <sparseX i="698" alpha="2603.5451088215041" sparseCutoff="1.0000000000000000"/>
      <sparseX i="699" alpha="-439.62950302427356" sparseCutoff="1.0000000000000000"/>
      <sparseX i="700" alpha="-2596.0667401591586" sparseCutoff="1.0000000000000000"/>
      <sparseX i="701" alpha="1285.2433956617735" sparseCutoff="1.0000000000000000"/>
      <sparseX i="702" alpha="3078.9720499016275" sparseCutoff="1.0000000000000000"/>
      <sparseX i="703" alpha="1927.0791479468098" sparseCutoff="1.0000000000000000"/>
      <sparseX i="704" alpha="-2649.9856213977127" sparseCutoff="1.0000000000000000"/>
      <sparseX i="705" alpha="3883.0444038588344" sparseCutoff="1.0000000000000000"/>
      <sparseX i="706" alpha="512.82309009252140" sparseCutoff="1.0000000000000000"/>
      <sparseX i="707" alpha="502.89196852581642" sparseCutoff="1.0000000000000000"/>
      <sparseX i="708" alpha="-2927.9433059861531" sparseCutoff="1.0000000000000000"/>
      <sparseX i="709" alpha="6726.2433745502949" sparseCutoff="1.0000000000000000"/>
      <sparseX i="710" alpha="-3320.0693976710750" sparseCutoff="1.0000000000000000"/>
      <sparseX i="711" alpha="5148.8352617061464" sparseCutoff="1.0000000000000000"/>
      <sparseX i="712" alpha="-4697.2084723551097" sparseCutoff="1.0000000000000000"/>
      <sparseX i="713" alpha="6273.2452814294120" sparseCutoff="1.0000000000000000"/>
      <sparseX i="714" alpha="596.17978774046492" sparseCutoff="1.0000000000000000"/>
      <sparseX i="715" alpha="6252.5719426994347" sparseCutoff="1.0000000000000000"/>
      <sparseX i="716" alpha="2741.5536175014781" sparseCutoff="1.0000000000000000"/>
      <sparseX i="717" alpha="-3309.5605261310416" sparseCutoff="1.0000000000000000"/>
      <sparseX i="718" alpha="-8109.2140993835055" sparseCutoff="1.0000000000000000"/>
      <sparseX i="719" alpha="6550.2779754474877" sparseCutoff="1.0000000000000000"/>
      <sparseX i="720" alpha="-21.176766083965838" sparseCutoff="1.0000000000000000"/>
      <sparseX i="721" alpha="-2635.7342116258474" sparseCutoff="1.0000000000000000"/>
      <sparseX i="722" alpha="922.86913465449913" sparseCutoff="1.0000000000000000"/>
      <sparseX i="723" alpha="913.13238769550378" sparseCutoff="1.0000000000000000"/>
      <sparseX i="724" alpha="10398.780268773349" sparseCutoff="1.0000000000000000"/>
      <sparseX i="725" alpha="3989.1461356535747" sparseCutoff="1.0000000000000000"/>
      <sparseX i="726" alpha="-3117.2033118494260" sparseCutoff="1.0000000000000000"/>
      <sparseX i="727" alpha="-357.48822981741824" sparseCutoff="1.0000000000000000"/>
      <sparseX i="728" alpha="-1260.5967109256849" sparseCutoff="1.0000000000000000"/>
      <sparseX i="729" alpha="-1944.9420616456282" sparseCutoff="1.0000000000000000"/>
      <sparseX i="730" alpha="6445.7890547867692" sparseCutoff="1.0000000000000000"/>
      <sparseX i="731" alpha="907.46120217372572" sparseCutoff="1.0000000000000000"/>
      <sparseX i="732" alpha="-13449.790505058292" sparseCutoff="1.0000000000000000"/>
      <sparseX i="733" alpha="-771.39392898864537" sparseCutoff="1.0000000000000000"/>
      <sparseX i="734" alpha="-7965.7417959722397" sparseCutoff="1.0000000000000000"/>
      <sparseX i="735" alpha="2642.1309103787344" sparseCutoff="1.0000000000000000"/>
      <sparseX i="736" alpha="-2683.8977620369183" sparseCutoff="1.0000000000000000"/>
      <sparseX i="737" alpha="1882.0898703720463" sparseCutoff="1.0000000000000000"/>
      <sparseX i="738" alpha="4965.9901641351544" sparseCutoff="1.0000000000000000"/>
      <sparseX i="739" alpha="-4073.9072373522326" sparseCutoff="1.0000000000000000"/>
      <sparseX i="740" alpha="-2789.7936389959691" sparseCutoff="1.0000000000000000"/>
      <sparseX i="741" alpha="1771.0439566257064" sparseCutoff="1.0000000000000000"/>
      <sparseX i="742" alpha="-1471.2327768276807" sparseCutoff="1.0000000000000000"/>
      <sparseX i="743" alpha="6401.6476508402766" sparseCutoff="1.0000000000000000"/>
      <sparseX i="744" alpha="-2285.9521220489819" sparseCutoff="1.0000000000000000"/>
      <sparseX i="745" alpha="-223.16666524733557" sparseCutoff="1.0000000000000000"/>
      <sparseX i="746" alpha="432.86567325220472" sparseCutoff="1.0000000000000000"/>
      <sparseX i="747" alpha="-4537.2300895224353" sparseCutoff="1.0000000000000000"/>
      <sparseX i="748" alpha="3394.3842771553454" sparseCutoff="1.0000000000000000"/>
      <sparseX i="749" alpha="6737.1644335486735" sparseCutoff="1.0000000000000000"/>
      <sparseX i="750" alpha="-1499.5705358250314" sparseCutoff="1.0000000000000000"/>
      <sparseX i="751" alpha="1263.5956987118705" sparseCutoff="1.0000000000000000"/>
      <sparseX i="752" alpha="-2616.7442933050625" sparseCutoff="1.0000000000000000"/>
      <sparseX i="753" alpha="-893.35674445645566" sparseCutoff="1.0000000000000000"/>
      <sparseX i="754" alpha="8703.2242312415456" sparseCutoff="1.0000000000000000"/>
      <sparseX i="755" alpha="4192.6834668070787" sparseCutoff="1.0000000000000000"/>
      <sparseX i="756" alpha="111.49925631442090" sparseCutoff="1.0000000000000000"/>
      <sparseX i="757" alpha="-2310.0994760321710" sparseCutoff="1.0000000000000000"/>
      <sparseX i="758" alpha="-2786.0594378000069" sparseCutoff="1.0000000000000000"/>
      <sparseX i="759" alpha="847.56341806250646" sparseCutoff="1.0000000000000000"/>
      <sparseX i="760" alpha="610.89015510252227" sparseCutoff="1.0000000000000000"/>
      <sparseX i="761" alpha="347.28978171536812" sparseCutoff="1.0000000000000000"/>
      <sparseX i="762" alpha="3971.9672389924071" sparseCutoff="1.0000000000000000"/>
      <sparseX i="763" alpha="-3673.8205750160787" sparseCutoff="1.0000000000000000"/>
      <sparseX i="764" alpha="1446.0785992174199" sparseCutoff="1.0000000000000000"/>
      <sparseX i="765" alpha="1454.8311647197634" sparseCutoff="1.0000000000000000"/>
      <sparseX i="766" alpha="-1373.4367004133398" sparseCutoff="1.0000000000000000"/>
      <sparseX i="767" alpha="-13602.128023010862" sparseCutoff="1.0000000000000000"/>
      <sparseX i="768" alpha="-3898.6280178821262" sparseCutoff="1.0000000000000000"/>
      <sparseX i="769" alpha="3560.9071796488142" sparseCutoff="1.0000000000000000"/>
      <sparseX i="770" alpha="-1362.8626040032800" sparseCutoff="1.0000000000000000"/>
      <sparseX i="771" alpha="145.06299512966797" sparseCutoff="1.0000000000000000"/>
      <sparseX i="772" alpha="4944.9872106289831" sparseCutoff="1.0000000000000000"/>
      <sparseX i="773" alpha="-4759.2869338557884" sparseCutoff="1.0000000000000000"/>
      <sparseX i="774" alpha="3131.6459460410197" sparseCutoff="1.0000000000000000"/>
      <sparseX i="775" alpha="415.82871107858591" sparseCutoff="1.0000000000000000"/>
      <sparseX i="776" alpha="1704.7345698129075" sparseCutoff="1.0000000000000000"/>
      <sparseX i="777" alpha="-94.567421758019094" sparseCutoff="1.0000000000000000"/>
      <sparseX i="778" alpha="-892.76548226176010" sparseCutoff="1.0000000000000000"/>
      <sparseX i="779" alpha="-1044.7839502536035" sparseCutoff="1.0000000000000000"/>
      <sparseX i="780" alpha="-5405.6566672859108" sparseCutoff="1.0000000000000000"/>
      <sparseX i="781" alpha="-967.80468710509911" sparseCutoff="1.0000000000000000"/>
      <sparseX i="782" alpha="-1895.4174750949705" sparseCutoff="1.0000000000000000"/>
      <sparseX i="783" alpha="8843.1951131767437" sparseCutoff="1.0000000000000000"/>
      <sparseX i="784" alpha="-400.10073766051448" sparseCutoff="1.0000000000000000"/>
      <sparseX i="785" alpha="-6017.7635583990295" sparseCutoff="1.0000000000000000"/>
      <sparseX i="786" alpha="2319.1814917754591" sparseCutoff="1.0000000000000000"/>
      <sparseX i="787" alpha="-2385.0746575653557" sparseCutoff="1.0000000000000000"/>
      <sparseX i="788" alpha="9698.5133115469289" sparseCutoff="1.0000000000000000"/>
      <sparseX i="789" alpha="1913.0098219543227" sparseCutoff="1.0000000000000000"/>
      <sparseX i="790" alpha="7090.9404629715200" sparseCutoff="1.0000000000000000"/>
      <sparseX i="791" alpha="-3651.8017298141999" sparseCutoff="1.0000000000000000"/>
      <sparseX i="792" alpha="-3992.7869248477919" sparseCutoff="1.0000000000000000"/>
      <sparseX i="793" alpha="1459.1150615468916" sparseCutoff="1.0000000000000000"/>
      <sparseX i="794" alpha="-17215.597943908233" sparseCutoff="1.0000000000000000"/>
      <sparseX i="795" alpha="-1727.6227670431376" sparseCutoff="1.0000000000000000"/>
      <sparseX i="796" alpha="-1636.8777520937583" sparseCutoff="1.0000000000000000"/>
      <sparseX i="797" alpha="7831.8090921635367" sparseCutoff="1.0000000000000000"/>
      <sparseX i="798" alpha="3421.7435201943072" sparseCutoff="1.0000000000000000"/>
      <sparseX i="799" alpha="8209.8630991967748" sparseCutoff="1.0000000000000000"/>
      <sparseX i="800" alpha="3750.0140177383464" sparseCutoff="1.0000000000000000"/>
      <sparseX i="801" alpha="-1680.2614430435037" sparseCutoff="1.0000000000000000"/>
      <sparseX i="802" alpha="-1812.9153985607866" sparseCutoff="1.0000000000000000"/>
      <sparseX i="803" alpha="-3010.6111653082016" sparseCutoff="1.0000000000000000"/>
      <sparseX i="804" alpha="-2247.2089011438193" sparseCutoff="1.0000000000000000"/>
      <sparseX i="805" alpha="-3663.9083919080167" sparseCutoff="1.0000000000000000"/>
      <sparseX i="806" alpha="-6800.4772324087789" sparseCutoff="1.0000000000000000"/>
      <sparseX i="807" alpha="2612.9943602395497" sparseCutoff="1.0000000000000000"/>
      <sparseX i="808" alpha="2547.3786284363323" sparseCutoff="1.0000000000000000"/>
      <sparseX i="809" alpha="-6092.7266703810083" sparseCutoff="1.0000000000000000"/>
      <sparseX i="810" alpha="-1858.7200767413865" sparseCutoff="1.0000000000000000"/>
      <sparseX i="811" alpha="6104.4020018783167" sparseCutoff="1.0000000000000000"/>
      <sparseX i="812" alpha="-532.15423736385640" sparseCutoff="1.0000000000000000"/>
      <sparseX i="813" alpha="-7617.6422907370061" sparseCutoff="1.0000000000000000"/>
      <sparseX i="814" alpha="-6630.5882758958041" sparseCutoff="1.0000000000000000"/>
      <sparseX i="815" alpha="-5620.4916177694304" sparseCutoff="1.0000000000000000"/>
      <sparseX i="816" alpha="4428.3808164836864" sparseCutoff="1.0000000000000000"/>
      <sparseX i="817" alpha="5632.1866313992950" sparseCutoff="1.0000000000000000"/>
      <sparseX i="818" alpha="2201.5769611845967" sparseCutoff="1.0000000000000000"/>
      <sparseX i="819" alpha="1536.2249020996383" sparseCutoff="1.0000000000000000"/>
      <sparseX i="820" alpha="2821.0052227338369" sparseCutoff="1.0000000000000000"/>
      <sparseX i="821" alpha="-3690.3529260695000" sparseCutoff="1.0000000000000000"/>
      <sparseX i="822" alpha="-52.550098348398407" sparseCutoff="1.0000000000000000"/>
      <sparseX i="823" alpha="-2709.1863808324320" sparseCutoff="1.0000000000000000"/>
      <sparseX i="824" alpha="2084.5275585920367" sparseCutoff="1.0000000000000000"/>
      <sparseX i="825" alpha="-483.98622194867283" sparseCutoff="1.0000000000000000"/>
      <sparseX i="826" alpha="3479.0748708679143" sparseCutoff="1.0000000000000000"/>
      <sparseX i="827" alpha="5389.8956688445833" sparseCutoff="1.0000000000000000"/>
      <sparseX i="828" alpha="-5394.5775276285731" sparseCutoff="1.0000000000000000"/>
      <sparseX i="829" alpha="60.450580459507563" sparseCutoff="1.0000000000000000"/>
      <sparseX i="830" alpha="19830.828455702103" sparseCutoff="1.0000000000000000"/>
      <sparseX i="831" alpha="-201.96060079594531" sparseCutoff="1.0000000000000000"/>
      <sparseX i="832" alpha="4416.6729398697144" sparseCutoff="1.0000000000000000"/>
      <sparseX i="833" alpha="1822.1373060721144" sparseCutoff="1.0000000000000000"/>
      <sparseX i="834" alpha="-1034.0925409699910" sparseCutoff="1.0000000000000000"/>
      <sparseX i="835" alpha="2789.1259931842987" sparseCutoff="1.0000000000000000"/>
      <sparseX i="836" alpha="-5299.4945769329343" sparseCutoff="1.0000000000000000"/>
      <sparseX i="837" alpha="-5050.6516672100943" sparseCutoff="1.0000000000000000"/>
      <sparseX i="838" alpha="4546.3860428844027" sparseCutoff="1.0000000000000000"/>
      <sparseX i="839" alpha="-3407.5337791745474" sparseCutoff="1.0000000000000000"/>
      <sparseX i="840" alpha="-3957.1661577997338" sparseCutoff="1.0000000000000000"/>
      <sparseX i="841" alpha="1868.6913365741786" sparseCutoff="1.0000000000000000"/>
      <sparseX i="842" alpha="3175.5109733171657" sparseCutoff="1.0000000000000000"/>
      <sparseX i="843" alpha="-5327.9697995445586" sparseCutoff="1.0000000000000000"/>
      <sparseX i="844" alpha="-663.65207701793554" sparseCutoff="1.0000000000000000"/>
      <sparseX i="845" alpha="-521.94224987986831" sparseCutoff="1.0000000000000000"/>
      <sparseX i="846" alpha="-150.85994168429812" sparseCutoff="1.0000000000000000"/>
      <sparseX i="847" alpha="-4779.8526300719350" sparseCutoff="1.0000000000000000"/>
      <sparseX i="848" alpha="6384.6811168074310" sparseCutoff="1.0000000000000000"/>
      <sparseX i="849" alpha="-4243.1394246147520" sparseCutoff="1.0000000000000000"/>
      <sparseX i="850" alpha="6598.0978340804513" sparseCutoff="1.0000000000000000"/>
      <sparseX i="851" alpha="-1293.5831153397912" sparseCutoff="1.0000000000000000"/>
      <sparseX i="852" alpha="-1566.6554013236580" sparseCutoff="1.0000000000000000"/>
      <sparseX i="853" alpha="-4286.2342138444519" sparseCutoff="1.0000000000000000"/>
      <sparseX i="854" alpha="1534.7257151028684" sparseCutoff="1.0000000000000000"/>
      <sparseX i="855" alpha="-1427.8739453844364" sparseCutoff="1.0000000000000000"/>
      <sparseX i="856" alpha="-6028.6077892408739" sparseCutoff="1.0000000000000000"/>
      <sparseX i="857" alpha="-3096.8386215659789" sparseCutoff="1.0000000000000000"/>
      <sparseX i="858" alpha="-3034.9034767013914" sparseCutoff="1.0000000000000000"/>
      <sparseX i="859" alpha="-3843.4233892718166" sparseCutoff="1.0000000000000000"/>
      <sparseX i="860" alpha="-9557.5062283553088" sparseCutoff="1.0000000000000000"/>
      <sparseX i="861" alpha="-9871.0156866063917" sparseCutoff="1.0000000000000000"/>
      <sparseX i="862" alpha="-3515.9424572296166" sparseCutoff="1.0000000000000000"/>
      <sparseX i="863" alpha="128.49902633579583" sparseCutoff="1.0000000000000000"/>
      <sparseX i="864" alpha="2791.3207921740773" sparseCutoff="1.0000000000000000"/>
      <sparseX i="865" alpha="3425.6255952394008" sparseCutoff="1.0000000000000000"/>
      <sparseX i="866" alpha="-232.82873848977582" sparseCutoff="1.0000000000000000"/>
      <sparseX i="867" alpha="4645.6224439687576" sparseCutoff="1.0000000000000000"/>
      <sparseX i="868" alpha="-9284.6571840974193" sparseCutoff="1.0000000000000000"/>
      <sparseX i="869" alpha="-9645.1649960430659" sparseCutoff="1.0000000000000000"/>
      <sparseX i="870" alpha="-3064.1954327357885" sparseCutoff="1.0000000000000000"/>
      <sparseX i="871" alpha="319.38164952044275" sparseCutoff="1.0000000000000000"/>
      <sparseX i="872" alpha="13654.435937231890" sparseCutoff="1.0000000000000000"/>
      <sparseX i="873" alpha="1058.9621292571433" sparseCutoff="1.0000000000000000"/>
      <sparseX i="874" alpha="1715.8771882432659" sparseCutoff="1.0000000000000000"/>
      <sparseX i="875" alpha="-3240.6588748063668" sparseCutoff="1.0000000000000000"/>
      <sparseX i="876" alpha="-11475.962467198269" sparseCutoff="1.0000000000000000"/>
      <sparseX i="877" alpha="7469.9389681382600" sparseCutoff="1.0000000000000000"/>
      <sparseX i="878" alpha="3298.2083512139502" sparseCutoff="1.0000000000000000"/>
      <sparseX i="879" alpha="526.25689932834177" sparseCutoff="1.0000000000000000"/>
      <sparseX i="880" alpha="-579.22477877893846" sparseCutoff="1.0000000000000000"/>
      <sparseX i="881" alpha="3962.9064432715572" sparseCutoff="1.0000000000000000"/>
      <sparseX i="882" alpha="6298.5767641129478" sparseCutoff="1.0000000000000000"/>
      <sparseX i="883" alpha="-2939.9037842059515" sparseCutoff="1.0000000000000000"/>
      <sparseX i="884" alpha="2542.4433434426096" sparseCutoff="1.0000000000000000"/>
      <sparseX i="885" alpha="-3844.0526053317781" sparseCutoff="1.0000000000000000"/>
      <sparseX i="886" alpha="-8042.9404748244942" sparseCutoff="1.0000000000000000"/>
      <sparseX i="887" alpha="-9488.3604719982432" sparseCutoff="1.0000000000000000"/>
      <sparseX i="888" alpha="1162.1794401528218" sparseCutoff="1.0000000000000000"/>
      <sparseX i="889" alpha="445.66531627732911" sparseCutoff="1.0000000000000000"/>
      <sparseX i="890" alpha="-4943.6212223969960" sparseCutoff="1.0000000000000000"/>
      <sparseX i="891" alpha="-5428.8322862924342" sparseCutoff="1.0000000000000000"/>
      <sparseX i="892" alpha="-5046.7926030611825" sparseCutoff="1.0000000000000000"/>
      <sparseX i="893" alpha="-5447.5452367386706" sparseCutoff="1.0000000000000000"/>
      <sparseX i="894" alpha="-1436.1998760143617" sparseCutoff="1.0000000000000000"/>
      <sparseX i="895" alpha="-7831.3813331352949" sparseCutoff="1.0000000000000000"/>
      <sparseX i="896" alpha="-17175.710482056893" sparseCutoff="1.0000000000000000"/>
      <sparseX i="897" alpha="2771.0276903858289" sparseCutoff="1.0000000000000000"/>
      <sparseX i="898" alpha="719.33155377599053" sparseCutoff="1.0000000000000000"/>
      <sparseX i="899" alpha="2702.9187411663229" sparseCutoff="1.0000000000000000"/>
      <sparseX i="900" alpha="-3049.1020454461577" sparseCutoff="1.0000000000000000"/>
      <sparseX i="901" alpha="-6518.4119846981475" sparseCutoff="1.0000000000000000"/>
      <sparseX i="902" alpha="-7650.8087078592516" sparseCutoff="1.0000000000000000"/>
      <sparseX i="903" alpha="1273.0201404293020" sparseCutoff="1.0000000000000000"/>
      <sparseX i="904" alpha="-8533.3975724120482" sparseCutoff="1.0000000000000000"/>
      <sparseX i="905" alpha="956.05106728118642" sparseCutoff="1.0000000000000000"/>
      <sparseX i="906" alpha="-3085.2315967295317" sparseCutoff="1.0000000000000000"/>
      <sparseX i="907" alpha="932.59108746548770" sparseCutoff="1.0000000000000000"/>
      <sparseX i="908" alpha="-8467.1715585520014" sparseCutoff="1.0000000000000000"/>
      <sparseX i="909" alpha="404.54716298965553" sparseCutoff="1.0000000000000000"/>
      <sparseX i="910" alpha="3707.7810738683124" sparseCutoff="1.0000000000000000"/>
      <sparseX i="911" alpha="6169.2159824882865" sparseCutoff="1.0000000000000000"/>
      <sparseX i="912" alpha="-3941.7989044917558" sparseCutoff="1.0000000000000000"/>
      <sparseX i="913" alpha="3281.5207489883260" sparseCutoff="1.0000000000000000"/>
      <sparseX i="914" alpha="543.29970900785361" sparseCutoff="1.0000000000000000"/>
      <sparseX i="915" alpha="4465.7524845385415" sparseCutoff="1.0000000000000000"/>
      <sparseX i="916" alpha="7973.9937568137202" sparseCutoff="1.0000000000000000"/>
      <sparseX i="917" alpha="1703.0218372386289" sparseCutoff="1.0000000000000000"/>
      <sparseX i="918" alpha="4882.1275211240891" sparseCutoff="1.0000000000000000"/>
      <sparseX i="919" alpha="3674.0471364162063" sparseCutoff="1.0000000000000000"/>
      <sparseX i="920" alpha="-2557.4660860893068" sparseCutoff="1.0000000000000000"/>
      <sparseX i="921" alpha="-2320.3288168415002" sparseCutoff="1.0000000000000000"/>
      <sparseX i="922" alpha="-164.53626862192687" sparseCutoff="1.0000000000000000"/>
      <sparseX i="923" alpha="1953.1785236931280" sparseCutoff="1.0000000000000000"/>
      <sparseX i="924" alpha="7577.3250763028855" sparseCutoff="1.0000000000000000"/>
      <sparseX i="925" alpha="-1712.8451306436987" sparseCutoff="1.0000000000000000"/>
      <sparseX i="926" alpha="-3682.1473158593290" sparseCutoff="1.0000000000000000"/>
      <sparseX i="927" alpha="7693.6736931467631" sparseCutoff="1.0000000000000000"/>
      <sparseX i="928" alpha="5177.9137873341715" sparseCutoff="1.0000000000000000"/>
      <sparseX i="929" alpha="-765.66978775863777" sparseCutoff="1.0000000000000000"/>
      <sparseX i="930" alpha="-3870.6694574920366" sparseCutoff="1.0000000000000000"/>
      <sparseX i="931" alpha="3981.1817470504438" sparseCutoff="1.0000000000000000"/>
      <sparseX i="932" alpha="-6018.2822656462577" sparseCutoff="1.0000000000000000"/>
      <sparseX i="933" alpha="415.16928197155386" sparseCutoff="1.0000000000000000"/>
      <sparseX i="934" alpha="-6656.2116770285529" sparseCutoff="1.0000000000000000"/>
      <sparseX i="935" alpha="-1245.8897671719453" sparseCutoff="1.0000000000000000"/>
      <sparseX i="936" alpha="-1197.9622743847488" sparseCutoff="1.0000000000000000"/>
      <sparseX i="937" alpha="554.33639684368302" sparseCutoff="1.0000000000000000"/>
      <sparseX i="938" alpha="2757.9146345651029" sparseCutoff="1.0000000000000000"/>
      <sparseX i="939" alpha="-1636.7692097210493" sparseCutoff="1.0000000000000000"/>
      <sparseX i="940" alpha="-5421.6465958417521" sparseCutoff="1.0000000000000000"/>
      <sparseX i="941" alpha="2046.6180825847366" sparseCutoff="1.0000000000000000"/>
      <sparseX i="942" alpha="759.04181600811830" sparseCutoff="1.0000000000000000"/>
      <sparseX i="943" alpha="739.80684233152124" sparseCutoff="1.0000000000000000"/>
      <sparseX i="944" alpha="-2014.4384253935109" sparseCutoff="1.0000000000000000"/>
      <sparseX i="945" alpha="-783.93153369057347" sparseCutoff="1.0000000000000000"/>
      <sparseX i="946" alpha="2900.5322673712899" sparseCutoff="1.0000000000000000"/>
      <sparseX i="947" alpha="3045.3420687486168" sparseCutoff="1.0000000000000000"/>
      <sparseX i="948" alpha="-2937.6593084566211" sparseCutoff="1.0000000000000000"/>
      <sparseX i="949" alpha="7263.6350296597675" sparseCutoff="1.0000000000000000"/>
      <sparseX i="950" alpha="8937.9029644779603" sparseCutoff="1.0000000000000000"/>
      <sparseX i="951" alpha="-2430.9012187327662" sparseCutoff="1.0000000000000000"/>
      <sparseX i="952" alpha="-1021.8697141059849" sparseCutoff="1.0000000000000000"/>
      <sparseX i="953" alpha="1056.7153353701588" sparseCutoff="1.0000000000000000"/>
      <sparseX i="954" alpha="6865.3441605450162" sparseCutoff="1.0000000000000000"/>
      <sparseX i="955" alpha="689.57364122082959" sparseCutoff="1.0000000000000000"/>
      <sparseX i="956" alpha="4853.6133619820521" sparseCutoff="1.0000000000000000"/>
      <sparseX i="957" alpha="508.34552654662696" sparseCutoff="1.0000000000000000"/>
      <sparseX i="958" alpha="1988.0322930142866" sparseCutoff="1.0000000000000000"/>
      <sparseX i="959" alpha="-397.45119189088268" sparseCutoff="1.0000000000000000"/>
      <sparseX i="960" alpha="1334.6681761015188" sparseCutoff="1.0000000000000000"/>
      <sparseX i="961" alpha="-758.01462830939613" sparseCutoff="1.0000000000000000"/>
      <sparseX i="962" alpha="-1108.3860639399632" sparseCutoff="1.0000000000000000"/>
      <sparseX i="963" alpha="-2691.2945656252168" sparseCutoff="1.0000000000000000"/>
      <sparseX i="964" alpha="3280.7312398472768" sparseCutoff="1.0000000000000000"/>
      <sparseX i="965" alpha="982.77533974516723" sparseCutoff="1.0000000000000000"/>
      <sparseX i="966" alpha="-1030.3824105517224" sparseCutoff="1.0000000000000000"/>
      <sparseX i="967" alpha="-1879.8874887037432" sparseCutoff="1.0000000000000000"/>
      <sparseX i="968" alpha="-1350.2826657143667" sparseCutoff="1.0000000000000000"/>
      <sparseX i="969" alpha="-5356.4838122229803" sparseCutoff="1.0000000000000000"/>
      <sparseX i="970" alpha="893.13455726435870" sparseCutoff="1.0000000000000000"/>
      <sparseX i="971" alpha="-3230.5719414488563" sparseCutoff="1.0000000000000000"/>
      <sparseX i="972" alpha="381.86306325767600" sparseCutoff="1.0000000000000000"/>
      <sparseX i="973" alpha="4532.6115433404093" sparseCutoff="1.0000000000000000"/>
      <sparseX i="974" alpha="-4482.9366808857858" sparseCutoff="1.0000000000000000"/>
      <sparseX i="975" alpha="-676.19271556729734" sparseCutoff="1.0000000000000000"/>
      <sparseX i="976" alpha="-659.00179634320182" sparseCutoff="1.0000000000000000"/>
      <sparseX i="977" alpha="6786.9512022668569" sparseCutoff="1.0000000000000000"/>
      <sparseX i="978" alpha="2689.3847281605517" sparseCutoff="1.0000000000000000"/>
      <sparseX i="979" alpha="-5483.3792045319351" sparseCutoff="1.0000000000000000"/>
      <sparseX i="980" alpha="-4258.4998587971122" sparseCutoff="1.0000000000000000"/>
      <sparseX i="981" alpha="-1166.7711765932204" sparseCutoff="1.0000000000000000"/>
      <sparseX i="982" alpha="3417.8053228284457" sparseCutoff="1.0000000000000000"/>
      <sparseX i="983" alpha="-5593.3938793093548" sparseCutoff="1.0000000000000000"/>
      <sparseX i="984" alpha="2002.4041879510487" sparseCutoff="1.0000000000000000"/>
      <sparseX i="985" alpha="3850.7560393309677" sparseCutoff="1.0000000000000000"/>
      <sparseX i="986" alpha="4873.0818193471487" sparseCutoff="1.0000000000000000"/>
      <sparseX i="987" alpha="2316.2613145360319" sparseCutoff="1.0000000000000000"/>
      <sparseX i="988" alpha="-2700.6824239246675" sparseCutoff="1.0000000000000000"/>
      <sparseX i="989" alpha="1396.8903558053487" sparseCutoff="1.0000000000000000"/>
      <sparseX i="990" alpha="2337.0534486178476" sparseCutoff="1.0000000000000000"/>
      <sparseX i="991" alpha="3776.3153206895931" sparseCutoff="1.0000000000000000"/>
      <sparseX i="992" alpha="3185.4418845482369" sparseCutoff="1.0000000000000000"/>
      <sparseX i="993" alpha="777.98928817566286" sparseCutoff="1.0000000000000000"/>
      <sparseX i="994" alpha="726.95993766696506" sparseCutoff="1.0000000000000000"/>
      <sparseX i="995" alpha="2982.2220099089695" sparseCutoff="1.0000000000000000"/>
      <sparseX i="996" alpha="7021.3902701012912" sparseCutoff="1.0000000000000000"/>
      <sparseX i="997" alpha="3923.7894379613163" sparseCutoff="1.0000000000000000"/>
      <sparseX i="998" alpha="-3004.5072318983357" sparseCutoff="1.0000000000000000"/>
      <sparseX i="999" alpha="-2913.3137746409811" sparseCutoff="1.0000000000000000"/>
      <sparseX i="1000" alpha="559.76698107573338" sparseCutoff="1.0000000000000000"/>
      <sparseX i="1001" alpha="-3903.4917649787421" sparseCutoff="1.0000000000000000"/>
      <sparseX i="1002" alpha="-5661.2169528404502" sparseCutoff="1.0000000000000000"/>
      <sparseX i="1003" alpha="1065.3561428824514" sparseCutoff="1.0000000000000000"/>
      <sparseX i="1004" alpha="11187.691178651303" sparseCutoff="1.0000000000000000"/>
      <sparseX i="1005" alpha="1563.0950930733809" sparseCutoff="1.0000000000000000"/>
      <sparseX i="1006" alpha="1009.4446631793535" sparseCutoff="1.0000000000000000"/>
      <sparseX i="1007" alpha="-4328.0029119835081" sparseCutoff="1.0000000000000000"/>
      <sparseX i="1008" alpha="1048.1177004482026" sparseCutoff="1.0000000000000000"/>
      <sparseX i="1009" alpha="2986.6677333722496" sparseCutoff="1.0000000000000000"/>
      <sparseX i="1010" alpha="-3637.2085587168272" sparseCutoff="1.0000000000000000"/>
      <sparseX i="1011" alpha="-4867.0189972381932" sparseCutoff="1.0000000000000000"/>
      <sparseX i="1012" alpha="1530.8808637484949" sparseCutoff="1.0000000000000000"/>
      <sparseX i="1013" alpha="1621.0981469668161" sparseCutoff="1.0000000000000000"/>
      <sparseX i="1014" alpha="4072.1754632431644" sparseCutoff="1.0000000000000000"/>
      <sparseX i="1015" alpha="-5033.6315451708333" sparseCutoff="1.0000000000000000"/>
      <sparseX i="1016" alpha="-1444.8617196882710" sparseCutoff="1.0000000000000000"/>
      <sparseX i="1017" alpha="-7233.6398296420430" sparseCutoff="1.0000000000000000"/>
      <sparseX i="1018" alpha="985.19307909384747" sparseCutoff="1.0000000000000000"/>
      <sparseX i="1019" alpha="-3740.5182928757722" sparseCutoff="1.0000000000000000"/>
      <sparseX i="1020" alpha="7547.4448623115877" sparseCutoff="1.0000000000000000"/>
      <sparseX i="1021" alpha="-6836.4719724531951" sparseCutoff="1.0000000000000000"/>
      <sparseX i="1022" alpha="-1862.5531997877824" sparseCutoff="1.0000000000000000"/>
      <sparseX i="1023" alpha="-1219.8511148744210" sparseCutoff="1.0000000000000000"/>
      <sparseX i="1024" alpha="4701.2588796407763" sparseCutoff="1.0000000000000000"/>
      <sparseX i="1025" alpha="557.67876513006831" sparseCutoff="1.0000000000000000"/>
      <sparseX i="1026" alpha="-2098.5923635951458" sparseCutoff="1.0000000000000000"/>
      <sparseX i="1027" alpha="-5486.0705834649843" sparseCutoff="1.0000000000000000"/>
      <sparseX i="1028" alpha="-1111.6898971107016" sparseCutoff="1.0000000000000000"/>
      <sparseX i="1029" alpha="1650.6593915394471" sparseCutoff="1.0000000000000000"/>
      <sparseX i="1030" alpha="-463.22160147845966" sparseCutoff="1.0000000000000000"/>
