<GAP_2022_9_19_60_13_16_40_534>
<Potential label="GAP_2022_9_19_60_13_16_40_534" init_args="Sum init_args_pot1={IP Glue} init_args_pot2={IP GAP label=GAP_2022_9_19_60_13_16_40_534}"/>
<quip>
  <Glue_params n_types="1">
  <per_type_data atomic_num="15" type="1">
    <density num_points="2" density_y1="-0.4144" density_yn="0.0">
      <point a="0.821917808219178" rho="0.00001"/>
      <point a="1.027397260273973" rho="0.00002"/>
    </density>
    <potential_density num_points="2">
      <point rho="0.00001" E="0.0"/>
      <point rho="0.00002" E="0.0"/>
    </potential_density>
  </per_type_data>
  <per_pair_data type1="1" type2="1">
<potential_pair num_points="38" y1="0.0" yn="0.0">
<point r="3.0"  E="0.0"/>
<point r="4.0"  E="-0.018820428606275908"/>
<point r="4.1"  E="-0.016228796603225144"/>
<point r="4.2"  E="-0.0140440935973035"/>
<point r="4.3"  E="-0.012194913497888888"/>
<point r="4.4"  E="-0.010623641300681096"/>
<point r="4.5"  E="-0.009283556286706502"/>
<point r="5.0"  E="-0.004933662436563589"/>
<point r="5.5"  E="-0.0027849238251257463"/>
<point r="6.0"  E="-0.0016522735676291597"/>
<point r="6.5"  E="-0.0010221374901230999"/>
<point r="7.0"  E="-0.0006552412308757928"/>
<point r="7.5"  E="-0.00043313360211257886"/>
<point r="8.0"  E="-0.00029406919697306106"/>
<point r="8.5"  E="-0.00020439765233042277"/>
<point r="9.0"  E="-0.0001450555669797891"/>
<point r="9.5"  E="-0.00010486916881338854"/>
<point r="10.0"  E="-7.708847557130608e-5"/>
<point r="10.5"  E="-5.752460737455519e-5"/>
<point r="11.0"  E="-4.3514434767589786e-5"/>
<point r="11.5"  E="-3.3327475316229485e-5"/>
<point r="12.0"  E="-2.581677449420562e-5"/>
<point r="12.5"  E="-2.0208281340164477e-5"/>
<point r="13.0"  E="-1.5970898283173436e-5"/>
<point r="13.5"  E="-1.2734645112080251e-5"/>
<point r="14.0"  E="-1.0238144232434262e-5"/>
<point r="14.5"  E="-8.29433255621057e-6"/>
<point r="15.0"  E="-6.767712533009045e-6"/>
<point r="15.5"  E="-5.559033209873066e-6"/>
<point r="16.0"  E="-4.594831202704079e-6"/>
<point r="16.5"  E="-3.82019729098182e-6"/>
<point r="17.0"  E="-3.1937133176628557e-6"/>
<point r="17.5"  E="-2.683868081667246e-6"/>
<point r="18.0"  E="-2.2664932340592047e-6"/>
<point r="18.5"  E="-1.9229105719368186e-6"/>
<point r="19.0"  E="-1.6385807627091959e-6"/>
<point r="19.5"  E="-1.4021090399493833e-6"/>
<point r="20.0"  E="-1.2045074308016575e-6"/>
</potential_pair>
 </per_pair_data>
</Glue_params>
</quip>
<GAP_params label="GAP_2022_9_19_60_13_16_40_534" gap_version="1663247896">
  <GAP_data do_core="T">
    <e0 Z="1" value=".00000000000000000E+000"/>
    <e0 Z="2" value=".00000000000000000E+000"/>
    <e0 Z="3" value=".00000000000000000E+000"/>
    <e0 Z="4" value=".00000000000000000E+000"/>
    <e0 Z="5" value=".00000000000000000E+000"/>
    <e0 Z="6" value=".00000000000000000E+000"/>
    <e0 Z="7" value=".00000000000000000E+000"/>
    <e0 Z="8" value=".00000000000000000E+000"/>
    <e0 Z="9" value=".00000000000000000E+000"/>
    <e0 Z="10" value=".00000000000000000E+000"/>
    <e0 Z="11" value=".00000000000000000E+000"/>
    <e0 Z="12" value=".00000000000000000E+000"/>
    <e0 Z="13" value=".00000000000000000E+000"/>
    <e0 Z="14" value=".00000000000000000E+000"/>
    <e0 Z="15" value="-.97533040000000001E-001"/>
    <e0 Z="16" value=".00000000000000000E+000"/>
    <e0 Z="17" value=".00000000000000000E+000"/>
    <e0 Z="18" value=".00000000000000000E+000"/>
    <e0 Z="19" value=".00000000000000000E+000"/>
    <e0 Z="20" value=".00000000000000000E+000"/>
    <e0 Z="21" value=".00000000000000000E+000"/>
    <e0 Z="22" value=".00000000000000000E+000"/>
    <e0 Z="23" value=".00000000000000000E+000"/>
    <e0 Z="24" value=".00000000000000000E+000"/>
    <e0 Z="25" value=".00000000000000000E+000"/>
    <e0 Z="26" value=".00000000000000000E+000"/>
    <e0 Z="27" value=".00000000000000000E+000"/>
    <e0 Z="28" value=".00000000000000000E+000"/>
    <e0 Z="29" value=".00000000000000000E+000"/>
    <e0 Z="30" value=".00000000000000000E+000"/>
    <e0 Z="31" value=".00000000000000000E+000"/>
    <e0 Z="32" value=".00000000000000000E+000"/>
    <e0 Z="33" value=".00000000000000000E+000"/>
    <e0 Z="34" value=".00000000000000000E+000"/>
    <e0 Z="35" value=".00000000000000000E+000"/>
    <e0 Z="36" value=".00000000000000000E+000"/>
    <e0 Z="37" value=".00000000000000000E+000"/>
    <e0 Z="38" value=".00000000000000000E+000"/>
    <e0 Z="39" value=".00000000000000000E+000"/>
    <e0 Z="40" value=".00000000000000000E+000"/>
    <e0 Z="41" value=".00000000000000000E+000"/>
    <e0 Z="42" value=".00000000000000000E+000"/>
    <e0 Z="43" value=".00000000000000000E+000"/>
    <e0 Z="44" value=".00000000000000000E+000"/>
    <e0 Z="45" value=".00000000000000000E+000"/>
    <e0 Z="46" value=".00000000000000000E+000"/>
    <e0 Z="47" value=".00000000000000000E+000"/>
    <e0 Z="48" value=".00000000000000000E+000"/>
    <e0 Z="49" value=".00000000000000000E+000"/>
    <e0 Z="50" value=".00000000000000000E+000"/>
    <e0 Z="51" value=".00000000000000000E+000"/>
    <e0 Z="52" value=".00000000000000000E+000"/>
    <e0 Z="53" value=".00000000000000000E+000"/>
    <e0 Z="54" value=".00000000000000000E+000"/>
    <e0 Z="55" value=".00000000000000000E+000"/>
    <e0 Z="56" value=".00000000000000000E+000"/>
    <e0 Z="57" value=".00000000000000000E+000"/>
    <e0 Z="58" value=".00000000000000000E+000"/>
    <e0 Z="59" value=".00000000000000000E+000"/>
    <e0 Z="60" value=".00000000000000000E+000"/>
    <e0 Z="61" value=".00000000000000000E+000"/>
    <e0 Z="62" value=".00000000000000000E+000"/>
    <e0 Z="63" value=".00000000000000000E+000"/>
    <e0 Z="64" value=".00000000000000000E+000"/>
    <e0 Z="65" value=".00000000000000000E+000"/>
    <e0 Z="66" value=".00000000000000000E+000"/>
    <e0 Z="67" value=".00000000000000000E+000"/>
    <e0 Z="68" value=".00000000000000000E+000"/>
    <e0 Z="69" value=".00000000000000000E+000"/>
    <e0 Z="70" value=".00000000000000000E+000"/>
    <e0 Z="71" value=".00000000000000000E+000"/>
    <e0 Z="72" value=".00000000000000000E+000"/>
    <e0 Z="73" value=".00000000000000000E+000"/>
    <e0 Z="74" value=".00000000000000000E+000"/>
    <e0 Z="75" value=".00000000000000000E+000"/>
    <e0 Z="76" value=".00000000000000000E+000"/>
    <e0 Z="77" value=".00000000000000000E+000"/>
    <e0 Z="78" value=".00000000000000000E+000"/>
    <e0 Z="79" value=".00000000000000000E+000"/>
    <e0 Z="80" value=".00000000000000000E+000"/>
    <e0 Z="81" value=".00000000000000000E+000"/>
    <e0 Z="82" value=".00000000000000000E+000"/>
    <e0 Z="83" value=".00000000000000000E+000"/>
    <e0 Z="84" value=".00000000000000000E+000"/>
    <e0 Z="85" value=".00000000000000000E+000"/>
    <e0 Z="86" value=".00000000000000000E+000"/>
    <e0 Z="87" value=".00000000000000000E+000"/>
    <e0 Z="88" value=".00000000000000000E+000"/>
    <e0 Z="89" value=".00000000000000000E+000"/>
    <e0 Z="90" value=".00000000000000000E+000"/>
    <e0 Z="91" value=".00000000000000000E+000"/>
    <e0 Z="92" value=".00000000000000000E+000"/>
    <e0 Z="93" value=".00000000000000000E+000"/>
    <e0 Z="94" value=".00000000000000000E+000"/>
    <e0 Z="95" value=".00000000000000000E+000"/>
    <e0 Z="96" value=".00000000000000000E+000"/>
    <e0 Z="97" value=".00000000000000000E+000"/>
    <e0 Z="98" value=".00000000000000000E+000"/>
    <e0 Z="99" value=".00000000000000000E+000"/>
    <e0 Z="100" value=".00000000000000000E+000"/>
    <e0 Z="101" value=".00000000000000000E+000"/>
    <e0 Z="102" value=".00000000000000000E+000"/>
    <e0 Z="103" value=".00000000000000000E+000"/>
    <e0 Z="104" value=".00000000000000000E+000"/>
    <e0 Z="105" value=".00000000000000000E+000"/>
    <e0 Z="106" value=".00000000000000000E+000"/>
    <e0 Z="107" value=".00000000000000000E+000"/>
    <e0 Z="108" value=".00000000000000000E+000"/>
    <e0 Z="109" value=".00000000000000000E+000"/>
    <e0 Z="110" value=".00000000000000000E+000"/>
    <e0 Z="111" value=".00000000000000000E+000"/>
    <e0 Z="112" value=".00000000000000000E+000"/>
    <e0 Z="113" value=".00000000000000000E+000"/>
    <e0 Z="114" value=".00000000000000000E+000"/>
    <e0 Z="115" value=".00000000000000000E+000"/>
    <e0 Z="116" value=".00000000000000000E+000"/>
    <e0 Z="117" value=".00000000000000000E+000"/>
    <e0 Z="118" value=".00000000000000000E+000"/>
  </GAP_data>
  <gpSparse label="GAP_2022_9_19_60_13_16_40_534" n_coordinate="2" fitted="T">
    <gpCoordinates label="GAP_2022_9_19_60_13_16_40_5341" dimensions="1" signal_variance="2.0000000000000000" signal_mean=".00000000000000000E+000" sparsified="T" n_permutations="2" covariance_type="1" n_sparseX="15" sparseX_filename="P20_vsmall.xml.sparseX.GAP_2022_9_19_60_13_16_40_5341" sparseX_md5sum="d25801bbd7d6e6122eaad83432adba43">
      <theta>  0.25000000000000000E+001 </theta>
      <descriptor>distance_Nb order=2 cutoff=5.0 n_sparse=15 covariance_type=ard_se delta=2.0 theta_uniform=2.5 sparse_method=uniform compact_clusters=T Z={15 15 }</descriptor>
      <permutation i="1">1  </permutation>
      <permutation i="2">1  </permutation>
      <sparseX i="1" alpha="4049.9601802035613" sparseCutoff="1.0000000000000000"/>
      <sparseX i="2" alpha="-3837.1292127289794" sparseCutoff="1.0000000000000000"/>
      <sparseX i="3" alpha="-3100.4743955165313" sparseCutoff="1.0000000000000000"/>
      <sparseX i="4" alpha="515.69575959302961" sparseCutoff="1.0000000000000000"/>
      <sparseX i="5" alpha="1923.6205505899768" sparseCutoff="1.0000000000000000"/>
      <sparseX i="6" alpha="1797.2795040904675" sparseCutoff="1.0000000000000000"/>
      <sparseX i="7" alpha="1200.6452971438343" sparseCutoff="1.0000000000000000"/>
      <sparseX i="8" alpha="-450.43172342304194" sparseCutoff="1.0000000000000000"/>
      <sparseX i="9" alpha="-1896.9896634424281" sparseCutoff="1.0000000000000000"/>
      <sparseX i="10" alpha="-2809.8594445391777" sparseCutoff="1.0000000000000000"/>
      <sparseX i="11" alpha="27.886468761289954" sparseCutoff="1.0000000000000000"/>
      <sparseX i="12" alpha="-3502.2886287408651" sparseCutoff=".81180019384042856"/>
      <sparseX i="13" alpha="-1319.3720538812731" sparseCutoff=".15305833510568634E-001"/>
      <sparseX i="14" alpha="3852.5269557739948" sparseCutoff="1.0000000000000000"/>
      <sparseX i="15" alpha="1602.2752054356495" sparseCutoff="1.0000000000000000"/>
    </gpCoordinates>
    <gpCoordinates label="GAP_2022_9_19_60_13_16_40_5342" dimensions="547" signal_variance=".20000000000000001" signal_mean=".00000000000000000E+000" sparsified="T" n_permutations="1" covariance_type="2" zeta="4.0000000000000000" n_sparseX="1772" sparseX_filename="P20_vsmall.xml.sparseX.GAP_2022_9_19_60_13_16_40_5342" sparseX_md5sum="da6e2d7ec5a97c7df53a1660afbe2419">
      <descriptor>soap l_max=6 n_max=12 atom_sigma=0.5 cutoff=5.0 radial_scaling=-0.5 cutoff_transition_width=1.0 central_weight=1.0 n_sparse=8000 delta=0.2 f0=0.0 covariance_type=dot_product zeta=4 sparse_method=cur_points n_species=1 Z=15 species_Z={15 }</descriptor>
      <permutation i="1">1  </permutation>
      <sparseX i="1" alpha="4991.7684201461998" sparseCutoff="1.0000000000000000"/>
      <sparseX i="2" alpha="-7459.3928237004829" sparseCutoff="1.0000000000000000"/>
      <sparseX i="3" alpha="-9382.5639046349988" sparseCutoff="1.0000000000000000"/>
      <sparseX i="4" alpha="12900.954907542420" sparseCutoff="1.0000000000000000"/>
      <sparseX i="5" alpha="9162.3172512548845" sparseCutoff="1.0000000000000000"/>
      <sparseX i="6" alpha="-8859.9744688664796" sparseCutoff="1.0000000000000000"/>
      <sparseX i="7" alpha="-9118.0479631954695" sparseCutoff="1.0000000000000000"/>
      <sparseX i="8" alpha="3669.0099352472016" sparseCutoff="1.0000000000000000"/>
      <sparseX i="9" alpha="6731.6379849357299" sparseCutoff="1.0000000000000000"/>
      <sparseX i="10" alpha="-1074.3612870002637" sparseCutoff="1.0000000000000000"/>
      <sparseX i="11" alpha="-4131.5294015972013" sparseCutoff="1.0000000000000000"/>
      <sparseX i="12" alpha="1220.2911693547151" sparseCutoff="1.0000000000000000"/>
      <sparseX i="13" alpha="3075.9941578871512" sparseCutoff="1.0000000000000000"/>
      <sparseX i="14" alpha="-3784.0127151708057" sparseCutoff="1.0000000000000000"/>
      <sparseX i="15" alpha="1133.3865255856845" sparseCutoff="1.0000000000000000"/>
      <sparseX i="16" alpha="-2292.4582303543057" sparseCutoff="1.0000000000000000"/>
      <sparseX i="17" alpha="-13579.195255363518" sparseCutoff="1.0000000000000000"/>
      <sparseX i="18" alpha="9906.3937023819726" sparseCutoff="1.0000000000000000"/>
      <sparseX i="19" alpha="2874.9282119065165" sparseCutoff="1.0000000000000000"/>
      <sparseX i="20" alpha="-2343.6276050715155" sparseCutoff="1.0000000000000000"/>
      <sparseX i="21" alpha="1953.1669903029540" sparseCutoff="1.0000000000000000"/>
      <sparseX i="22" alpha="-1993.7585639951762" sparseCutoff="1.0000000000000000"/>
      <sparseX i="23" alpha="1505.1227897408662" sparseCutoff="1.0000000000000000"/>
      <sparseX i="24" alpha="-522.51226338566880" sparseCutoff="1.0000000000000000"/>
      <sparseX i="25" alpha="5054.3146704888259" sparseCutoff="1.0000000000000000"/>
      <sparseX i="26" alpha="-9352.8093312119981" sparseCutoff="1.0000000000000000"/>
      <sparseX i="27" alpha="14699.388161979372" sparseCutoff="1.0000000000000000"/>
      <sparseX i="28" alpha="8132.9783995028165" sparseCutoff="1.0000000000000000"/>
      <sparseX i="29" alpha="-13906.891208935602" sparseCutoff="1.0000000000000000"/>
      <sparseX i="30" alpha="715.16464547119301" sparseCutoff="1.0000000000000000"/>
      <sparseX i="31" alpha="-2709.8319881479392" sparseCutoff="1.0000000000000000"/>
      <sparseX i="32" alpha="4214.1027000801860" sparseCutoff="1.0000000000000000"/>
      <sparseX i="33" alpha="-3461.7664534590576" sparseCutoff="1.0000000000000000"/>
      <sparseX i="34" alpha="1863.3212015055628" sparseCutoff="1.0000000000000000"/>
      <sparseX i="35" alpha="-506.62352269195509" sparseCutoff="1.0000000000000000"/>
      <sparseX i="36" alpha="-444.84012674688057" sparseCutoff="1.0000000000000000"/>
      <sparseX i="37" alpha="-9.8775351952306529" sparseCutoff="1.0000000000000000"/>
      <sparseX i="38" alpha="-20.472177895391209" sparseCutoff="1.0000000000000000"/>
      <sparseX i="39" alpha="-4.7093804526663261" sparseCutoff="1.0000000000000000"/>
      <sparseX i="40" alpha="137.19232805591884" sparseCutoff="1.0000000000000000"/>
      <sparseX i="41" alpha="397.03771807843702" sparseCutoff="1.0000000000000000"/>
      <sparseX i="42" alpha="-8.4587347479890003" sparseCutoff="1.0000000000000000"/>
      <sparseX i="43" alpha="-45.491370732499647" sparseCutoff="1.0000000000000000"/>
      <sparseX i="44" alpha="130.48986725321308" sparseCutoff="1.0000000000000000"/>
      <sparseX i="45" alpha="93.176442883572051" sparseCutoff="1.0000000000000000"/>
      <sparseX i="46" alpha="-258.11296554435415" sparseCutoff="1.0000000000000000"/>
      <sparseX i="47" alpha="211.51133740852038" sparseCutoff="1.0000000000000000"/>
      <sparseX i="48" alpha="-64.300355841997856" sparseCutoff="1.0000000000000000"/>
      <sparseX i="49" alpha="26.040680302690845" sparseCutoff="1.0000000000000000"/>
      <sparseX i="50" alpha="119.73943148654594" sparseCutoff="1.0000000000000000"/>
      <sparseX i="51" alpha="-514.22040626760065" sparseCutoff="1.0000000000000000"/>
      <sparseX i="52" alpha="252.46710310654746" sparseCutoff="1.0000000000000000"/>
      <sparseX i="53" alpha="175.05894623918635" sparseCutoff="1.0000000000000000"/>
      <sparseX i="54" alpha="-314.25680914880206" sparseCutoff="1.0000000000000000"/>
      <sparseX i="55" alpha="178.02294471804208" sparseCutoff="1.0000000000000000"/>
      <sparseX i="56" alpha="-516.53224316679166" sparseCutoff="1.0000000000000000"/>
      <sparseX i="57" alpha="-164.00114683428924" sparseCutoff="1.0000000000000000"/>
      <sparseX i="58" alpha="-62.956491279391926" sparseCutoff="1.0000000000000000"/>
      <sparseX i="59" alpha="-450.07482654943487" sparseCutoff="1.0000000000000000"/>
      <sparseX i="60" alpha="-52.797337811793192" sparseCutoff="1.0000000000000000"/>
      <sparseX i="61" alpha="130.10018690824640" sparseCutoff="1.0000000000000000"/>
      <sparseX i="62" alpha="129.71251219203745" sparseCutoff="1.0000000000000000"/>
      <sparseX i="63" alpha="116.00152145811339" sparseCutoff="1.0000000000000000"/>
      <sparseX i="64" alpha="30.243672292232979" sparseCutoff="1.0000000000000000"/>
      <sparseX i="65" alpha="133.17892980237127" sparseCutoff="1.0000000000000000"/>
      <sparseX i="66" alpha="224.45532941302432" sparseCutoff="1.0000000000000000"/>
      <sparseX i="67" alpha="-42.313620271853303" sparseCutoff="1.0000000000000000"/>
      <sparseX i="68" alpha="231.85238548603675" sparseCutoff="1.0000000000000000"/>
      <sparseX i="69" alpha="-38.787258672091568" sparseCutoff="1.0000000000000000"/>
      <sparseX i="70" alpha="-157.26790395627054" sparseCutoff="1.0000000000000000"/>
      <sparseX i="71" alpha="160.79655063983273" sparseCutoff="1.0000000000000000"/>
      <sparseX i="72" alpha="286.84233227617636" sparseCutoff="1.0000000000000000"/>
      <sparseX i="73" alpha="-36.143225441622867" sparseCutoff="1.0000000000000000"/>
      <sparseX i="74" alpha="104.61818391098032" sparseCutoff="1.0000000000000000"/>
      <sparseX i="75" alpha="166.58390498487799" sparseCutoff="1.0000000000000000"/>
      <sparseX i="76" alpha="-44.792002601844445" sparseCutoff="1.0000000000000000"/>
      <sparseX i="77" alpha="525.51890927755153" sparseCutoff="1.0000000000000000"/>
      <sparseX i="78" alpha="-171.62712359157285" sparseCutoff="1.0000000000000000"/>
      <sparseX i="79" alpha="443.02334778588357" sparseCutoff="1.0000000000000000"/>
      <sparseX i="80" alpha="-408.83298205932584" sparseCutoff="1.0000000000000000"/>
      <sparseX i="81" alpha="267.60740250623371" sparseCutoff="1.0000000000000000"/>
      <sparseX i="82" alpha="-124.50403366271300" sparseCutoff="1.0000000000000000"/>
      <sparseX i="83" alpha="-195.36786667947661" sparseCutoff="1.0000000000000000"/>
      <sparseX i="84" alpha="-403.58687490731307" sparseCutoff="1.0000000000000000"/>
      <sparseX i="85" alpha="-4.4813920431383591" sparseCutoff="1.0000000000000000"/>
      <sparseX i="86" alpha="-246.31364020051475" sparseCutoff="1.0000000000000000"/>
      <sparseX i="87" alpha="-507.29533959895764" sparseCutoff="1.0000000000000000"/>
      <sparseX i="88" alpha="-28.735523630030499" sparseCutoff="1.0000000000000000"/>
      <sparseX i="89" alpha="179.81290522349281" sparseCutoff="1.0000000000000000"/>
      <sparseX i="90" alpha="126.77096553593806" sparseCutoff="1.0000000000000000"/>
      <sparseX i="91" alpha="-269.95592619517703" sparseCutoff="1.0000000000000000"/>
      <sparseX i="92" alpha="239.98291724387309" sparseCutoff="1.0000000000000000"/>
      <sparseX i="93" alpha="163.30926839113440" sparseCutoff="1.0000000000000000"/>
      <sparseX i="94" alpha="110.53598644435829" sparseCutoff="1.0000000000000000"/>
      <sparseX i="95" alpha="605.03628874494234" sparseCutoff="1.0000000000000000"/>
      <sparseX i="96" alpha="422.86938678104787" sparseCutoff="1.0000000000000000"/>
      <sparseX i="97" alpha="86.301607097340295" sparseCutoff="1.0000000000000000"/>
      <sparseX i="98" alpha="512.37396819464800" sparseCutoff="1.0000000000000000"/>
      <sparseX i="99" alpha="-551.61358840154537" sparseCutoff="1.0000000000000000"/>
      <sparseX i="100" alpha="-177.90836658880002" sparseCutoff="1.0000000000000000"/>
      <sparseX i="101" alpha="-571.85552874106668" sparseCutoff="1.0000000000000000"/>
      <sparseX i="102" alpha="-122.22767911273017" sparseCutoff="1.0000000000000000"/>
      <sparseX i="103" alpha="-118.34278395300781" sparseCutoff="1.0000000000000000"/>
      <sparseX i="104" alpha="-5.9149151548728653" sparseCutoff="1.0000000000000000"/>
      <sparseX i="105" alpha="44.450046135821417" sparseCutoff="1.0000000000000000"/>
      <sparseX i="106" alpha="-110.26523793773589" sparseCutoff="1.0000000000000000"/>
      <sparseX i="107" alpha="-85.604316710356585" sparseCutoff="1.0000000000000000"/>
      <sparseX i="108" alpha="19.938827087368523" sparseCutoff="1.0000000000000000"/>
      <sparseX i="109" alpha="106.56565062781654" sparseCutoff="1.0000000000000000"/>
      <sparseX i="110" alpha="-262.00314692719326" sparseCutoff="1.0000000000000000"/>
      <sparseX i="111" alpha="-237.72920608010929" sparseCutoff="1.0000000000000000"/>
      <sparseX i="112" alpha="-11.102226266476549" sparseCutoff="1.0000000000000000"/>
      <sparseX i="113" alpha="58.572500512724332" sparseCutoff="1.0000000000000000"/>
      <sparseX i="114" alpha="154.88409400115148" sparseCutoff="1.0000000000000000"/>
      <sparseX i="115" alpha="124.50503330180690" sparseCutoff="1.0000000000000000"/>
      <sparseX i="116" alpha="90.431619553869012" sparseCutoff="1.0000000000000000"/>
      <sparseX i="117" alpha="126.33100581829457" sparseCutoff="1.0000000000000000"/>
      <sparseX i="118" alpha="301.65448005266921" sparseCutoff="1.0000000000000000"/>
      <sparseX i="119" alpha="139.74449117947506" sparseCutoff="1.0000000000000000"/>
      <sparseX i="120" alpha="-205.79561841834646" sparseCutoff="1.0000000000000000"/>
      <sparseX i="121" alpha="361.60501316854027" sparseCutoff="1.0000000000000000"/>
      <sparseX i="122" alpha="-136.79294910643739" sparseCutoff="1.0000000000000000"/>
      <sparseX i="123" alpha="-134.21434381675846" sparseCutoff="1.0000000000000000"/>
      <sparseX i="124" alpha="45.645622687340499" sparseCutoff="1.0000000000000000"/>
      <sparseX i="125" alpha="125.66813178746175" sparseCutoff="1.0000000000000000"/>
      <sparseX i="126" alpha="192.46608202633794" sparseCutoff="1.0000000000000000"/>
      <sparseX i="127" alpha="-74.778142435853468" sparseCutoff="1.0000000000000000"/>
      <sparseX i="128" alpha="-337.83752817846158" sparseCutoff="1.0000000000000000"/>
      <sparseX i="129" alpha="37.783538430314771" sparseCutoff="1.0000000000000000"/>
      <sparseX i="130" alpha="-194.71958984773832" sparseCutoff="1.0000000000000000"/>
      <sparseX i="131" alpha="133.73930447387974" sparseCutoff="1.0000000000000000"/>
      <sparseX i="132" alpha="-26.625609463589733" sparseCutoff="1.0000000000000000"/>
      <sparseX i="133" alpha="-73.877866363805140" sparseCutoff="1.0000000000000000"/>
      <sparseX i="134" alpha="-235.47894383035711" sparseCutoff="1.0000000000000000"/>
      <sparseX i="135" alpha="366.35916102846591" sparseCutoff="1.0000000000000000"/>
      <sparseX i="136" alpha="130.38663662754175" sparseCutoff="1.0000000000000000"/>
      <sparseX i="137" alpha="47.991561501004774" sparseCutoff="1.0000000000000000"/>
      <sparseX i="138" alpha="-428.98567540935608" sparseCutoff="1.0000000000000000"/>
      <sparseX i="139" alpha="-54.373976433527986" sparseCutoff="1.0000000000000000"/>
      <sparseX i="140" alpha="-134.98144817168458" sparseCutoff="1.0000000000000000"/>
      <sparseX i="141" alpha="154.07212134536795" sparseCutoff="1.0000000000000000"/>
      <sparseX i="142" alpha="-387.35587101737451" sparseCutoff="1.0000000000000000"/>
      <sparseX i="143" alpha="-212.45288084656991" sparseCutoff="1.0000000000000000"/>
      <sparseX i="144" alpha="126.62523388584734" sparseCutoff="1.0000000000000000"/>
      <sparseX i="145" alpha="-285.31629177028674" sparseCutoff="1.0000000000000000"/>
      <sparseX i="146" alpha="-423.48379203549763" sparseCutoff="1.0000000000000000"/>
      <sparseX i="147" alpha="394.17532826551889" sparseCutoff="1.0000000000000000"/>
      <sparseX i="148" alpha="360.49072004360494" sparseCutoff="1.0000000000000000"/>
      <sparseX i="149" alpha="159.61631322420587" sparseCutoff="1.0000000000000000"/>
      <sparseX i="150" alpha="-576.59614741125108" sparseCutoff="1.0000000000000000"/>
      <sparseX i="151" alpha="-102.45560772214408" sparseCutoff="1.0000000000000000"/>
      <sparseX i="152" alpha="162.76177293538692" sparseCutoff="1.0000000000000000"/>
      <sparseX i="153" alpha="231.36840375267758" sparseCutoff="1.0000000000000000"/>
      <sparseX i="154" alpha="202.26940851401272" sparseCutoff="1.0000000000000000"/>
      <sparseX i="155" alpha="14.769898411875456" sparseCutoff="1.0000000000000000"/>
      <sparseX i="156" alpha="-784.55126906310932" sparseCutoff="1.0000000000000000"/>
      <sparseX i="157" alpha="-19.603127100675430" sparseCutoff="1.0000000000000000"/>
      <sparseX i="158" alpha="-389.21218538782449" sparseCutoff="1.0000000000000000"/>
      <sparseX i="159" alpha="59.056002452430960" sparseCutoff="1.0000000000000000"/>
      <sparseX i="160" alpha="-28.957069545169286" sparseCutoff="1.0000000000000000"/>
      <sparseX i="161" alpha="-4.8340646091811346" sparseCutoff="1.0000000000000000"/>
      <sparseX i="162" alpha="424.33498456932625" sparseCutoff="1.0000000000000000"/>
      <sparseX i="163" alpha="-67.123847482023464" sparseCutoff="1.0000000000000000"/>
      <sparseX i="164" alpha="668.44599261033295" sparseCutoff="1.0000000000000000"/>
      <sparseX i="165" alpha="-260.23254073090055" sparseCutoff="1.0000000000000000"/>
      <sparseX i="166" alpha="-128.70852519674250" sparseCutoff="1.0000000000000000"/>
      <sparseX i="167" alpha="-76.845344063088064" sparseCutoff="1.0000000000000000"/>
      <sparseX i="168" alpha="73.092005408769850" sparseCutoff="1.0000000000000000"/>
      <sparseX i="169" alpha="-77.821268594363843" sparseCutoff="1.0000000000000000"/>
      <sparseX i="170" alpha="43.146776724717540" sparseCutoff="1.0000000000000000"/>
      <sparseX i="171" alpha="256.63206886609771" sparseCutoff="1.0000000000000000"/>
      <sparseX i="172" alpha="418.54820979542291" sparseCutoff="1.0000000000000000"/>
      <sparseX i="173" alpha="106.96369964959892" sparseCutoff="1.0000000000000000"/>
      <sparseX i="174" alpha="509.78206727836380" sparseCutoff="1.0000000000000000"/>
      <sparseX i="175" alpha="115.50634787201555" sparseCutoff="1.0000000000000000"/>
      <sparseX i="176" alpha="88.358729379389771" sparseCutoff="1.0000000000000000"/>
      <sparseX i="177" alpha="-153.01981527348534" sparseCutoff="1.0000000000000000"/>
      <sparseX i="178" alpha="23.203581871886669" sparseCutoff="1.0000000000000000"/>
      <sparseX i="179" alpha="-46.769957184605239" sparseCutoff="1.0000000000000000"/>
      <sparseX i="180" alpha="427.04510110374105" sparseCutoff="1.0000000000000000"/>
      <sparseX i="181" alpha="177.02084264773862" sparseCutoff="1.0000000000000000"/>
      <sparseX i="182" alpha="-88.478448595486157" sparseCutoff="1.0000000000000000"/>
      <sparseX i="183" alpha="170.42757330035840" sparseCutoff="1.0000000000000000"/>
      <sparseX i="184" alpha="-50.004747409182990" sparseCutoff="1.0000000000000000"/>
      <sparseX i="185" alpha=".63029612763606002" sparseCutoff="1.0000000000000000"/>
      <sparseX i="186" alpha="110.77595074565883" sparseCutoff="1.0000000000000000"/>
      <sparseX i="187" alpha="246.98706338211318" sparseCutoff="1.0000000000000000"/>
      <sparseX i="188" alpha="402.22394572542697" sparseCutoff="1.0000000000000000"/>
      <sparseX i="189" alpha="-369.02710785009106" sparseCutoff="1.0000000000000000"/>
      <sparseX i="190" alpha="190.26041028488973" sparseCutoff="1.0000000000000000"/>
      <sparseX i="191" alpha="105.66904796617783" sparseCutoff="1.0000000000000000"/>
      <sparseX i="192" alpha="105.71271847724105" sparseCutoff="1.0000000000000000"/>
      <sparseX i="193" alpha="-194.64107907595513" sparseCutoff="1.0000000000000000"/>
      <sparseX i="194" alpha="94.422050939569630" sparseCutoff="1.0000000000000000"/>
      <sparseX i="195" alpha="-863.42489908325774" sparseCutoff="1.0000000000000000"/>
      <sparseX i="196" alpha="4.6618909025876762" sparseCutoff="1.0000000000000000"/>
      <sparseX i="197" alpha="55.672586802289523" sparseCutoff="1.0000000000000000"/>
      <sparseX i="198" alpha="-26.447440969786651" sparseCutoff="1.0000000000000000"/>
      <sparseX i="199" alpha="-51.492903403690910" sparseCutoff="1.0000000000000000"/>
      <sparseX i="200" alpha="253.83904068461700" sparseCutoff="1.0000000000000000"/>
      <sparseX i="201" alpha="186.63501061820637" sparseCutoff="1.0000000000000000"/>
      <sparseX i="202" alpha="-218.14510349370443" sparseCutoff="1.0000000000000000"/>
      <sparseX i="203" alpha="-165.03247402298214" sparseCutoff="1.0000000000000000"/>
      <sparseX i="204" alpha="471.65320187402824" sparseCutoff="1.0000000000000000"/>
      <sparseX i="205" alpha="-75.847665178826858" sparseCutoff="1.0000000000000000"/>
      <sparseX i="206" alpha="102.48437571322468" sparseCutoff="1.0000000000000000"/>
      <sparseX i="207" alpha="348.24460883787219" sparseCutoff="1.0000000000000000"/>
      <sparseX i="208" alpha="-24.691979987988237" sparseCutoff="1.0000000000000000"/>
      <sparseX i="209" alpha="116.59648573781267" sparseCutoff="1.0000000000000000"/>
      <sparseX i="210" alpha="191.65510610081867" sparseCutoff="1.0000000000000000"/>
      <sparseX i="211" alpha="-87.355203954020197" sparseCutoff="1.0000000000000000"/>
      <sparseX i="212" alpha="-84.540985822733717" sparseCutoff="1.0000000000000000"/>
      <sparseX i="213" alpha="-53.003457518350551" sparseCutoff="1.0000000000000000"/>
      <sparseX i="214" alpha="25.752071562914551" sparseCutoff="1.0000000000000000"/>
      <sparseX i="215" alpha="-581.54937767911701" sparseCutoff="1.0000000000000000"/>
      <sparseX i="216" alpha="-334.43337127641723" sparseCutoff="1.0000000000000000"/>
      <sparseX i="217" alpha="52.864570576167154" sparseCutoff="1.0000000000000000"/>
      <sparseX i="218" alpha="-26.026297805550833" sparseCutoff="1.0000000000000000"/>
      <sparseX i="219" alpha="499.99545867697572" sparseCutoff="1.0000000000000000"/>
      <sparseX i="220" alpha="-31.333907443396050" sparseCutoff="1.0000000000000000"/>
      <sparseX i="221" alpha="45.008213908601668" sparseCutoff="1.0000000000000000"/>
      <sparseX i="222" alpha="143.21239909946121" sparseCutoff="1.0000000000000000"/>
      <sparseX i="223" alpha="312.72832265902485" sparseCutoff="1.0000000000000000"/>
      <sparseX i="224" alpha="103.60435999908015" sparseCutoff="1.0000000000000000"/>
      <sparseX i="225" alpha="425.46199252850590" sparseCutoff="1.0000000000000000"/>
      <sparseX i="226" alpha="128.93774359709118" sparseCutoff="1.0000000000000000"/>
      <sparseX i="227" alpha="-113.06503315020962" sparseCutoff="1.0000000000000000"/>
      <sparseX i="228" alpha="-185.95343772217365" sparseCutoff="1.0000000000000000"/>
      <sparseX i="229" alpha=".64874971833365980" sparseCutoff="1.0000000000000000"/>
      <sparseX i="230" alpha="-285.93574697112456" sparseCutoff="1.0000000000000000"/>
      <sparseX i="231" alpha="93.255921254016087" sparseCutoff="1.0000000000000000"/>
      <sparseX i="232" alpha="86.378421211617578" sparseCutoff="1.0000000000000000"/>
      <sparseX i="233" alpha="-55.092243882913479" sparseCutoff="1.0000000000000000"/>
      <sparseX i="234" alpha="359.21328657055221" sparseCutoff="1.0000000000000000"/>
      <sparseX i="235" alpha="92.367332933133738" sparseCutoff="1.0000000000000000"/>
      <sparseX i="236" alpha="-179.49226125324020" sparseCutoff="1.0000000000000000"/>
      <sparseX i="237" alpha="-26.120663097463385" sparseCutoff="1.0000000000000000"/>
      <sparseX i="238" alpha="-268.00682853242392" sparseCutoff="1.0000000000000000"/>
      <sparseX i="239" alpha="102.70001045496709" sparseCutoff="1.0000000000000000"/>
      <sparseX i="240" alpha="-328.36007322625227" sparseCutoff="1.0000000000000000"/>
      <sparseX i="241" alpha="923.88334057643635" sparseCutoff="1.0000000000000000"/>
      <sparseX i="242" alpha="-287.38737167303412" sparseCutoff="1.0000000000000000"/>
      <sparseX i="243" alpha="209.86218227353493" sparseCutoff="1.0000000000000000"/>
      <sparseX i="244" alpha="-165.76706872533799" sparseCutoff="1.0000000000000000"/>
      <sparseX i="245" alpha="418.44725141516085" sparseCutoff="1.0000000000000000"/>
      <sparseX i="246" alpha="9.0094615383126566" sparseCutoff="1.0000000000000000"/>
      <sparseX i="247" alpha="103.99796330264435" sparseCutoff="1.0000000000000000"/>
      <sparseX i="248" alpha="232.79106542878904" sparseCutoff="1.0000000000000000"/>
      <sparseX i="249" alpha="216.85737402525098" sparseCutoff="1.0000000000000000"/>
      <sparseX i="250" alpha="42.263006294491859" sparseCutoff="1.0000000000000000"/>
      <sparseX i="251" alpha="186.68209975185590" sparseCutoff="1.0000000000000000"/>
      <sparseX i="252" alpha="308.20031362910913" sparseCutoff="1.0000000000000000"/>
      <sparseX i="253" alpha="-182.62410133851699" sparseCutoff="1.0000000000000000"/>
      <sparseX i="254" alpha="16.409384846909330" sparseCutoff="1.0000000000000000"/>
      <sparseX i="255" alpha="-238.93668681451615" sparseCutoff="1.0000000000000000"/>
      <sparseX i="256" alpha="-42.772395469366074" sparseCutoff="1.0000000000000000"/>
      <sparseX i="257" alpha="581.01900225915517" sparseCutoff="1.0000000000000000"/>
      <sparseX i="258" alpha="306.71870949933196" sparseCutoff="1.0000000000000000"/>
      <sparseX i="259" alpha="54.134478207113091" sparseCutoff="1.0000000000000000"/>
      <sparseX i="260" alpha="517.91545948316661" sparseCutoff="1.0000000000000000"/>
      <sparseX i="261" alpha="1020.1897665562680" sparseCutoff="1.0000000000000000"/>
      <sparseX i="262" alpha="-111.56967322517905" sparseCutoff="1.0000000000000000"/>
      <sparseX i="263" alpha="375.41343136497875" sparseCutoff="1.0000000000000000"/>
      <sparseX i="264" alpha="155.06178375754257" sparseCutoff="1.0000000000000000"/>
      <sparseX i="265" alpha="52.907932743466915" sparseCutoff="1.0000000000000000"/>
      <sparseX i="266" alpha="-11.405357586737653" sparseCutoff="1.0000000000000000"/>
      <sparseX i="267" alpha="-82.896536689189503" sparseCutoff="1.0000000000000000"/>
      <sparseX i="268" alpha="-103.06626584893350" sparseCutoff="1.0000000000000000"/>
      <sparseX i="269" alpha="109.76448637309042" sparseCutoff="1.0000000000000000"/>
      <sparseX i="270" alpha="-269.25932217534353" sparseCutoff="1.0000000000000000"/>
      <sparseX i="271" alpha="298.27816946841915" sparseCutoff="1.0000000000000000"/>
      <sparseX i="272" alpha="675.16476450155403" sparseCutoff="1.0000000000000000"/>
      <sparseX i="273" alpha="222.15929984838402" sparseCutoff="1.0000000000000000"/>
      <sparseX i="274" alpha="78.338483141627449" sparseCutoff="1.0000000000000000"/>
      <sparseX i="275" alpha="-91.588252423701775" sparseCutoff="1.0000000000000000"/>
      <sparseX i="276" alpha="5.9440241943714840" sparseCutoff="1.0000000000000000"/>
      <sparseX i="277" alpha="-408.57168249153943" sparseCutoff="1.0000000000000000"/>
      <sparseX i="278" alpha="62.837266779135398" sparseCutoff="1.0000000000000000"/>
      <sparseX i="279" alpha="-406.57357695903534" sparseCutoff="1.0000000000000000"/>
      <sparseX i="280" alpha="126.68462210275342" sparseCutoff="1.0000000000000000"/>
      <sparseX i="281" alpha="-259.64482727740477" sparseCutoff="1.0000000000000000"/>
      <sparseX i="282" alpha="173.81986218056826" sparseCutoff="1.0000000000000000"/>
      <sparseX i="283" alpha="397.82904722143593" sparseCutoff="1.0000000000000000"/>
      <sparseX i="284" alpha="-123.48572779211892" sparseCutoff="1.0000000000000000"/>
      <sparseX i="285" alpha="-147.94818834504645" sparseCutoff="1.0000000000000000"/>
      <sparseX i="286" alpha="-134.36369468667624" sparseCutoff="1.0000000000000000"/>
      <sparseX i="287" alpha="-40.705883126456861" sparseCutoff="1.0000000000000000"/>
      <sparseX i="288" alpha="-81.947137723491636" sparseCutoff="1.0000000000000000"/>
      <sparseX i="289" alpha="-294.12838919715580" sparseCutoff="1.0000000000000000"/>
      <sparseX i="290" alpha="-318.51762445208760" sparseCutoff="1.0000000000000000"/>
      <sparseX i="291" alpha="185.03408335342937" sparseCutoff="1.0000000000000000"/>
      <sparseX i="292" alpha="-576.22622829472346" sparseCutoff="1.0000000000000000"/>
      <sparseX i="293" alpha="-229.54513454443403" sparseCutoff="1.0000000000000000"/>
      <sparseX i="294" alpha="-151.04944565372685" sparseCutoff="1.0000000000000000"/>
      <sparseX i="295" alpha="141.92344946347799" sparseCutoff="1.0000000000000000"/>
      <sparseX i="296" alpha="293.83048723129593" sparseCutoff="1.0000000000000000"/>
      <sparseX i="297" alpha="-240.06158401825590" sparseCutoff="1.0000000000000000"/>
      <sparseX i="298" alpha="-66.414511539319975" sparseCutoff="1.0000000000000000"/>
      <sparseX i="299" alpha="-77.847644439278838" sparseCutoff="1.0000000000000000"/>
      <sparseX i="300" alpha="102.96473855433632" sparseCutoff="1.0000000000000000"/>
      <sparseX i="301" alpha="-289.03446024057308" sparseCutoff="1.0000000000000000"/>
      <sparseX i="302" alpha="82.927435344092302" sparseCutoff="1.0000000000000000"/>
      <sparseX i="303" alpha="595.95441866308920" sparseCutoff="1.0000000000000000"/>
      <sparseX i="304" alpha="351.80039704780552" sparseCutoff="1.0000000000000000"/>
      <sparseX i="305" alpha="545.85419408535836" sparseCutoff="1.0000000000000000"/>
      <sparseX i="306" alpha="-80.657204334950976" sparseCutoff="1.0000000000000000"/>
      <sparseX i="307" alpha="-412.39090851237773" sparseCutoff="1.0000000000000000"/>
      <sparseX i="308" alpha="439.84508765777122" sparseCutoff="1.0000000000000000"/>
      <sparseX i="309" alpha="152.49802241894392" sparseCutoff="1.0000000000000000"/>
      <sparseX i="310" alpha="-121.05629108130556" sparseCutoff="1.0000000000000000"/>
      <sparseX i="311" alpha="749.29341417269791" sparseCutoff="1.0000000000000000"/>
      <sparseX i="312" alpha="-88.539180013841559" sparseCutoff="1.0000000000000000"/>
      <sparseX i="313" alpha="2.7147888376475953" sparseCutoff="1.0000000000000000"/>
      <sparseX i="314" alpha="-194.80637719711297" sparseCutoff="1.0000000000000000"/>
      <sparseX i="315" alpha="263.57003431067301" sparseCutoff="1.0000000000000000"/>
      <sparseX i="316" alpha="282.81211077904584" sparseCutoff="1.0000000000000000"/>
      <sparseX i="317" alpha="348.88767997100695" sparseCutoff="1.0000000000000000"/>
      <sparseX i="318" alpha="-255.46470076530628" sparseCutoff="1.0000000000000000"/>
      <sparseX i="319" alpha="-132.70536811919061" sparseCutoff="1.0000000000000000"/>
      <sparseX i="320" alpha="94.908973618190828" sparseCutoff="1.0000000000000000"/>
      <sparseX i="321" alpha="-47.885305410447231" sparseCutoff="1.0000000000000000"/>
      <sparseX i="322" alpha="-673.92554833571307" sparseCutoff="1.0000000000000000"/>
      <sparseX i="323" alpha="633.19124320804508" sparseCutoff="1.0000000000000000"/>
      <sparseX i="324" alpha="-207.57578280522168" sparseCutoff="1.0000000000000000"/>
      <sparseX i="325" alpha="-291.72391668548204" sparseCutoff="1.0000000000000000"/>
      <sparseX i="326" alpha="-97.145665924127471" sparseCutoff="1.0000000000000000"/>
      <sparseX i="327" alpha="-73.983543507080157" sparseCutoff="1.0000000000000000"/>
      <sparseX i="328" alpha="-123.25447689607107" sparseCutoff="1.0000000000000000"/>
      <sparseX i="329" alpha="-220.25224889700795" sparseCutoff="1.0000000000000000"/>
      <sparseX i="330" alpha="509.30030084425704" sparseCutoff="1.0000000000000000"/>
      <sparseX i="331" alpha="-255.37692079830697" sparseCutoff="1.0000000000000000"/>
      <sparseX i="332" alpha="-271.96536902187893" sparseCutoff="1.0000000000000000"/>
      <sparseX i="333" alpha="39.424221764129399" sparseCutoff="1.0000000000000000"/>
      <sparseX i="334" alpha="256.48383790354279" sparseCutoff="1.0000000000000000"/>
      <sparseX i="335" alpha="-65.873296069756805" sparseCutoff="1.0000000000000000"/>
      <sparseX i="336" alpha="-283.06726333260349" sparseCutoff="1.0000000000000000"/>
      <sparseX i="337" alpha="-229.23478691327978" sparseCutoff="1.0000000000000000"/>
      <sparseX i="338" alpha="-180.55372316538129" sparseCutoff="1.0000000000000000"/>
      <sparseX i="339" alpha="-179.91194469788596" sparseCutoff="1.0000000000000000"/>
      <sparseX i="340" alpha="-460.81859217977080" sparseCutoff="1.0000000000000000"/>
      <sparseX i="341" alpha="-162.16319465444036" sparseCutoff="1.0000000000000000"/>
      <sparseX i="342" alpha="-502.11646028863828" sparseCutoff="1.0000000000000000"/>
      <sparseX i="343" alpha="320.28795810407354" sparseCutoff="1.0000000000000000"/>
      <sparseX i="344" alpha="32.830194827524501" sparseCutoff="1.0000000000000000"/>
      <sparseX i="345" alpha="158.59092688868773" sparseCutoff="1.0000000000000000"/>
      <sparseX i="346" alpha="24.517795381308606" sparseCutoff="1.0000000000000000"/>
      <sparseX i="347" alpha="159.83513989710514" sparseCutoff="1.0000000000000000"/>
      <sparseX i="348" alpha="-178.03995113282994" sparseCutoff="1.0000000000000000"/>
      <sparseX i="349" alpha="-24.947091331385987" sparseCutoff="1.0000000000000000"/>
      <sparseX i="350" alpha="-344.78284924665797" sparseCutoff="1.0000000000000000"/>
      <sparseX i="351" alpha="-.96996523245674215" sparseCutoff="1.0000000000000000"/>
      <sparseX i="352" alpha="136.95345912704317" sparseCutoff="1.0000000000000000"/>
      <sparseX i="353" alpha="-186.41129547803769" sparseCutoff="1.0000000000000000"/>
      <sparseX i="354" alpha="-393.94770170681466" sparseCutoff="1.0000000000000000"/>
      <sparseX i="355" alpha="-273.31607778262241" sparseCutoff="1.0000000000000000"/>
      <sparseX i="356" alpha="141.91881664144623" sparseCutoff="1.0000000000000000"/>
      <sparseX i="357" alpha="353.54298881662942" sparseCutoff="1.0000000000000000"/>
      <sparseX i="358" alpha="10.742136990259787" sparseCutoff="1.0000000000000000"/>
      <sparseX i="359" alpha="128.48739781070657" sparseCutoff="1.0000000000000000"/>
      <sparseX i="360" alpha="505.18942391421291" sparseCutoff="1.0000000000000000"/>
      <sparseX i="361" alpha="288.51114255083456" sparseCutoff="1.0000000000000000"/>
      <sparseX i="362" alpha="-226.70553907775775" sparseCutoff="1.0000000000000000"/>
      <sparseX i="363" alpha="-230.79282773850733" sparseCutoff="1.0000000000000000"/>
      <sparseX i="364" alpha="461.12279159372849" sparseCutoff="1.0000000000000000"/>
      <sparseX i="365" alpha="85.450930245395668" sparseCutoff="1.0000000000000000"/>
      <sparseX i="366" alpha="93.944787495846299" sparseCutoff="1.0000000000000000"/>
      <sparseX i="367" alpha="-24.479232992192266" sparseCutoff="1.0000000000000000"/>
      <sparseX i="368" alpha="180.49694496187880" sparseCutoff="1.0000000000000000"/>
      <sparseX i="369" alpha="-301.37315886241748" sparseCutoff="1.0000000000000000"/>
      <sparseX i="370" alpha="798.68684839090076" sparseCutoff="1.0000000000000000"/>
      <sparseX i="371" alpha="-321.59255431189484" sparseCutoff="1.0000000000000000"/>
      <sparseX i="372" alpha="500.41424924097549" sparseCutoff="1.0000000000000000"/>
      <sparseX i="373" alpha="356.64451995826551" sparseCutoff="1.0000000000000000"/>
      <sparseX i="374" alpha="-208.10914226092220" sparseCutoff="1.0000000000000000"/>
      <sparseX i="375" alpha="289.44603674944500" sparseCutoff="1.0000000000000000"/>
      <sparseX i="376" alpha="17.117521647958529" sparseCutoff="1.0000000000000000"/>
      <sparseX i="377" alpha="-388.15189464224454" sparseCutoff="1.0000000000000000"/>
      <sparseX i="378" alpha="294.44020440191872" sparseCutoff="1.0000000000000000"/>
      <sparseX i="379" alpha="-147.56864978281729" sparseCutoff="1.0000000000000000"/>
      <sparseX i="380" alpha="166.64652040185695" sparseCutoff="1.0000000000000000"/>
      <sparseX i="381" alpha="-112.07445627488352" sparseCutoff="1.0000000000000000"/>
      <sparseX i="382" alpha="-78.063170690084632" sparseCutoff="1.0000000000000000"/>
      <sparseX i="383" alpha="-116.03681169604766" sparseCutoff="1.0000000000000000"/>
      <sparseX i="384" alpha="-.81933835484114842E-001" sparseCutoff="1.0000000000000000"/>
      <sparseX i="385" alpha="351.10856161801388" sparseCutoff="1.0000000000000000"/>
      <sparseX i="386" alpha="18.504095414628225" sparseCutoff="1.0000000000000000"/>
      <sparseX i="387" alpha="-12.370349434895386" sparseCutoff="1.0000000000000000"/>
      <sparseX i="388" alpha="402.55859254168473" sparseCutoff="1.0000000000000000"/>
      <sparseX i="389" alpha="-78.391003743679974" sparseCutoff="1.0000000000000000"/>
      <sparseX i="390" alpha="233.14057161605984" sparseCutoff="1.0000000000000000"/>
      <sparseX i="391" alpha="82.197021103264134" sparseCutoff="1.0000000000000000"/>
      <sparseX i="392" alpha="464.31639418715838" sparseCutoff="1.0000000000000000"/>
      <sparseX i="393" alpha="-349.96642977463529" sparseCutoff="1.0000000000000000"/>
      <sparseX i="394" alpha="384.95603467154677" sparseCutoff="1.0000000000000000"/>
      <sparseX i="395" alpha="-127.06178969914552" sparseCutoff="1.0000000000000000"/>
      <sparseX i="396" alpha="264.49558154390570" sparseCutoff="1.0000000000000000"/>
      <sparseX i="397" alpha="-21.227177537093027" sparseCutoff="1.0000000000000000"/>
      <sparseX i="398" alpha="401.72063764879931" sparseCutoff="1.0000000000000000"/>
      <sparseX i="399" alpha="24.825276540032643" sparseCutoff="1.0000000000000000"/>
      <sparseX i="400" alpha="-240.40020925900424" sparseCutoff="1.0000000000000000"/>
      <sparseX i="401" alpha="156.09161419778638" sparseCutoff="1.0000000000000000"/>
      <sparseX i="402" alpha="229.33935428680277" sparseCutoff="1.0000000000000000"/>
      <sparseX i="403" alpha="-128.68235558950582" sparseCutoff="1.0000000000000000"/>
      <sparseX i="404" alpha="641.82205416141744" sparseCutoff="1.0000000000000000"/>
      <sparseX i="405" alpha="-521.25450729834017" sparseCutoff="1.0000000000000000"/>
      <sparseX i="406" alpha="139.47789984849089" sparseCutoff="1.0000000000000000"/>
      <sparseX i="407" alpha="-77.386592466418136" sparseCutoff="1.0000000000000000"/>
      <sparseX i="408" alpha="121.59075218550805" sparseCutoff="1.0000000000000000"/>
      <sparseX i="409" alpha="-54.209090049839183" sparseCutoff="1.0000000000000000"/>
      <sparseX i="410" alpha="-46.127377976130909" sparseCutoff="1.0000000000000000"/>
      <sparseX i="411" alpha="-35.377129557842068" sparseCutoff="1.0000000000000000"/>
      <sparseX i="412" alpha="-26.312546205870376" sparseCutoff="1.0000000000000000"/>
      <sparseX i="413" alpha="-505.38394038328556" sparseCutoff="1.0000000000000000"/>
      <sparseX i="414" alpha="612.11891119388747" sparseCutoff="1.0000000000000000"/>
      <sparseX i="415" alpha="169.23800022806404" sparseCutoff="1.0000000000000000"/>
      <sparseX i="416" alpha="-129.22989326123715" sparseCutoff="1.0000000000000000"/>
      <sparseX i="417" alpha="-117.81403750248076" sparseCutoff="1.0000000000000000"/>
      <sparseX i="418" alpha="346.25893709408956" sparseCutoff="1.0000000000000000"/>
      <sparseX i="419" alpha="-151.78110766566542" sparseCutoff="1.0000000000000000"/>
      <sparseX i="420" alpha="191.98132960423189" sparseCutoff="1.0000000000000000"/>
      <sparseX i="421" alpha="156.71612839201146" sparseCutoff="1.0000000000000000"/>
      <sparseX i="422" alpha="188.01170972906715" sparseCutoff="1.0000000000000000"/>
      <sparseX i="423" alpha="-90.691022817102450" sparseCutoff="1.0000000000000000"/>
      <sparseX i="424" alpha="-332.95503135433461" sparseCutoff="1.0000000000000000"/>
      <sparseX i="425" alpha="-130.43417502975672" sparseCutoff="1.0000000000000000"/>
      <sparseX i="426" alpha="518.73923383623571" sparseCutoff="1.0000000000000000"/>
      <sparseX i="427" alpha="-614.61497312493952" sparseCutoff="1.0000000000000000"/>
      <sparseX i="428" alpha="86.757155191411584" sparseCutoff="1.0000000000000000"/>
      <sparseX i="429" alpha="-80.818602957319868" sparseCutoff="1.0000000000000000"/>
      <sparseX i="430" alpha="261.39935477934642" sparseCutoff="1.0000000000000000"/>
      <sparseX i="431" alpha="173.10154105041775" sparseCutoff="1.0000000000000000"/>
      <sparseX i="432" alpha="236.53110537667848" sparseCutoff="1.0000000000000000"/>
      <sparseX i="433" alpha="-80.448979304616415" sparseCutoff="1.0000000000000000"/>
      <sparseX i="434" alpha="-26.189935085338011" sparseCutoff="1.0000000000000000"/>
      <sparseX i="435" alpha="46.973807139011079" sparseCutoff="1.0000000000000000"/>
      <sparseX i="436" alpha="-56.162405996012602" sparseCutoff="1.0000000000000000"/>
      <sparseX i="437" alpha="147.96788158485836" sparseCutoff="1.0000000000000000"/>
      <sparseX i="438" alpha="-37.967910499885612" sparseCutoff="1.0000000000000000"/>
      <sparseX i="439" alpha="-301.94130108316557" sparseCutoff="1.0000000000000000"/>
      <sparseX i="440" alpha="142.69880642291321" sparseCutoff="1.0000000000000000"/>
      <sparseX i="441" alpha="312.39439101183757" sparseCutoff="1.0000000000000000"/>
      <sparseX i="442" alpha="-268.02394539844653" sparseCutoff="1.0000000000000000"/>
      <sparseX i="443" alpha="-271.32169047964516" sparseCutoff="1.0000000000000000"/>
      <sparseX i="444" alpha="107.69180840946989" sparseCutoff="1.0000000000000000"/>
      <sparseX i="445" alpha="-686.61625568665443" sparseCutoff="1.0000000000000000"/>
      <sparseX i="446" alpha="-98.344580033298598" sparseCutoff="1.0000000000000000"/>
      <sparseX i="447" alpha="106.36145878146267" sparseCutoff="1.0000000000000000"/>
      <sparseX i="448" alpha="234.99586393308911" sparseCutoff="1.0000000000000000"/>
      <sparseX i="449" alpha="-534.30257801533537" sparseCutoff="1.0000000000000000"/>
      <sparseX i="450" alpha="-438.76446835062751" sparseCutoff="1.0000000000000000"/>
      <sparseX i="451" alpha="-72.401769685388530" sparseCutoff="1.0000000000000000"/>
      <sparseX i="452" alpha="-5.9480577364334177" sparseCutoff="1.0000000000000000"/>
      <sparseX i="453" alpha="187.91886546179146" sparseCutoff="1.0000000000000000"/>
      <sparseX i="454" alpha="-825.15281495326019" sparseCutoff="1.0000000000000000"/>
      <sparseX i="455" alpha="225.81978854913180" sparseCutoff="1.0000000000000000"/>
      <sparseX i="456" alpha="316.16429097877648" sparseCutoff="1.0000000000000000"/>
      <sparseX i="457" alpha="-69.360004074479718" sparseCutoff="1.0000000000000000"/>
      <sparseX i="458" alpha="23.740521236795676" sparseCutoff="1.0000000000000000"/>
      <sparseX i="459" alpha="181.88640724355358" sparseCutoff="1.0000000000000000"/>
      <sparseX i="460" alpha="16.448236952525249" sparseCutoff="1.0000000000000000"/>
      <sparseX i="461" alpha="-31.872811699313949" sparseCutoff="1.0000000000000000"/>
      <sparseX i="462" alpha="436.73415595075090" sparseCutoff="1.0000000000000000"/>
      <sparseX i="463" alpha="105.94719748458836" sparseCutoff="1.0000000000000000"/>
      <sparseX i="464" alpha="-208.90151546576382" sparseCutoff="1.0000000000000000"/>
      <sparseX i="465" alpha="389.40335360178017" sparseCutoff="1.0000000000000000"/>
      <sparseX i="466" alpha="-147.01561916454420" sparseCutoff="1.0000000000000000"/>
      <sparseX i="467" alpha="223.72558328753308" sparseCutoff="1.0000000000000000"/>
      <sparseX i="468" alpha="-656.30693810684033" sparseCutoff="1.0000000000000000"/>
      <sparseX i="469" alpha="-84.511449141187356" sparseCutoff="1.0000000000000000"/>
      <sparseX i="470" alpha="-141.29477049847114" sparseCutoff="1.0000000000000000"/>
      <sparseX i="471" alpha="230.09380055534049" sparseCutoff="1.0000000000000000"/>
      <sparseX i="472" alpha="-69.165217034567178" sparseCutoff="1.0000000000000000"/>
      <sparseX i="473" alpha="-95.943145197021479" sparseCutoff="1.0000000000000000"/>
      <sparseX i="474" alpha="84.535301065351234" sparseCutoff="1.0000000000000000"/>
      <sparseX i="475" alpha="-403.88458187464812" sparseCutoff="1.0000000000000000"/>
      <sparseX i="476" alpha="322.71409170064811" sparseCutoff="1.0000000000000000"/>
      <sparseX i="477" alpha="-152.43497831852520" sparseCutoff="1.0000000000000000"/>
      <sparseX i="478" alpha="-95.100861269463280" sparseCutoff="1.0000000000000000"/>
      <sparseX i="479" alpha="-378.69270104119124" sparseCutoff="1.0000000000000000"/>
      <sparseX i="480" alpha="180.35106183433558" sparseCutoff="1.0000000000000000"/>
      <sparseX i="481" alpha="130.10289139103401" sparseCutoff="1.0000000000000000"/>
      <sparseX i="482" alpha="-150.62694285778619" sparseCutoff="1.0000000000000000"/>
      <sparseX i="483" alpha="523.98233631405526" sparseCutoff="1.0000000000000000"/>
      <sparseX i="484" alpha="15.292520718598778" sparseCutoff="1.0000000000000000"/>
      <sparseX i="485" alpha="120.68858900923613" sparseCutoff="1.0000000000000000"/>
      <sparseX i="486" alpha="271.88673895263076" sparseCutoff="1.0000000000000000"/>
      <sparseX i="487" alpha="159.45406587805653" sparseCutoff="1.0000000000000000"/>
      <sparseX i="488" alpha="-154.79331670384505" sparseCutoff="1.0000000000000000"/>
      <sparseX i="489" alpha="-71.914348503191590" sparseCutoff="1.0000000000000000"/>
      <sparseX i="490" alpha="-461.24725955330882" sparseCutoff="1.0000000000000000"/>
      <sparseX i="491" alpha="-369.16856855323186" sparseCutoff="1.0000000000000000"/>
      <sparseX i="492" alpha="-289.78364488596043" sparseCutoff="1.0000000000000000"/>
      <sparseX i="493" alpha="-226.74349439464433" sparseCutoff="1.0000000000000000"/>
      <sparseX i="494" alpha="-335.08211278573435" sparseCutoff="1.0000000000000000"/>
      <sparseX i="495" alpha="-765.41775999216270" sparseCutoff="1.0000000000000000"/>
      <sparseX i="496" alpha="-204.78545724683693" sparseCutoff="1.0000000000000000"/>
      <sparseX i="497" alpha="-253.62415450062062" sparseCutoff="1.0000000000000000"/>
      <sparseX i="498" alpha="195.99097930895257" sparseCutoff="1.0000000000000000"/>
      <sparseX i="499" alpha="-648.04524185897139" sparseCutoff="1.0000000000000000"/>
      <sparseX i="500" alpha="-55.835479527191183" sparseCutoff="1.0000000000000000"/>
      <sparseX i="501" alpha="-19.140295761784323" sparseCutoff="1.0000000000000000"/>
      <sparseX i="502" alpha="242.35319865977385" sparseCutoff="1.0000000000000000"/>
      <sparseX i="503" alpha="-225.29002373989627" sparseCutoff="1.0000000000000000"/>
      <sparseX i="504" alpha="169.43918727920288" sparseCutoff="1.0000000000000000"/>
      <sparseX i="505" alpha="917.94411744443926" sparseCutoff="1.0000000000000000"/>
      <sparseX i="506" alpha="-253.77340180318413" sparseCutoff="1.0000000000000000"/>
      <sparseX i="507" alpha="481.79426198194631" sparseCutoff="1.0000000000000000"/>
      <sparseX i="508" alpha="562.32995444727567" sparseCutoff="1.0000000000000000"/>
      <sparseX i="509" alpha="-29.494967942442383" sparseCutoff="1.0000000000000000"/>
      <sparseX i="510" alpha="700.59238431968822" sparseCutoff="1.0000000000000000"/>
      <sparseX i="511" alpha="-181.47308915079182" sparseCutoff="1.0000000000000000"/>
      <sparseX i="512" alpha="-353.09660694450514" sparseCutoff="1.0000000000000000"/>
      <sparseX i="513" alpha="-20.442404445326783" sparseCutoff="1.0000000000000000"/>
      <sparseX i="514" alpha="-216.87285988033548" sparseCutoff="1.0000000000000000"/>
      <sparseX i="515" alpha="49.141259238851916" sparseCutoff="1.0000000000000000"/>
      <sparseX i="516" alpha="-57.780878443841090" sparseCutoff="1.0000000000000000"/>
      <sparseX i="517" alpha="106.02856580857022" sparseCutoff="1.0000000000000000"/>
      <sparseX i="518" alpha="35.894432076277660" sparseCutoff="1.0000000000000000"/>
      <sparseX i="519" alpha="397.29542293216684" sparseCutoff="1.0000000000000000"/>
      <sparseX i="520" alpha="-214.47152531428540" sparseCutoff="1.0000000000000000"/>
      <sparseX i="521" alpha="98.284724602560331" sparseCutoff="1.0000000000000000"/>
      <sparseX i="522" alpha="30.365590256908110" sparseCutoff="1.0000000000000000"/>
      <sparseX i="523" alpha="122.11629960911323" sparseCutoff="1.0000000000000000"/>
      <sparseX i="524" alpha="-196.60092681105235" sparseCutoff="1.0000000000000000"/>
      <sparseX i="525" alpha="-97.876908416464616" sparseCutoff="1.0000000000000000"/>
      <sparseX i="526" alpha="-94.998076037115368" sparseCutoff="1.0000000000000000"/>
      <sparseX i="527" alpha="82.197868184225825" sparseCutoff="1.0000000000000000"/>
      <sparseX i="528" alpha="382.45619521403898" sparseCutoff="1.0000000000000000"/>
      <sparseX i="529" alpha="378.25433106726649" sparseCutoff="1.0000000000000000"/>
      <sparseX i="530" alpha="-155.94789356225246" sparseCutoff="1.0000000000000000"/>
      <sparseX i="531" alpha="-35.167762436103871" sparseCutoff="1.0000000000000000"/>
      <sparseX i="532" alpha="595.90543430355058" sparseCutoff="1.0000000000000000"/>
      <sparseX i="533" alpha="80.163861818575583" sparseCutoff="1.0000000000000000"/>
      <sparseX i="534" alpha="-244.91072300656796" sparseCutoff="1.0000000000000000"/>
      <sparseX i="535" alpha="35.708973899615977" sparseCutoff="1.0000000000000000"/>
      <sparseX i="536" alpha="-657.81298938548468" sparseCutoff="1.0000000000000000"/>
      <sparseX i="537" alpha="209.48596985699501" sparseCutoff="1.0000000000000000"/>
      <sparseX i="538" alpha="-530.39727192960743" sparseCutoff="1.0000000000000000"/>
      <sparseX i="539" alpha="-836.55314754206927" sparseCutoff="1.0000000000000000"/>
      <sparseX i="540" alpha="163.41183149831059" sparseCutoff="1.0000000000000000"/>
      <sparseX i="541" alpha="-314.60668932724315" sparseCutoff="1.0000000000000000"/>
      <sparseX i="542" alpha="-194.39376668786758" sparseCutoff="1.0000000000000000"/>
      <sparseX i="543" alpha="-432.72168187176101" sparseCutoff="1.0000000000000000"/>
      <sparseX i="544" alpha="-168.71626151087986" sparseCutoff="1.0000000000000000"/>
      <sparseX i="545" alpha="-355.64989245259045" sparseCutoff="1.0000000000000000"/>
      <sparseX i="546" alpha="305.97852998936185" sparseCutoff="1.0000000000000000"/>
      <sparseX i="547" alpha="-362.09533552176174" sparseCutoff="1.0000000000000000"/>
      <sparseX i="548" alpha="-74.916595511767895" sparseCutoff="1.0000000000000000"/>
      <sparseX i="549" alpha="156.35095387010603" sparseCutoff="1.0000000000000000"/>
      <sparseX i="550" alpha="-123.00116275773304" sparseCutoff="1.0000000000000000"/>
      <sparseX i="551" alpha="-521.04121389133957" sparseCutoff="1.0000000000000000"/>
      <sparseX i="552" alpha="-380.33550256279170" sparseCutoff="1.0000000000000000"/>
      <sparseX i="553" alpha="-432.52160714432273" sparseCutoff="1.0000000000000000"/>
      <sparseX i="554" alpha="-1.7145362912040321" sparseCutoff="1.0000000000000000"/>
      <sparseX i="555" alpha="-243.10877268959325" sparseCutoff="1.0000000000000000"/>
      <sparseX i="556" alpha="7.9593355652180664" sparseCutoff="1.0000000000000000"/>
      <sparseX i="557" alpha="-67.139217430209229" sparseCutoff="1.0000000000000000"/>
      <sparseX i="558" alpha="-32.304252226480919" sparseCutoff="1.0000000000000000"/>
      <sparseX i="559" alpha="-673.32115297303108" sparseCutoff="1.0000000000000000"/>
      <sparseX i="560" alpha="59.187524852952748" sparseCutoff="1.0000000000000000"/>
      <sparseX i="561" alpha="495.72354384979428" sparseCutoff="1.0000000000000000"/>
      <sparseX i="562" alpha="538.61167683122653" sparseCutoff="1.0000000000000000"/>
      <sparseX i="563" alpha="103.73977033414269" sparseCutoff="1.0000000000000000"/>
      <sparseX i="564" alpha="-682.65939157781645" sparseCutoff="1.0000000000000000"/>
      <sparseX i="565" alpha="-299.33132514457213" sparseCutoff="1.0000000000000000"/>
      <sparseX i="566" alpha="487.70225095713118" sparseCutoff="1.0000000000000000"/>
      <sparseX i="567" alpha="141.51349581767101" sparseCutoff="1.0000000000000000"/>
      <sparseX i="568" alpha="611.70518059550579" sparseCutoff="1.0000000000000000"/>
      <sparseX i="569" alpha="-203.00056169401745" sparseCutoff="1.0000000000000000"/>
      <sparseX i="570" alpha="277.30231448574352" sparseCutoff="1.0000000000000000"/>
      <sparseX i="571" alpha="-82.939874599986638" sparseCutoff="1.0000000000000000"/>
      <sparseX i="572" alpha="53.392520083957031" sparseCutoff="1.0000000000000000"/>
      <sparseX i="573" alpha="-131.70020234346302" sparseCutoff="1.0000000000000000"/>
      <sparseX i="574" alpha="38.367543176451022" sparseCutoff="1.0000000000000000"/>
      <sparseX i="575" alpha="432.51065791562462" sparseCutoff="1.0000000000000000"/>
      <sparseX i="576" alpha="-1188.4339261286902" sparseCutoff="1.0000000000000000"/>
      <sparseX i="577" alpha="-196.20901110639758" sparseCutoff="1.0000000000000000"/>
      <sparseX i="578" alpha="-152.90826700157319" sparseCutoff="1.0000000000000000"/>
      <sparseX i="579" alpha="423.52448947535976" sparseCutoff="1.0000000000000000"/>
      <sparseX i="580" alpha="-520.59645703361741" sparseCutoff="1.0000000000000000"/>
      <sparseX i="581" alpha="165.62465776106492" sparseCutoff="1.0000000000000000"/>
      <sparseX i="582" alpha="-24.946680852425732" sparseCutoff="1.0000000000000000"/>
      <sparseX i="583" alpha="-157.53334976135949" sparseCutoff="1.0000000000000000"/>
      <sparseX i="584" alpha="-92.292850547185253" sparseCutoff="1.0000000000000000"/>
      <sparseX i="585" alpha="-42.274465986297209" sparseCutoff="1.0000000000000000"/>
      <sparseX i="586" alpha="290.00939877325834" sparseCutoff="1.0000000000000000"/>
      <sparseX i="587" alpha="-289.15573224637626" sparseCutoff="1.0000000000000000"/>
      <sparseX i="588" alpha="-719.16561373434934" sparseCutoff="1.0000000000000000"/>
      <sparseX i="589" alpha="105.57448954349198" sparseCutoff="1.0000000000000000"/>
      <sparseX i="590" alpha="688.88364051776693" sparseCutoff="1.0000000000000000"/>
      <sparseX i="591" alpha="330.42350277294389" sparseCutoff="1.0000000000000000"/>
      <sparseX i="592" alpha="-418.20629108734079" sparseCutoff="1.0000000000000000"/>
      <sparseX i="593" alpha="-194.42388267058405" sparseCutoff="1.0000000000000000"/>
      <sparseX i="594" alpha="-238.48832501252573" sparseCutoff="1.0000000000000000"/>
      <sparseX i="595" alpha="-380.45711707026464" sparseCutoff="1.0000000000000000"/>
      <sparseX i="596" alpha="-255.33836239026951" sparseCutoff="1.0000000000000000"/>
      <sparseX i="597" alpha="309.42496694929480" sparseCutoff="1.0000000000000000"/>
      <sparseX i="598" alpha="-640.15947657281174" sparseCutoff="1.0000000000000000"/>
      <sparseX i="599" alpha="-468.88866322136204" sparseCutoff="1.0000000000000000"/>
      <sparseX i="600" alpha="-125.90921215971913" sparseCutoff="1.0000000000000000"/>
      <sparseX i="601" alpha="-528.60909829176410" sparseCutoff="1.0000000000000000"/>
      <sparseX i="602" alpha="50.250618683878386" sparseCutoff="1.0000000000000000"/>
      <sparseX i="603" alpha="-394.84433378888099" sparseCutoff="1.0000000000000000"/>
      <sparseX i="604" alpha="-614.53447411427749" sparseCutoff="1.0000000000000000"/>
      <sparseX i="605" alpha="27.057708679831197" sparseCutoff="1.0000000000000000"/>
      <sparseX i="606" alpha="2.7174572592975124" sparseCutoff="1.0000000000000000"/>
      <sparseX i="607" alpha="-36.876509757941875" sparseCutoff="1.0000000000000000"/>
      <sparseX i="608" alpha="608.64548420104177" sparseCutoff="1.0000000000000000"/>
      <sparseX i="609" alpha="-480.42292179076713" sparseCutoff="1.0000000000000000"/>
      <sparseX i="610" alpha="-334.31653703481771" sparseCutoff="1.0000000000000000"/>
      <sparseX i="611" alpha="151.79976506935540" sparseCutoff="1.0000000000000000"/>
      <sparseX i="612" alpha="447.62270606236348" sparseCutoff="1.0000000000000000"/>
      <sparseX i="613" alpha="647.11818603915481" sparseCutoff="1.0000000000000000"/>
      <sparseX i="614" alpha="783.54968589052805" sparseCutoff="1.0000000000000000"/>
      <sparseX i="615" alpha="-214.23135261610469" sparseCutoff="1.0000000000000000"/>
      <sparseX i="616" alpha="115.02186393931925" sparseCutoff="1.0000000000000000"/>
      <sparseX i="617" alpha="227.33891855347721" sparseCutoff="1.0000000000000000"/>
      <sparseX i="618" alpha="83.872689747293890" sparseCutoff="1.0000000000000000"/>
      <sparseX i="619" alpha="-18.787034373399329" sparseCutoff="1.0000000000000000"/>
      <sparseX i="620" alpha="72.269632418818333" sparseCutoff="1.0000000000000000"/>
      <sparseX i="621" alpha="-7.1707159282924842" sparseCutoff="1.0000000000000000"/>
      <sparseX i="622" alpha="96.787077135467570" sparseCutoff="1.0000000000000000"/>
      <sparseX i="623" alpha="395.66388388550928" sparseCutoff="1.0000000000000000"/>
      <sparseX i="624" alpha="12.927892793523286" sparseCutoff="1.0000000000000000"/>
      <sparseX i="625" alpha="96.761110601884681" sparseCutoff="1.0000000000000000"/>
      <sparseX i="626" alpha="-623.18048911316293" sparseCutoff="1.0000000000000000"/>
      <sparseX i="627" alpha="-285.43031278237197" sparseCutoff="1.0000000000000000"/>
      <sparseX i="628" alpha="-381.89924323247755" sparseCutoff="1.0000000000000000"/>
      <sparseX i="629" alpha="-229.20199950353194" sparseCutoff="1.0000000000000000"/>
      <sparseX i="630" alpha="73.882976767435935" sparseCutoff="1.0000000000000000"/>
      <sparseX i="631" alpha="-229.84881634162892" sparseCutoff="1.0000000000000000"/>
      <sparseX i="632" alpha="51.353459081433890" sparseCutoff="1.0000000000000000"/>
      <sparseX i="633" alpha="18.533318914941276" sparseCutoff="1.0000000000000000"/>
      <sparseX i="634" alpha="54.622848862866469" sparseCutoff="1.0000000000000000"/>
      <sparseX i="635" alpha="68.441075454393612" sparseCutoff="1.0000000000000000"/>
      <sparseX i="636" alpha="-502.30779662421622" sparseCutoff="1.0000000000000000"/>
      <sparseX i="637" alpha="-100.63794129765881" sparseCutoff="1.0000000000000000"/>
      <sparseX i="638" alpha="-236.73694900979697" sparseCutoff="1.0000000000000000"/>
      <sparseX i="639" alpha="-351.15911971504408" sparseCutoff="1.0000000000000000"/>
      <sparseX i="640" alpha="-676.47538302578164" sparseCutoff="1.0000000000000000"/>
      <sparseX i="641" alpha="189.61019346522443" sparseCutoff="1.0000000000000000"/>
      <sparseX i="642" alpha="-65.965579071739441" sparseCutoff="1.0000000000000000"/>
      <sparseX i="643" alpha="1.6031286185217353" sparseCutoff="1.0000000000000000"/>
      <sparseX i="644" alpha="-81.941901936310984" sparseCutoff="1.0000000000000000"/>
      <sparseX i="645" alpha="188.92119360319359" sparseCutoff="1.0000000000000000"/>
      <sparseX i="646" alpha="654.57612521483475" sparseCutoff="1.0000000000000000"/>
      <sparseX i="647" alpha="-516.60378308889381" sparseCutoff="1.0000000000000000"/>
      <sparseX i="648" alpha="481.98723405762911" sparseCutoff="1.0000000000000000"/>
      <sparseX i="649" alpha="-61.186045537919227" sparseCutoff="1.0000000000000000"/>
      <sparseX i="650" alpha="-30.985184792515366" sparseCutoff="1.0000000000000000"/>
      <sparseX i="651" alpha="-204.48364503356947" sparseCutoff="1.0000000000000000"/>
      <sparseX i="652" alpha="194.48432434658235" sparseCutoff="1.0000000000000000"/>
      <sparseX i="653" alpha="522.77263178116584" sparseCutoff="1.0000000000000000"/>
      <sparseX i="654" alpha="510.29521401519071" sparseCutoff="1.0000000000000000"/>
      <sparseX i="655" alpha="256.41590429639007" sparseCutoff="1.0000000000000000"/>
      <sparseX i="656" alpha="-231.04207255270148" sparseCutoff="1.0000000000000000"/>
      <sparseX i="657" alpha="21.850219497474637" sparseCutoff="1.0000000000000000"/>
      <sparseX i="658" alpha="-338.27837306745988" sparseCutoff="1.0000000000000000"/>
      <sparseX i="659" alpha="-33.939979462856229" sparseCutoff="1.0000000000000000"/>
      <sparseX i="660" alpha="78.919485606068790" sparseCutoff="1.0000000000000000"/>
      <sparseX i="661" alpha="-403.10435959712703" sparseCutoff="1.0000000000000000"/>
      <sparseX i="662" alpha="557.51492502223869" sparseCutoff="1.0000000000000000"/>
      <sparseX i="663" alpha="181.65994758284123" sparseCutoff="1.0000000000000000"/>
      <sparseX i="664" alpha="212.28495167517215" sparseCutoff="1.0000000000000000"/>
      <sparseX i="665" alpha="274.83019646010314" sparseCutoff="1.0000000000000000"/>
      <sparseX i="666" alpha="-401.98239867719008" sparseCutoff="1.0000000000000000"/>
      <sparseX i="667" alpha="858.87282097244827" sparseCutoff="1.0000000000000000"/>
      <sparseX i="668" alpha="-627.99949729353750" sparseCutoff="1.0000000000000000"/>
      <sparseX i="669" alpha="-885.70706596494097" sparseCutoff="1.0000000000000000"/>
      <sparseX i="670" alpha="-130.36460251195814" sparseCutoff="1.0000000000000000"/>
      <sparseX i="671" alpha="-33.887068334970692" sparseCutoff="1.0000000000000000"/>
      <sparseX i="672" alpha="483.98003557550356" sparseCutoff="1.0000000000000000"/>
      <sparseX i="673" alpha="-223.97121164996881" sparseCutoff="1.0000000000000000"/>
      <sparseX i="674" alpha="-268.14149447985227" sparseCutoff="1.0000000000000000"/>
      <sparseX i="675" alpha="21.372565605055406" sparseCutoff="1.0000000000000000"/>
      <sparseX i="676" alpha="-316.26986689189403" sparseCutoff="1.0000000000000000"/>
      <sparseX i="677" alpha="-46.722687471176485" sparseCutoff="1.0000000000000000"/>
      <sparseX i="678" alpha="-370.81436161698889" sparseCutoff="1.0000000000000000"/>
      <sparseX i="679" alpha="1228.0267461922228" sparseCutoff="1.0000000000000000"/>
      <sparseX i="680" alpha="227.51616092003809" sparseCutoff="1.0000000000000000"/>
      <sparseX i="681" alpha="511.06560913524544" sparseCutoff="1.0000000000000000"/>
      <sparseX i="682" alpha="776.38439705629776" sparseCutoff="1.0000000000000000"/>
      <sparseX i="683" alpha="13.482994299344529" sparseCutoff="1.0000000000000000"/>
      <sparseX i="684" alpha="318.97811183735570" sparseCutoff="1.0000000000000000"/>
      <sparseX i="685" alpha="167.47059827209065" sparseCutoff="1.0000000000000000"/>
      <sparseX i="686" alpha="-210.82424011739602" sparseCutoff="1.0000000000000000"/>
      <sparseX i="687" alpha="1103.1951620712407" sparseCutoff="1.0000000000000000"/>
      <sparseX i="688" alpha="222.73405202284962" sparseCutoff="1.0000000000000000"/>
      <sparseX i="689" alpha="-57.994068467071862" sparseCutoff="1.0000000000000000"/>
      <sparseX i="690" alpha="-32.975980219609752" sparseCutoff="1.0000000000000000"/>
      <sparseX i="691" alpha="344.64542859216994" sparseCutoff="1.0000000000000000"/>
      <sparseX i="692" alpha="-236.53875437097878" sparseCutoff="1.0000000000000000"/>
      <sparseX i="693" alpha="-351.73622270936033" sparseCutoff="1.0000000000000000"/>
      <sparseX i="694" alpha="-628.01484147461599" sparseCutoff="1.0000000000000000"/>
      <sparseX i="695" alpha="-1.2448972802298734" sparseCutoff="1.0000000000000000"/>
      <sparseX i="696" alpha="27.724878663209125" sparseCutoff="1.0000000000000000"/>
      <sparseX i="697" alpha="818.97993301793633" sparseCutoff="1.0000000000000000"/>
      <sparseX i="698" alpha="172.78059245745123" sparseCutoff="1.0000000000000000"/>
      <sparseX i="699" alpha="108.32812469205732" sparseCutoff="1.0000000000000000"/>
      <sparseX i="700" alpha="-62.880963217142963" sparseCutoff="1.0000000000000000"/>
      <sparseX i="701" alpha="212.70961760521706" sparseCutoff="1.0000000000000000"/>
      <sparseX i="702" alpha="-194.37623620749341" sparseCutoff="1.0000000000000000"/>
      <sparseX i="703" alpha="256.98989031626149" sparseCutoff="1.0000000000000000"/>
      <sparseX i="704" alpha="524.50425210279730" sparseCutoff="1.0000000000000000"/>
      <sparseX i="705" alpha="56.074144476452780" sparseCutoff="1.0000000000000000"/>
      <sparseX i="706" alpha="-191.51200086020654" sparseCutoff="1.0000000000000000"/>
      <sparseX i="707" alpha="-55.050273008875998" sparseCutoff="1.0000000000000000"/>
      <sparseX i="708" alpha="26.499613704027393" sparseCutoff="1.0000000000000000"/>
      <sparseX i="709" alpha="-92.526307712161554" sparseCutoff="1.0000000000000000"/>
      <sparseX i="710" alpha="-205.18930039446121" sparseCutoff="1.0000000000000000"/>
      <sparseX i="711" alpha="6.8980475567979171" sparseCutoff="1.0000000000000000"/>
      <sparseX i="712" alpha="-6.1935562066931045" sparseCutoff="1.0000000000000000"/>
      <sparseX i="713" alpha="399.03723338157596" sparseCutoff="1.0000000000000000"/>
      <sparseX i="714" alpha="-226.45415584374385" sparseCutoff="1.0000000000000000"/>
      <sparseX i="715" alpha="217.96247505195132" sparseCutoff="1.0000000000000000"/>
      <sparseX i="716" alpha="-10.530755671911365" sparseCutoff="1.0000000000000000"/>
      <sparseX i="717" alpha="-314.31354020463516" sparseCutoff="1.0000000000000000"/>
      <sparseX i="718" alpha="94.140795318278151" sparseCutoff="1.0000000000000000"/>
      <sparseX i="719" alpha="24.468262739605830" sparseCutoff="1.0000000000000000"/>
      <sparseX i="720" alpha="49.782194142872982" sparseCutoff="1.0000000000000000"/>
      <sparseX i="721" alpha="-28.301676954662497" sparseCutoff="1.0000000000000000"/>
      <sparseX i="722" alpha="-101.63656300737520" sparseCutoff="1.0000000000000000"/>
      <sparseX i="723" alpha="-248.23063646270961" sparseCutoff="1.0000000000000000"/>
      <sparseX i="724" alpha="-1394.6112312892631" sparseCutoff="1.0000000000000000"/>
      <sparseX i="725" alpha="-582.42759375867388" sparseCutoff="1.0000000000000000"/>
      <sparseX i="726" alpha="-200.59377533946628" sparseCutoff="1.0000000000000000"/>
      <sparseX i="727" alpha="-389.04372380199970" sparseCutoff="1.0000000000000000"/>
      <sparseX i="728" alpha="-71.641452552734819" sparseCutoff="1.0000000000000000"/>
      <sparseX i="729" alpha="354.12219547138005" sparseCutoff="1.0000000000000000"/>
      <sparseX i="730" alpha="238.55753483759008" sparseCutoff="1.0000000000000000"/>
      <sparseX i="731" alpha="192.04060662772525" sparseCutoff="1.0000000000000000"/>
      <sparseX i="732" alpha="544.45936625333161" sparseCutoff="1.0000000000000000"/>
      <sparseX i="733" alpha="339.66382514313398" sparseCutoff="1.0000000000000000"/>
      <sparseX i="734" alpha="3.5291640536040507" sparseCutoff="1.0000000000000000"/>
      <sparseX i="735" alpha="626.47947049333777" sparseCutoff="1.0000000000000000"/>
      <sparseX i="736" alpha="-324.83958223737409" sparseCutoff="1.0000000000000000"/>
      <sparseX i="737" alpha="-237.20709505077076" sparseCutoff="1.0000000000000000"/>
      <sparseX i="738" alpha="-465.13930266522021" sparseCutoff="1.0000000000000000"/>
      <sparseX i="739" alpha="-95.425360837175418" sparseCutoff="1.0000000000000000"/>
      <sparseX i="740" alpha="125.52638343002621" sparseCutoff="1.0000000000000000"/>
      <sparseX i="741" alpha="52.889491268364225" sparseCutoff="1.0000000000000000"/>
      <sparseX i="742" alpha="611.43013030990562" sparseCutoff="1.0000000000000000"/>
      <sparseX i="743" alpha="-582.36746865400562" sparseCutoff="1.0000000000000000"/>
      <sparseX i="744" alpha="-193.17255879246358" sparseCutoff="1.0000000000000000"/>
      <sparseX i="745" alpha="290.08884782077195" sparseCutoff="1.0000000000000000"/>
      <sparseX i="746" alpha="-760.02222579690931" sparseCutoff="1.0000000000000000"/>
      <sparseX i="747" alpha="-163.40916606147476" sparseCutoff="1.0000000000000000"/>
      <sparseX i="748" alpha="-663.56879833101414" sparseCutoff="1.0000000000000000"/>
      <sparseX i="749" alpha="29.615411334988629" sparseCutoff="1.0000000000000000"/>
      <sparseX i="750" alpha="-259.62947707314407" sparseCutoff="1.0000000000000000"/>
      <sparseX i="751" alpha="464.28029402999124" sparseCutoff="1.0000000000000000"/>
      <sparseX i="752" alpha="-201.18111958828496" sparseCutoff="1.0000000000000000"/>
      <sparseX i="753" alpha="26.503664749263720" sparseCutoff="1.0000000000000000"/>
      <sparseX i="754" alpha="392.99181246630189" sparseCutoff="1.0000000000000000"/>
      <sparseX i="755" alpha="-129.21732136903123" sparseCutoff="1.0000000000000000"/>
      <sparseX i="756" alpha="67.602416442955686" sparseCutoff="1.0000000000000000"/>
      <sparseX i="757" alpha="62.492322553928382" sparseCutoff="1.0000000000000000"/>
      <sparseX i="758" alpha="170.68757205189922" sparseCutoff="1.0000000000000000"/>
      <sparseX i="759" alpha="122.30239844159424" sparseCutoff="1.0000000000000000"/>
      <sparseX i="760" alpha="-190.81479259639789" sparseCutoff="1.0000000000000000"/>
      <sparseX i="761" alpha="501.20269695082254" sparseCutoff="1.0000000000000000"/>
      <sparseX i="762" alpha="832.58888606257835" sparseCutoff="1.0000000000000000"/>
      <sparseX i="763" alpha="33.677224470527115" sparseCutoff="1.0000000000000000"/>
      <sparseX i="764" alpha="-77.769342008926827" sparseCutoff="1.0000000000000000"/>
      <sparseX i="765" alpha="-122.03062124690165" sparseCutoff="1.0000000000000000"/>
      <sparseX i="766" alpha="53.598051155901409" sparseCutoff="1.0000000000000000"/>
      <sparseX i="767" alpha="593.15769999219549" sparseCutoff="1.0000000000000000"/>
      <sparseX i="768" alpha="-444.39939663376487" sparseCutoff="1.0000000000000000"/>
      <sparseX i="769" alpha="192.32843776339507" sparseCutoff="1.0000000000000000"/>
      <sparseX i="770" alpha="-205.67053199205034" sparseCutoff="1.0000000000000000"/>
      <sparseX i="771" alpha="392.73135606261718" sparseCutoff="1.0000000000000000"/>
      <sparseX i="772" alpha="-803.93255212958888" sparseCutoff="1.0000000000000000"/>
      <sparseX i="773" alpha="-11.627456147339313" sparseCutoff="1.0000000000000000"/>
      <sparseX i="774" alpha="-218.13606889206997" sparseCutoff="1.0000000000000000"/>
      <sparseX i="775" alpha="-380.09982651686590" sparseCutoff="1.0000000000000000"/>
      <sparseX i="776" alpha="-120.01349611637657" sparseCutoff="1.0000000000000000"/>
      <sparseX i="777" alpha="691.40974317346297" sparseCutoff="1.0000000000000000"/>
      <sparseX i="778" alpha="-466.76157079392777" sparseCutoff="1.0000000000000000"/>
      <sparseX i="779" alpha="-130.77890196145762" sparseCutoff="1.0000000000000000"/>
      <sparseX i="780" alpha="193.30815733208229" sparseCutoff="1.0000000000000000"/>
      <sparseX i="781" alpha="-496.45213900986965" sparseCutoff="1.0000000000000000"/>
      <sparseX i="782" alpha="36.604152750308167" sparseCutoff="1.0000000000000000"/>
      <sparseX i="783" alpha="-24.511218011109822" sparseCutoff="1.0000000000000000"/>
      <sparseX i="784" alpha="479.33005432447635" sparseCutoff="1.0000000000000000"/>
      <sparseX i="785" alpha="-47.903194487049703" sparseCutoff="1.0000000000000000"/>
      <sparseX i="786" alpha="-89.165611965981412" sparseCutoff="1.0000000000000000"/>
      <sparseX i="787" alpha="-145.76994556967185" sparseCutoff="1.0000000000000000"/>
      <sparseX i="788" alpha="706.79503561542651" sparseCutoff="1.0000000000000000"/>
      <sparseX i="789" alpha="-278.93131526317597" sparseCutoff="1.0000000000000000"/>
      <sparseX i="790" alpha="-143.92162061891622" sparseCutoff="1.0000000000000000"/>
      <sparseX i="791" alpha="300.25276496071803" sparseCutoff="1.0000000000000000"/>
      <sparseX i="792" alpha="320.30908105334686" sparseCutoff="1.0000000000000000"/>
      <sparseX i="793" alpha="182.39717522580929" sparseCutoff="1.0000000000000000"/>
      <sparseX i="794" alpha="241.71301838699253" sparseCutoff="1.0000000000000000"/>
      <sparseX i="795" alpha="-9.0211634210321883" sparseCutoff="1.0000000000000000"/>
      <sparseX i="796" alpha="-266.86869028955329" sparseCutoff="1.0000000000000000"/>
      <sparseX i="797" alpha="-24.364137233857253" sparseCutoff="1.0000000000000000"/>
      <sparseX i="798" alpha="-24.650893146838619" sparseCutoff="1.0000000000000000"/>
      <sparseX i="799" alpha="449.29119993841857" sparseCutoff="1.0000000000000000"/>
      <sparseX i="800" alpha="-358.13789704646143" sparseCutoff="1.0000000000000000"/>
      <sparseX i="801" alpha="371.54302083302622" sparseCutoff="1.0000000000000000"/>
      <sparseX i="802" alpha="-574.38740602285429" sparseCutoff="1.0000000000000000"/>
      <sparseX i="803" alpha="-364.53656761676041" sparseCutoff="1.0000000000000000"/>
      <sparseX i="804" alpha="-348.23936897190549" sparseCutoff="1.0000000000000000"/>
      <sparseX i="805" alpha="174.18953072192170" sparseCutoff="1.0000000000000000"/>
      <sparseX i="806" alpha="-252.95467080123032" sparseCutoff="1.0000000000000000"/>
      <sparseX i="807" alpha="182.75510343339582" sparseCutoff="1.0000000000000000"/>
      <sparseX i="808" alpha="861.73257336324423" sparseCutoff="1.0000000000000000"/>
      <sparseX i="809" alpha="-235.77728025705605" sparseCutoff="1.0000000000000000"/>
      <sparseX i="810" alpha="590.36219193674219" sparseCutoff="1.0000000000000000"/>
      <sparseX i="811" alpha="-22.959499338636206" sparseCutoff="1.0000000000000000"/>
      <sparseX i="812" alpha="23.065910353513509" sparseCutoff="1.0000000000000000"/>
      <sparseX i="813" alpha="-230.44284705879656" sparseCutoff="1.0000000000000000"/>
      <sparseX i="814" alpha="-148.93202549776618" sparseCutoff="1.0000000000000000"/>
      <sparseX i="815" alpha="-302.58381851185709" sparseCutoff="1.0000000000000000"/>
      <sparseX i="816" alpha="30.695917973959027" sparseCutoff="1.0000000000000000"/>
      <sparseX i="817" alpha="-46.653114108119198" sparseCutoff="1.0000000000000000"/>
      <sparseX i="818" alpha="-464.07912117654075" sparseCutoff="1.0000000000000000"/>
      <sparseX i="819" alpha="381.85946610102741" sparseCutoff="1.0000000000000000"/>
      <sparseX i="820" alpha="-94.102250027945573" sparseCutoff="1.0000000000000000"/>
      <sparseX i="821" alpha="282.26445633018801" sparseCutoff="1.0000000000000000"/>
      <sparseX i="822" alpha="410.38325085025525" sparseCutoff="1.0000000000000000"/>
      <sparseX i="823" alpha="-.85496449845798539" sparseCutoff="1.0000000000000000"/>
      <sparseX i="824" alpha="139.72140978042736" sparseCutoff="1.0000000000000000"/>
      <sparseX i="825" alpha="-195.06981704233760" sparseCutoff="1.0000000000000000"/>
      <sparseX i="826" alpha="-431.29168580055028" sparseCutoff="1.0000000000000000"/>
      <sparseX i="827" alpha="-150.74784046057653" sparseCutoff="1.0000000000000000"/>
      <sparseX i="828" alpha="10.307954609812048" sparseCutoff="1.0000000000000000"/>
      <sparseX i="829" alpha="106.29557635136884" sparseCutoff="1.0000000000000000"/>
      <sparseX i="830" alpha="261.73356396841814" sparseCutoff="1.0000000000000000"/>
      <sparseX i="831" alpha="222.55820742367132" sparseCutoff="1.0000000000000000"/>
      <sparseX i="832" alpha="473.56976845288727" sparseCutoff="1.0000000000000000"/>
      <sparseX i="833" alpha="-384.11131175966875" sparseCutoff="1.0000000000000000"/>
      <sparseX i="834" alpha="305.99170282670349" sparseCutoff="1.0000000000000000"/>
      <sparseX i="835" alpha="123.82255325665929" sparseCutoff="1.0000000000000000"/>
      <sparseX i="836" alpha="194.61008839904980" sparseCutoff="1.0000000000000000"/>
      <sparseX i="837" alpha="-442.99777004526641" sparseCutoff="1.0000000000000000"/>
      <sparseX i="838" alpha="202.44595105497379" sparseCutoff="1.0000000000000000"/>
      <sparseX i="839" alpha="-67.531056812309274" sparseCutoff="1.0000000000000000"/>
      <sparseX i="840" alpha="-32.062336590704383" sparseCutoff="1.0000000000000000"/>
      <sparseX i="841" alpha="143.99858919235908" sparseCutoff="1.0000000000000000"/>
      <sparseX i="842" alpha="513.17010777349560" sparseCutoff="1.0000000000000000"/>
      <sparseX i="843" alpha="123.27778543650909" sparseCutoff="1.0000000000000000"/>
      <sparseX i="844" alpha="-156.12024404164737" sparseCutoff="1.0000000000000000"/>
      <sparseX i="845" alpha="25.681258556012288" sparseCutoff="1.0000000000000000"/>
      <sparseX i="846" alpha="182.16289453795170" sparseCutoff="1.0000000000000000"/>
      <sparseX i="847" alpha="-121.19967790399745" sparseCutoff="1.0000000000000000"/>
      <sparseX i="848" alpha="113.65253749733563" sparseCutoff="1.0000000000000000"/>
      <sparseX i="849" alpha="-122.01469278868380" sparseCutoff="1.0000000000000000"/>
      <sparseX i="850" alpha="-188.23700100138504" sparseCutoff="1.0000000000000000"/>
      <sparseX i="851" alpha="-154.10983430385198" sparseCutoff="1.0000000000000000"/>
      <sparseX i="852" alpha="-594.96542435937818" sparseCutoff="1.0000000000000000"/>
      <sparseX i="853" alpha="57.080378056547914" sparseCutoff="1.0000000000000000"/>
      <sparseX i="854" alpha="-134.91648045360125" sparseCutoff="1.0000000000000000"/>
      <sparseX i="855" alpha="60.417715191197765" sparseCutoff="1.0000000000000000"/>
      <sparseX i="856" alpha="-217.59560630769124" sparseCutoff="1.0000000000000000"/>
      <sparseX i="857" alpha="-301.89755190166045" sparseCutoff="1.0000000000000000"/>
      <sparseX i="858" alpha="319.71912895155464" sparseCutoff="1.0000000000000000"/>
      <sparseX i="859" alpha="-530.37576188928551" sparseCutoff="1.0000000000000000"/>
      <sparseX i="860" alpha="51.562265785515308" sparseCutoff="1.0000000000000000"/>
      <sparseX i="861" alpha="-347.62612679060771" sparseCutoff="1.0000000000000000"/>
      <sparseX i="862" alpha="-392.64085927197056" sparseCutoff="1.0000000000000000"/>
      <sparseX i="863" alpha="54.153046293336033" sparseCutoff="1.0000000000000000"/>
      <sparseX i="864" alpha="10.834229385241025" sparseCutoff="1.0000000000000000"/>
      <sparseX i="865" alpha="93.931436837815909" sparseCutoff="1.0000000000000000"/>
      <sparseX i="866" alpha="51.579944036094048" sparseCutoff="1.0000000000000000"/>
      <sparseX i="867" alpha="-401.10734919301416" sparseCutoff="1.0000000000000000"/>
      <sparseX i="868" alpha="15.776905744056869" sparseCutoff="1.0000000000000000"/>
      <sparseX i="869" alpha="43.189551455305221" sparseCutoff="1.0000000000000000"/>
      <sparseX i="870" alpha="40.897241566958186" sparseCutoff="1.0000000000000000"/>
      <sparseX i="871" alpha="-254.30199520307067" sparseCutoff="1.0000000000000000"/>
      <sparseX i="872" alpha="113.10071229494842" sparseCutoff="1.0000000000000000"/>
      <sparseX i="873" alpha="222.81400576042617" sparseCutoff="1.0000000000000000"/>
      <sparseX i="874" alpha="-.74487698526775681" sparseCutoff="1.0000000000000000"/>
      <sparseX i="875" alpha="-108.68274164130683" sparseCutoff="1.0000000000000000"/>
      <sparseX i="876" alpha="-214.13682607340937" sparseCutoff="1.0000000000000000"/>
      <sparseX i="877" alpha="120.81412213841055" sparseCutoff="1.0000000000000000"/>
      <sparseX i="878" alpha="434.46942322585863" sparseCutoff="1.0000000000000000"/>
      <sparseX i="879" alpha="-253.44116380434349" sparseCutoff="1.0000000000000000"/>
      <sparseX i="880" alpha="-403.17265065592670" sparseCutoff="1.0000000000000000"/>
      <sparseX i="881" alpha="-243.52971058632943" sparseCutoff="1.0000000000000000"/>
      <sparseX i="882" alpha="-1199.4494734742536" sparseCutoff="1.0000000000000000"/>
      <sparseX i="883" alpha="-101.94555166654183" sparseCutoff="1.0000000000000000"/>
      <sparseX i="884" alpha="28.151013173268357" sparseCutoff="1.0000000000000000"/>
      <sparseX i="885" alpha="-239.17281022676886" sparseCutoff="1.0000000000000000"/>
      <sparseX i="886" alpha="-109.76540254684411" sparseCutoff="1.0000000000000000"/>
      <sparseX i="887" alpha="-45.993372077659359" sparseCutoff="1.0000000000000000"/>
      <sparseX i="888" alpha="-215.65111352558407" sparseCutoff="1.0000000000000000"/>
      <sparseX i="889" alpha="35.888711370360838" sparseCutoff="1.0000000000000000"/>
      <sparseX i="890" alpha="-134.23236003554163" sparseCutoff="1.0000000000000000"/>
      <sparseX i="891" alpha="110.43386472229253" sparseCutoff="1.0000000000000000"/>
      <sparseX i="892" alpha="-236.43801349294091" sparseCutoff="1.0000000000000000"/>
      <sparseX i="893" alpha="-36.025361340726789" sparseCutoff="1.0000000000000000"/>
      <sparseX i="894" alpha="-341.58791817298089" sparseCutoff="1.0000000000000000"/>
      <sparseX i="895" alpha="-117.80774870634050" sparseCutoff="1.0000000000000000"/>
      <sparseX i="896" alpha="156.59567173593214" sparseCutoff="1.0000000000000000"/>
      <sparseX i="897" alpha="75.521524575600750" sparseCutoff="1.0000000000000000"/>
      <sparseX i="898" alpha="-209.82619542530588" sparseCutoff="1.0000000000000000"/>
      <sparseX i="899" alpha="136.69340514665686" sparseCutoff="1.0000000000000000"/>
      <sparseX i="900" alpha="588.55991645490496" sparseCutoff="1.0000000000000000"/>
      <sparseX i="901" alpha="279.45262297822620" sparseCutoff="1.0000000000000000"/>
      <sparseX i="902" alpha="118.76979151647406" sparseCutoff="1.0000000000000000"/>
      <sparseX i="903" alpha="-243.50733953194256" sparseCutoff="1.0000000000000000"/>
      <sparseX i="904" alpha="-10.004769422973409" sparseCutoff="1.0000000000000000"/>
      <sparseX i="905" alpha="-152.16772075137843" sparseCutoff="1.0000000000000000"/>
      <sparseX i="906" alpha="114.45203419710205" sparseCutoff="1.0000000000000000"/>
      <sparseX i="907" alpha="-130.64388474563518" sparseCutoff="1.0000000000000000"/>
      <sparseX i="908" alpha="-28.570815564067420" sparseCutoff="1.0000000000000000"/>
      <sparseX i="909" alpha="-47.357669912016398" sparseCutoff="1.0000000000000000"/>
      <sparseX i="910" alpha="272.73073967814844" sparseCutoff="1.0000000000000000"/>
      <sparseX i="911" alpha="-182.22476477511944" sparseCutoff="1.0000000000000000"/>
      <sparseX i="912" alpha="26.368402056284072" sparseCutoff="1.0000000000000000"/>
      <sparseX i="913" alpha="99.976016149740573" sparseCutoff="1.0000000000000000"/>
      <sparseX i="914" alpha="-142.93298052254173" sparseCutoff="1.0000000000000000"/>
      <sparseX i="915" alpha="-17.155201611969733" sparseCutoff="1.0000000000000000"/>
      <sparseX i="916" alpha="-549.82687492215268" sparseCutoff="1.0000000000000000"/>
      <sparseX i="917" alpha="-194.63533775697860" sparseCutoff="1.0000000000000000"/>
      <sparseX i="918" alpha="-678.95578510087796" sparseCutoff="1.0000000000000000"/>
      <sparseX i="919" alpha="-418.07512892687714" sparseCutoff="1.0000000000000000"/>
      <sparseX i="920" alpha="-299.82722036869291" sparseCutoff="1.0000000000000000"/>
      <sparseX i="921" alpha="-242.32182954412789" sparseCutoff="1.0000000000000000"/>
      <sparseX i="922" alpha="-63.996220616171634" sparseCutoff="1.0000000000000000"/>
      <sparseX i="923" alpha="37.867900540503655" sparseCutoff="1.0000000000000000"/>
      <sparseX i="924" alpha="320.25224897155175" sparseCutoff="1.0000000000000000"/>
      <sparseX i="925" alpha="-162.48303021044686" sparseCutoff="1.0000000000000000"/>
      <sparseX i="926" alpha="-128.47560069111873" sparseCutoff="1.0000000000000000"/>
      <sparseX i="927" alpha="-356.21237406630274" sparseCutoff="1.0000000000000000"/>
      <sparseX i="928" alpha="-34.016949620876510" sparseCutoff="1.0000000000000000"/>
      <sparseX i="929" alpha="-42.769676573861950" sparseCutoff="1.0000000000000000"/>
      <sparseX i="930" alpha="120.07854738255190" sparseCutoff="1.0000000000000000"/>
      <sparseX i="931" alpha="-51.367830890088491" sparseCutoff="1.0000000000000000"/>
      <sparseX i="932" alpha="-481.97266228932000" sparseCutoff="1.0000000000000000"/>
      <sparseX i="933" alpha="103.17653957621381" sparseCutoff="1.0000000000000000"/>
      <sparseX i="934" alpha="176.01114727663014" sparseCutoff="1.0000000000000000"/>
      <sparseX i="935" alpha="45.451112412988060" sparseCutoff="1.0000000000000000"/>
      <sparseX i="936" alpha="-361.75124249413460" sparseCutoff="1.0000000000000000"/>
      <sparseX i="937" alpha="-14.194334146394917" sparseCutoff="1.0000000000000000"/>
      <sparseX i="938" alpha="-433.90953699964189" sparseCutoff="1.0000000000000000"/>
      <sparseX i="939" alpha="402.68331223254569" sparseCutoff="1.0000000000000000"/>
      <sparseX i="940" alpha="-431.01984809332146" sparseCutoff="1.0000000000000000"/>
      <sparseX i="941" alpha="193.04526335218074" sparseCutoff="1.0000000000000000"/>
      <sparseX i="942" alpha="88.476768405469102" sparseCutoff="1.0000000000000000"/>
      <sparseX i="943" alpha="7.8837254857862620" sparseCutoff="1.0000000000000000"/>
      <sparseX i="944" alpha="62.753415595979021" sparseCutoff="1.0000000000000000"/>
      <sparseX i="945" alpha="-300.55180364827061" sparseCutoff="1.0000000000000000"/>
      <sparseX i="946" alpha="143.96692729515837" sparseCutoff="1.0000000000000000"/>
      <sparseX i="947" alpha="430.59235118055165" sparseCutoff="1.0000000000000000"/>
      <sparseX i="948" alpha="198.41956248217812" sparseCutoff="1.0000000000000000"/>
      <sparseX i="949" alpha="169.37882897578316" sparseCutoff="1.0000000000000000"/>
      <sparseX i="950" alpha="-80.338790680921335" sparseCutoff="1.0000000000000000"/>
      <sparseX i="951" alpha="128.44379665174876" sparseCutoff="1.0000000000000000"/>
      <sparseX i="952" alpha="520.44337392370380" sparseCutoff="1.0000000000000000"/>
      <sparseX i="953" alpha="61.876383195065856" sparseCutoff="1.0000000000000000"/>
      <sparseX i="954" alpha="-247.76972944158695" sparseCutoff="1.0000000000000000"/>
      <sparseX i="955" alpha="-593.76783052647102" sparseCutoff="1.0000000000000000"/>
      <sparseX i="956" alpha="227.19320086409948" sparseCutoff="1.0000000000000000"/>
      <sparseX i="957" alpha="65.554933490305814" sparseCutoff="1.0000000000000000"/>
      <sparseX i="958" alpha="-521.40663612463311" sparseCutoff="1.0000000000000000"/>
      <sparseX i="959" alpha="406.44731665937496" sparseCutoff="1.0000000000000000"/>
      <sparseX i="960" alpha="-447.30183184793452" sparseCutoff="1.0000000000000000"/>
      <sparseX i="961" alpha="70.284542001702079" sparseCutoff="1.0000000000000000"/>
      <sparseX i="962" alpha="-23.760482244491769" sparseCutoff="1.0000000000000000"/>
      <sparseX i="963" alpha="-126.24879398920501" sparseCutoff="1.0000000000000000"/>
      <sparseX i="964" alpha="-285.10675876874126" sparseCutoff="1.0000000000000000"/>
      <sparseX i="965" alpha="-76.252551581975283" sparseCutoff="1.0000000000000000"/>
      <sparseX i="966" alpha="-170.88188181018904" sparseCutoff="1.0000000000000000"/>
      <sparseX i="967" alpha="-13.677874675848791" sparseCutoff="1.0000000000000000"/>
      <sparseX i="968" alpha="-147.40731174506215" sparseCutoff="1.0000000000000000"/>
      <sparseX i="969" alpha="-444.97372439681124" sparseCutoff="1.0000000000000000"/>
      <sparseX i="970" alpha="401.85622402304881" sparseCutoff="1.0000000000000000"/>
      <sparseX i="971" alpha="107.40380566440470" sparseCutoff="1.0000000000000000"/>
      <sparseX i="972" alpha="60.271672610657646" sparseCutoff="1.0000000000000000"/>
      <sparseX i="973" alpha="-304.42683841853238" sparseCutoff="1.0000000000000000"/>
      <sparseX i="974" alpha="450.37621428496624" sparseCutoff="1.0000000000000000"/>
      <sparseX i="975" alpha="-299.96564195774681" sparseCutoff="1.0000000000000000"/>
      <sparseX i="976" alpha="-233.27610109524187" sparseCutoff="1.0000000000000000"/>
      <sparseX i="977" alpha="111.89375087959591" sparseCutoff="1.0000000000000000"/>
      <sparseX i="978" alpha="-457.19123645877863" sparseCutoff="1.0000000000000000"/>
      <sparseX i="979" alpha="-97.745381509029059" sparseCutoff="1.0000000000000000"/>
      <sparseX i="980" alpha="-107.24674499032929" sparseCutoff="1.0000000000000000"/>
      <sparseX i="981" alpha="-102.29741196623036" sparseCutoff="1.0000000000000000"/>
      <sparseX i="982" alpha="133.23107493776584" sparseCutoff="1.0000000000000000"/>
      <sparseX i="983" alpha="160.51164679666340" sparseCutoff="1.0000000000000000"/>
      <sparseX i="984" alpha="-125.79295645291747" sparseCutoff="1.0000000000000000"/>
      <sparseX i="985" alpha="-373.25576085548499" sparseCutoff="1.0000000000000000"/>
      <sparseX i="986" alpha="-10.625703451880277" sparseCutoff="1.0000000000000000"/>
      <sparseX i="987" alpha="98.362969910388586" sparseCutoff="1.0000000000000000"/>
      <sparseX i="988" alpha="-309.89747006764179" sparseCutoff="1.0000000000000000"/>
      <sparseX i="989" alpha="-266.09590532890172" sparseCutoff="1.0000000000000000"/>
      <sparseX i="990" alpha="-242.36603310886264" sparseCutoff="1.0000000000000000"/>
      <sparseX i="991" alpha="475.75995427910487" sparseCutoff="1.0000000000000000"/>
      <sparseX i="992" alpha="360.65949345310895" sparseCutoff="1.0000000000000000"/>
      <sparseX i="993" alpha="221.50712867494036" sparseCutoff="1.0000000000000000"/>
      <sparseX i="994" alpha="-1736.4626873382667" sparseCutoff="1.0000000000000000"/>
      <sparseX i="995" alpha="-206.45610882212665" sparseCutoff="1.0000000000000000"/>
      <sparseX i="996" alpha="-20.756934295245248" sparseCutoff="1.0000000000000000"/>
      <sparseX i="997" alpha="-130.59913219071078" sparseCutoff="1.0000000000000000"/>
      <sparseX i="998" alpha="-8.1155920212865382" sparseCutoff="1.0000000000000000"/>
      <sparseX i="999" alpha="106.65881210770316" sparseCutoff="1.0000000000000000"/>
      <sparseX i="1000" alpha="354.26927101062114" sparseCutoff="1.0000000000000000"/>
      <sparseX i="1001" alpha="102.77172910885663" sparseCutoff="1.0000000000000000"/>
      <sparseX i="1002" alpha="-329.77623104212489" sparseCutoff="1.0000000000000000"/>
      <sparseX i="1003" alpha="-154.34123402431979" sparseCutoff="1.0000000000000000"/>
      <sparseX i="1004" alpha="-114.85896606820738" sparseCutoff="1.0000000000000000"/>
      <sparseX i="1005" alpha="481.44075218515525" sparseCutoff="1.0000000000000000"/>
      <sparseX i="1006" alpha="309.72603530723461" sparseCutoff="1.0000000000000000"/>
      <sparseX i="1007" alpha="302.36060391098175" sparseCutoff="1.0000000000000000"/>
      <sparseX i="1008" alpha="376.28925209079699" sparseCutoff="1.0000000000000000"/>
      <sparseX i="1009" alpha="118.34605993603033" sparseCutoff="1.0000000000000000"/>
      <sparseX i="1010" alpha="34.246544519894051" sparseCutoff="1.0000000000000000"/>
      <sparseX i="1011" alpha="-38.233490181687600" sparseCutoff="1.0000000000000000"/>
      <sparseX i="1012" alpha="-228.30502033646127" sparseCutoff="1.0000000000000000"/>
      <sparseX i="1013" alpha="-318.19521581042500" sparseCutoff="1.0000000000000000"/>
      <sparseX i="1014" alpha="396.63885838396925" sparseCutoff="1.0000000000000000"/>
      <sparseX i="1015" alpha="-156.72390020951357" sparseCutoff="1.0000000000000000"/>
      <sparseX i="1016" alpha="-704.53607354921633" sparseCutoff="1.0000000000000000"/>
      <sparseX i="1017" alpha="532.04948551022369" sparseCutoff="1.0000000000000000"/>
      <sparseX i="1018" alpha="315.72978264725299" sparseCutoff="1.0000000000000000"/>
      <sparseX i="1019" alpha="-278.73249267373171" sparseCutoff="1.0000000000000000"/>
      <sparseX i="1020" alpha="-18.299330748040909" sparseCutoff="1.0000000000000000"/>
      <sparseX i="1021" alpha="66.197079342979436" sparseCutoff="1.0000000000000000"/>
      <sparseX i="1022" alpha="162.60326597701641" sparseCutoff="1.0000000000000000"/>
      <sparseX i="1023" alpha="-50.611613065049774" sparseCutoff="1.0000000000000000"/>
      <sparseX i="1024" alpha="-76.667942500036830" sparseCutoff="1.0000000000000000"/>
      <sparseX i="1025" alpha="497.55232436806523" sparseCutoff="1.0000000000000000"/>
      <sparseX i="1026" alpha="-134.50549766467776" sparseCutoff="1.0000000000000000"/>
      <sparseX i="1027" alpha="-202.96476024290797" sparseCutoff="1.0000000000000000"/>
      <sparseX i="1028" alpha="-69.604211921576507" sparseCutoff="1.0000000000000000"/>
